%YAML:1.0
---
opencv_ml_svm:
   format: 3
   svmType: C_SVC
   kernel:
      type: RBF
      gamma: 1.0000000000000001e-05
   C: 1.0000000000000001e-01
   term_criteria: { epsilon:1.1920928955078125e-07, iterations:1000 }
   var_count: 426
   class_count: 5
   class_labels: !!opencv-matrix
      rows: 5
      cols: 1
      dt: i
      data: [ 0, 1, 2, 3, 4 ]
   sv_total: 610
   support_vectors:
      - [ 237., 185., 130., 121., 169., 147., 147., 172., 190., 314.,
          262., 332., 507., 483., 282., 101., 37., 33., 24., 11., 7., 1.,
          1., 3., 0., 273., 0., 1., 0., 0., 2., 4., 0., 5., 0., 24., 0.,
          6., 0., 0., 65., 0., 0., 0., 0., 7., 0., 0., 1., 1., 0., 0.,
          0., 0., 0., 125., 0., 0., 2., 0., 0., 0., 0., 3., 0., 9., 0.,
          3., 0., 0., 26., 0., 0., 2., 0., 8., 0., 0., 2., 6., 2., 0.,
          0., 0., 0., 96., 0., 0., 2., 0., 1., 4., 0., 3., 1., 3., 2.,
          2., 3., 1., 16., 0., 4., 0., 2., 6., 1., 0., 1., 0., 4., 0.,
          1., 1., 2., 36., 0., 0., 2., 0., 2., 3., 0., 1., 5., 1., 5.,
          5., 4., 2., 8., 0., 2., 1., 4., 4., 1., 0., 11., 3., 2., 3.,
          0., 1., 0., 67., 0., 1., 2., 2., 4., 4., 2., 5., 8., 12., 6.,
          4., 7., 4., 11., 2., 1., 4., 3., 6., 8., 8., 5., 6., 4., 7.,
          7., 8., 21., 39., 28., 7., 11., 11., 10., 6., 7., 8., 7., 6.,
          4., 6., 4., 4., 6., 3., 2., 7., 9., 1., 8., 4., 6., 2., 5., 4.,
          9., 4., 5., 3., 4., 7., 3., 10., 4., 0., 2., 6., 4., 4., 0.,
          4., 4., 3., 4., 3., 2., 2., 3., 4., 4., 2., 4., 4., 1., 4., 1.,
          4., 5., 3., 4., 4., 2., 3., 5., 3., 2., 4., 4., 2., 0., 5., 4.,
          3., 5., 3., 1., 4., 3., 1., 3., 2., 4., 7., 2., 1., 3., 2., 3.,
          2., 5., 2., 3., 3., 3., 8., 3., 4., 5., 1., 6., 1., 2., 3., 2.,
          2., 2., 8., 1., 5., 1., 6., 6., 7., 1., 4., 6., 7., 3., 4., 6.,
          3., 6., 5., 3., 6., 2., 7., 5., 6., 4., 12., 6., 3., 2., 4.,
          11., 6., 12., 8., 10., 8., 7., 18., 3., 9., 12., 15., 3., 9.,
          8., 7., 13., 10., 13., 11., 4., 7., 8., 12., 8., 24., 8., 21.,
          21., 25., 21., 23., 17., 21., 15., 27., 21., 24., 29., 34.,
          31., 32., 25., 30., 34., 40., 33., 48., 45., 44., 53., 64.,
          82., 94., 113., 141., 141., 211., 384., 371., 391., 231., 138.,
          160., 94., 43., 30., 42., 14., 8., 4., 0., 0., 0., 0., 0., 0.,
          0., 0., 0., 0., 0., 0., 0., 0., 0., 0., 0., 0., 0., 0., 0., 0.,
          0., 0., 0., 0., 0., 0., 0., 0., 0., 0., 0., 0., 0., 0., 0., 0.,
          0., 0., 0., 0., 0. ]
      - [ 0., 0., 0., 2., 0., 1., 1., 5., 3., 0., 40., 0., 0., 5., 5.,
          24., 12., 17., 62., 65., 139., 555., 1861., 1682., 656., 401.,
          4., 5., 8., 9., 6., 7., 1., 9., 1., 33., 0., 3., 0., 0., 58.,
          0., 1., 1., 0., 18., 1., 0., 2., 4., 3., 0., 0., 0., 0., 72.,
          0., 0., 0., 0., 0., 1., 0., 0., 0., 11., 0., 1., 0., 0., 3.,
          0., 0., 0., 0., 3., 0., 0., 2., 0., 0., 0., 0., 0., 0., 41.,
          0., 0., 0., 0., 0., 2., 0., 0., 0., 0., 0., 0., 0., 0., 1., 0.,
          0., 0., 0., 2., 0., 0., 0., 0., 0., 0., 0., 0., 0., 17., 0.,
          0., 0., 0., 0., 0., 0., 0., 0., 1., 0., 0., 0., 0., 3., 0., 0.,
          0., 0., 0., 0., 0., 4., 0., 0., 0., 0., 0., 0., 19., 0., 0.,
          0., 0., 0., 0., 0., 0., 1., 1., 0., 0., 0., 0., 4., 0., 0., 0.,
          0., 0., 0., 0., 1., 0., 0., 0., 0., 0., 0., 41., 25., 11., 20.,
          11., 13., 1., 5., 7., 7., 7., 7., 3., 4., 2., 2., 7., 3., 8.,
          9., 6., 5., 1., 7., 0., 8., 3., 6., 4., 4., 2., 6., 9., 6., 0.,
          4., 2., 3., 1., 2., 10., 2., 9., 5., 3., 0., 1., 1., 2., 5.,
          2., 5., 6., 6., 4., 5., 1., 1., 4., 2., 1., 1., 1., 9., 6., 8.,
          7., 4., 4., 5., 10., 13., 5., 11., 4., 9., 10., 5., 11., 8.,
          15., 12., 18., 11., 27., 38., 19., 21., 22., 19., 33., 22.,
          30., 27., 27., 21., 37., 51., 42., 29., 29., 35., 34., 46.,
          61., 60., 68., 101., 84., 80., 80., 75., 81., 80., 76., 57.,
          59., 53., 65., 80., 60., 109., 67., 105., 121., 86., 80., 68.,
          94., 80., 69., 63., 46., 55., 61., 53., 54., 56., 54., 69.,
          63., 84., 86., 84., 65., 58., 49., 83., 63., 59., 44., 37.,
          35., 42., 32., 26., 35., 22., 27., 37., 19., 36., 17., 26.,
          36., 15., 26., 31., 26., 26., 16., 22., 27., 16., 25., 18.,
          21., 11., 3., 8., 3., 4., 1., 1., 3., 0., 1., 0., 1., 0., 2.,
          0., 0., 0., 0., 0., 0., 0., 0., 0., 0., 0., 0., 0., 0., 0., 0.,
          0., 0., 0., 0., 0., 0., 0., 0., 0., 0., 0., 0., 0., 0., 0., 0.,
          0., 0., 0., 0., 0., 0., 0., 0., 0., 0., 0., 0., 0., 0., 0., 0.,
          0., 0., 0., 0., 0., 0., 0., 0., 0., 0., 0., 0. ]
      - [ 0., 0., 0., 1., 0., 4., 0., 1., 1., 0., 41., 0., 2., 7., 2.,
          14., 10., 8., 62., 96., 201., 606., 1551., 2158., 466., 340.,
          0., 7., 5., 6., 1., 6., 1., 27., 1., 57., 0., 3., 2., 0., 57.,
          0., 0., 2., 0., 14., 0., 0., 1., 2., 0., 0., 0., 0., 0., 76.,
          0., 0., 0., 0., 0., 0., 0., 1., 0., 2., 0., 0., 0., 0., 18.,
          0., 0., 0., 0., 3., 0., 0., 2., 4., 0., 0., 0., 0., 0., 33.,
          0., 0., 0., 0., 1., 0., 0., 0., 0., 0., 0., 0., 0., 0., 4., 0.,
          0., 0., 0., 5., 0., 0., 0., 0., 0., 0., 0., 0., 0., 15., 0.,
          0., 0., 0., 0., 0., 0., 1., 0., 0., 0., 0., 0., 0., 8., 0., 0.,
          0., 0., 3., 0., 0., 0., 0., 0., 0., 0., 0., 0., 25., 0., 0.,
          0., 0., 0., 0., 0., 0., 0., 1., 0., 0., 0., 0., 2., 0., 0., 0.,
          0., 0., 0., 0., 0., 0., 0., 0., 0., 0., 0., 41., 13., 15., 11.,
          11., 18., 11., 4., 7., 7., 7., 7., 8., 9., 9., 5., 7., 5., 3.,
          3., 7., 0., 6., 3., 8., 7., 2., 2., 6., 3., 6., 4., 3., 2., 2.,
          0., 7., 3., 3., 3., 6., 7., 2., 4., 4., 2., 1., 3., 5., 3., 4.,
          0., 3., 2., 0., 2., 3., 1., 2., 4., 11., 10., 3., 7., 7., 15.,
          24., 19., 7., 7., 8., 8., 18., 10., 11., 9., 16., 13., 12.,
          16., 17., 12., 18., 17., 25., 22., 21., 36., 18., 26., 20.,
          27., 24., 25., 34., 31., 23., 32., 40., 50., 41., 36., 46.,
          50., 54., 43., 49., 63., 54., 62., 111., 75., 84., 69., 71.,
          79., 91., 67., 65., 71., 68., 74., 53., 64., 82., 68., 60.,
          69., 66., 83., 86., 88., 67., 63., 80., 83., 62., 43., 38.,
          46., 43., 54., 48., 40., 64., 50., 57., 53., 74., 70., 43.,
          60., 47., 54., 53., 48., 55., 49., 41., 42., 49., 50., 35.,
          36., 29., 21., 26., 33., 20., 18., 20., 15., 16., 20., 23.,
          19., 18., 20., 16., 13., 8., 8., 4., 2., 6., 1., 1., 4., 0.,
          0., 0., 0., 0., 0., 0., 0., 0., 0., 0., 0., 0., 0., 0., 0., 0.,
          0., 0., 0., 0., 0., 0., 0., 0., 0., 0., 0., 0., 0., 0., 0., 0.,
          0., 0., 0., 0., 0., 0., 0., 0., 0., 0., 0., 0., 0., 0., 0., 0.,
          0., 0., 0., 0., 0., 0., 0., 0., 0., 0., 0., 0., 0., 0. ]
      - [ 0., 0., 0., 0., 0., 4., 0., 4., 3., 0., 28., 1., 3., 3., 4.,
          19., 17., 10., 37., 69., 335., 685., 1385., 2205., 196., 449.,
          3., 3., 7., 11., 14., 8., 0., 21., 0., 36., 4., 3., 2., 0.,
          73., 0., 0., 2., 2., 11., 0., 0., 8., 1., 0., 0., 0., 0., 0.,
          130., 0., 0., 0., 0., 0., 0., 0., 5., 0., 11., 0., 0., 0., 0.,
          18., 0., 0., 0., 0., 2., 0., 0., 0., 0., 0., 0., 0., 0., 0.,
          31., 0., 0., 0., 0., 0., 0., 0., 0., 0., 0., 0., 0., 0., 0.,
          0., 0., 0., 0., 0., 1., 0., 0., 0., 0., 0., 0., 0., 0., 0., 8.,
          0., 0., 0., 0., 0., 0., 0., 0., 0., 0., 0., 0., 0., 0., 2., 0.,
          0., 0., 0., 2., 0., 0., 0., 0., 0., 0., 0., 0., 0., 21., 0.,
          0., 0., 0., 0., 0., 0., 0., 0., 1., 0., 0., 0., 0., 11., 0.,
          0., 0., 0., 2., 0., 0., 0., 0., 0., 0., 0., 0., 0., 29., 21.,
          23., 18., 24., 7., 11., 7., 10., 10., 9., 9., 5., 7., 3., 4.,
          7., 5., 1., 4., 5., 3., 7., 5., 5., 1., 4., 5., 6., 3., 3., 5.,
          1., 9., 6., 2., 7., 2., 1., 3., 2., 2., 3., 5., 5., 6., 2., 3.,
          1., 3., 2., 1., 0., 2., 1., 5., 4., 4., 5., 1., 3., 3., 5., 5.,
          8., 7., 8., 14., 6., 9., 10., 11., 13., 4., 6., 9., 12., 9.,
          14., 13., 15., 18., 15., 7., 5., 30., 15., 11., 24., 15., 11.,
          26., 23., 20., 25., 28., 37., 31., 39., 38., 51., 74., 65.,
          55., 43., 56., 72., 72., 62., 75., 51., 54., 57., 55., 62.,
          68., 52., 78., 63., 68., 71., 69., 54., 63., 57., 55., 52.,
          42., 59., 51., 68., 36., 62., 51., 42., 59., 56., 73., 84.,
          53., 48., 51., 37., 49., 59., 60., 40., 82., 47., 50., 40.,
          36., 29., 39., 31., 31., 40., 32., 45., 25., 40., 23., 39.,
          41., 51., 18., 40., 34., 50., 36., 27., 34., 44., 21., 28.,
          21., 23., 22., 26., 16., 21., 19., 29., 20., 29., 26., 28.,
          20., 11., 12., 13., 1., 2., 0., 0., 0., 0., 0., 0., 0., 0., 0.,
          0., 0., 0., 0., 0., 0., 0., 0., 0., 0., 0., 0., 0., 0., 0., 0.,
          0., 0., 0., 0., 0., 0., 0., 0., 0., 0., 0., 0., 0., 0., 0., 0.,
          0., 0., 0., 0., 0., 0., 0., 0., 0., 0., 0., 0., 0., 0., 0., 0.,
          0. ]
      - [ 1., 1., 1., 0., 0., 6., 0., 0., 0., 0., 40., 2., 3., 17., 5.,
          34., 14., 4., 49., 82., 76., 168., 131., 162., 398., 2581.,
          1384., 94., 16., 16., 15., 8., 0., 16., 1., 38., 0., 2., 0.,
          0., 47., 0., 0., 0., 0., 6., 0., 0., 2., 0., 0., 0., 0., 0.,
          0., 61., 0., 0., 0., 0., 0., 0., 0., 0., 0., 0., 0., 0., 0.,
          0., 0., 0., 0., 0., 0., 0., 0., 0., 0., 0., 0., 0., 0., 0., 0.,
          9., 0., 0., 0., 0., 0., 0., 0., 0., 0., 0., 0., 0., 0., 0., 0.,
          0., 0., 0., 0., 0., 0., 0., 0., 0., 0., 0., 0., 0., 0., 26.,
          0., 0., 0., 0., 0., 0., 0., 0., 0., 0., 0., 2., 0., 0., 12.,
          0., 0., 1., 0., 3., 0., 0., 0., 0., 0., 0., 0., 0., 0., 29.,
          0., 0., 0., 0., 0., 0., 0., 0., 0., 0., 0., 0., 0., 0., 2., 0.,
          0., 0., 0., 1., 0., 0., 0., 0., 0., 0., 0., 0., 0., 40., 25.,
          33., 19., 14., 9., 9., 11., 5., 8., 7., 11., 10., 6., 9., 7.,
          6., 3., 3., 9., 6., 2., 5., 6., 8., 3., 2., 4., 5., 7., 2., 2.,
          2., 4., 5., 2., 1., 6., 1., 4., 3., 5., 8., 5., 3., 6., 6., 0.,
          9., 4., 2., 2., 5., 4., 1., 1., 1., 3., 1., 1., 2., 2., 2., 2.,
          3., 2., 1., 6., 7., 5., 10., 7., 24., 22., 15., 15., 16., 33.,
          32., 18., 38., 29., 39., 21., 41., 44., 40., 54., 64., 54.,
          58., 53., 54., 55., 33., 50., 48., 27., 56., 55., 55., 59.,
          52., 53., 60., 42., 44., 35., 34., 53., 34., 41., 44., 43.,
          77., 41., 36., 38., 41., 42., 26., 29., 39., 52., 25., 26.,
          30., 45., 32., 31., 29., 38., 28., 31., 15., 26., 31., 26.,
          39., 23., 29., 25., 24., 24., 24., 13., 25., 35., 32., 27.,
          18., 26., 32., 24., 40., 33., 33., 30., 22., 13., 36., 27.,
          34., 28., 31., 36., 41., 32., 30., 32., 32., 22., 26., 32.,
          41., 26., 29., 36., 22., 32., 41., 34., 29., 52., 21., 36.,
          37., 18., 35., 27., 14., 16., 19., 24., 8., 21., 14., 9., 12.,
          10., 8., 18., 9., 7., 5., 8., 3., 5., 6., 5., 3., 2., 0., 0.,
          1., 1., 1., 0., 0., 0., 0., 0., 0., 0., 0., 0., 0., 0., 0., 0.,
          0., 0., 0., 0., 0., 0., 0., 0., 0., 0., 0., 0., 0., 0., 0., 0.,
          0., 0., 0., 0., 0. ]
      - [ 916., 887., 356., 109., 50., 29., 9., 20., 14., 2., 26., 11.,
          4., 5., 2., 7., 0., 0., 3., 0., 1., 1., 0., 0., 0., 130., 0.,
          0., 0., 0., 0., 1., 0., 2., 0., 9., 0., 2., 0., 0., 55., 0.,
          0., 0., 0., 11., 0., 0., 6., 2., 0., 0., 0., 0., 0., 118., 0.,
          0., 0., 0., 0., 0., 0., 2., 0., 7., 0., 0., 0., 0., 47., 0.,
          0., 4., 0., 15., 0., 0., 4., 3., 0., 0., 0., 0., 0., 149., 0.,
          0., 0., 0., 0., 0., 0., 0., 0., 5., 0., 0., 0., 0., 18., 0.,
          0., 0., 0., 4., 0., 0., 0., 0., 0., 0., 0., 0., 0., 45., 0.,
          0., 0., 0., 0., 0., 0., 0., 0., 0., 0., 0., 0., 0., 5., 0., 0.,
          0., 0., 2., 0., 0., 0., 0., 0., 0., 0., 0., 0., 89., 0., 0.,
          0., 0., 0., 0., 0., 0., 0., 0., 0., 0., 0., 0., 23., 0., 0.,
          0., 0., 4., 0., 0., 1., 2., 1., 4., 8., 9., 36., 27., 15., 9.,
          4., 16., 16., 14., 8., 6., 7., 10., 12., 5., 1., 2., 8., 7.,
          13., 9., 4., 3., 6., 10., 0., 5., 1., 8., 8., 3., 2., 5., 5.,
          1., 1., 2., 4., 4., 4., 2., 1., 2., 7., 1., 1., 6., 6., 2., 5.,
          0., 2., 3., 1., 0., 1., 4., 5., 9., 8., 10., 6., 5., 2., 9.,
          5., 11., 6., 9., 9., 4., 7., 3., 6., 6., 7., 5., 3., 4., 6.,
          5., 8., 8., 9., 4., 8., 5., 5., 8., 8., 10., 7., 3., 5., 6.,
          8., 5., 5., 8., 3., 6., 5., 6., 4., 9., 5., 11., 10., 12., 6.,
          6., 7., 3., 9., 11., 10., 8., 5., 7., 10., 7., 9., 5., 14., 9.,
          17., 8., 9., 7., 7., 15., 10., 8., 10., 11., 11., 11., 8., 6.,
          11., 11., 10., 12., 19., 8., 12., 25., 21., 14., 17., 22., 18.,
          18., 30., 23., 25., 26., 21., 31., 35., 25., 34., 29., 40.,
          39., 27., 24., 45., 39., 36., 56., 56., 58., 70., 62., 68.,
          76., 70., 64., 86., 80., 58., 62., 59., 55., 71., 54., 53.,
          50., 62., 43., 68., 76., 67., 54., 52., 70., 47., 39., 50.,
          56., 60., 57., 59., 48., 57., 46., 48., 51., 36., 45., 47.,
          48., 58., 37., 53., 46., 51., 43., 42., 37., 32., 34., 21.,
          14., 4., 10., 4., 19., 1., 9., 1., 0., 1., 0., 0., 0., 0., 0.,
          0., 0., 0., 0., 0., 0., 0., 0., 0., 0., 0., 0., 0., 0. ]
      - [ 261., 220., 163., 94., 94., 121., 81., 100., 114., 184., 453.,
          396., 530., 371., 351., 241., 119., 89., 50., 27., 29., 21.,
          12., 0., 0., 324., 0., 0., 1., 1., 2., 4., 0., 12., 0., 26.,
          0., 3., 1., 0., 104., 0., 0., 3., 3., 11., 0., 0., 5., 1., 1.,
          0., 0., 0., 0., 146., 0., 0., 0., 0., 0., 0., 0., 2., 0., 12.,
          0., 1., 0., 0., 18., 0., 0., 2., 0., 6., 0., 0., 3., 0., 0.,
          0., 0., 0., 0., 93., 0., 0., 0., 0., 1., 0., 1., 4., 0., 4.,
          0., 0., 3., 0., 4., 0., 1., 1., 0., 5., 1., 0., 2., 3., 1., 3.,
          0., 1., 0., 14., 0., 0., 2., 0., 1., 3., 0., 3., 1., 2., 1.,
          2., 0., 0., 5., 3., 0., 2., 0., 1., 2., 1., 2., 2., 2., 1., 0.,
          0., 0., 50., 0., 1., 0., 3., 4., 1., 1., 1., 2., 11., 1., 4.,
          5., 5., 4., 2., 5., 6., 12., 7., 10., 6., 10., 9., 8., 7., 6.,
          6., 18., 30., 22., 8., 18., 9., 13., 13., 6., 10., 5., 2., 2.,
          4., 8., 3., 2., 3., 6., 5., 1., 3., 5., 2., 5., 4., 2., 6., 2.,
          3., 8., 2., 4., 0., 3., 8., 3., 3., 4., 6., 3., 3., 1., 4., 2.,
          1., 4., 1., 1., 0., 1., 2., 0., 2., 4., 1., 6., 1., 1., 3., 0.,
          2., 2., 2., 3., 0., 1., 2., 1., 2., 5., 1., 1., 3., 2., 5., 6.,
          3., 4., 2., 3., 4., 4., 3., 6., 8., 7., 6., 0., 4., 3., 1., 5.,
          4., 2., 2., 2., 3., 3., 4., 4., 4., 4., 2., 5., 1., 1., 2., 3.,
          3., 1., 3., 6., 7., 3., 6., 4., 6., 7., 5., 11., 3., 3., 6.,
          4., 11., 2., 5., 6., 5., 8., 6., 4., 5., 6., 5., 3., 4., 5.,
          6., 5., 3., 5., 3., 7., 7., 8., 8., 7., 10., 10., 10., 11.,
          10., 17., 17., 11., 18., 19., 13., 22., 21., 20., 21., 25.,
          26., 28., 33., 29., 44., 29., 38., 35., 41., 44., 43., 41.,
          41., 54., 40., 39., 42., 41., 44., 63., 66., 73., 91., 126.,
          88., 146., 123., 185., 178., 193., 165., 224., 182., 170.,
          174., 122., 115., 60., 59., 38., 41., 37., 50., 13., 11., 1.,
          0., 0., 0., 0., 0., 0., 0., 0., 0., 0., 0., 0., 0., 0., 0., 0.,
          0., 0., 0., 0., 0., 0., 0., 0., 0., 0., 0., 0., 0., 0., 0., 0.,
          0., 0., 0., 0., 0., 0., 0., 0., 0. ]
      - [ 0., 0., 0., 0., 0., 3., 0., 2., 1., 1., 26., 0., 5., 10., 1.,
          18., 15., 14., 52., 121., 218., 500., 1727., 2062., 439., 374.,
          4., 7., 7., 12., 12., 17., 0., 14., 5., 22., 0., 3., 2., 0.,
          42., 0., 3., 4., 2., 1., 1., 0., 2., 3., 0., 0., 0., 0., 0.,
          79., 0., 0., 0., 0., 0., 0., 0., 2., 0., 8., 0., 1., 0., 0.,
          3., 0., 0., 1., 0., 1., 3., 0., 1., 0., 0., 2., 0., 0., 0.,
          29., 0., 0., 0., 0., 0., 0., 0., 1., 0., 4., 0., 0., 0., 0.,
          0., 0., 0., 0., 0., 5., 0., 0., 0., 0., 0., 0., 0., 0., 0.,
          25., 0., 0., 0., 0., 0., 0., 0., 0., 0., 0., 0., 0., 0., 0.,
          0., 0., 0., 0., 0., 1., 0., 0., 0., 0., 0., 0., 0., 0., 0.,
          13., 0., 0., 0., 0., 0., 0., 0., 0., 0., 1., 0., 0., 0., 0.,
          1., 0., 0., 0., 0., 1., 0., 0., 0., 0., 0., 0., 0., 0., 0.,
          44., 21., 32., 5., 15., 13., 14., 6., 9., 6., 6., 13., 7., 5.,
          7., 5., 10., 4., 8., 5., 6., 5., 5., 5., 1., 7., 12., 8., 8.,
          4., 1., 4., 6., 2., 5., 0., 3., 0., 6., 5., 7., 6., 7., 4., 3.,
          5., 0., 0., 2., 3., 0., 8., 2., 6., 3., 3., 5., 4., 6., 1., 2.,
          2., 3., 3., 5., 12., 14., 5., 6., 8., 14., 10., 13., 11., 9.,
          11., 15., 10., 14., 7., 8., 14., 14., 12., 12., 6., 23., 18.,
          7., 19., 10., 10., 20., 35., 17., 33., 18., 25., 30., 42., 45.,
          43., 41., 37., 46., 31., 38., 47., 61., 42., 72., 75., 67.,
          80., 66., 84., 97., 121., 118., 129., 77., 106., 38., 79., 96.,
          87., 104., 67., 76., 69., 66., 73., 66., 58., 63., 74., 52.,
          41., 61., 57., 62., 73., 41., 52., 82., 56., 54., 58., 46.,
          46., 68., 53., 36., 35., 31., 27., 39., 38., 23., 56., 54.,
          40., 49., 40., 33., 24., 33., 41., 39., 15., 33., 21., 25.,
          19., 21., 16., 26., 19., 12., 16., 11., 15., 13., 9., 9., 2.,
          8., 1., 1., 1., 1., 0., 0., 0., 0., 0., 0., 0., 0., 0., 0., 0.,
          0., 0., 0., 0., 0., 0., 0., 0., 0., 0., 0., 0., 0., 0., 0., 0.,
          0., 0., 0., 0., 0., 0., 0., 0., 0., 0., 0., 0., 0., 0., 0., 0.,
          0., 0., 0., 0., 0., 0., 0., 0., 0., 0., 0., 0., 0., 0., 0., 0.,
          0. ]
      - [ 71., 88., 108., 100., 113., 138., 147., 166., 121., 120., 236.,
          314., 537., 715., 577., 414., 88., 27., 8., 4., 1., 3., 2., 1.,
          0., 235., 0., 0., 0., 2., 5., 4., 0., 7., 0., 26., 1., 2., 1.,
          0., 91., 0., 5., 3., 1., 18., 0., 0., 2., 2., 0., 1., 0., 0.,
          0., 140., 0., 0., 0., 0., 0., 0., 0., 1., 0., 6., 1., 2., 0.,
          0., 18., 0., 0., 0., 1., 16., 0., 0., 1., 0., 0., 0., 0., 0.,
          0., 95., 0., 0., 0., 1., 2., 1., 0., 3., 0., 4., 0., 1., 1.,
          0., 25., 2., 0., 2., 0., 2., 0., 0., 0., 0., 0., 1., 1., 0.,
          0., 54., 0., 0., 0., 1., 1., 3., 0., 1., 1., 0., 0., 0., 1.,
          0., 14., 0., 1., 1., 0., 1., 3., 0., 2., 1., 1., 1., 1., 0.,
          0., 74., 0., 0., 2., 3., 3., 3., 1., 1., 1., 7., 5., 5., 1.,
          0., 13., 5., 11., 11., 7., 13., 8., 5., 21., 11., 12., 12.,
          14., 10., 10., 45., 31., 19., 19., 9., 17., 10., 10., 7., 1.,
          13., 6., 1., 3., 5., 3., 1., 5., 5., 3., 9., 6., 2., 2., 0.,
          6., 4., 1., 4., 3., 6., 3., 4., 2., 4., 0., 0., 1., 1., 4., 2.,
          3., 4., 0., 4., 2., 1., 5., 3., 4., 3., 3., 4., 4., 6., 9., 5.,
          1., 9., 2., 2., 4., 2., 4., 6., 3., 2., 2., 2., 2., 1., 3., 4.,
          4., 4., 5., 1., 6., 5., 6., 2., 3., 1., 4., 4., 3., 5., 5., 6.,
          6., 5., 7., 7., 5., 2., 6., 8., 4., 7., 3., 6., 4., 2., 6., 3.,
          5., 5., 4., 6., 2., 7., 4., 3., 3., 7., 7., 3., 5., 7., 9., 8.,
          10., 10., 5., 7., 11., 11., 5., 6., 8., 4., 22., 7., 11., 11.,
          12., 14., 11., 10., 10., 15., 12., 11., 11., 5., 6., 10., 8.,
          10., 12., 5., 3., 5., 11., 8., 5., 8., 11., 6., 10., 10., 7.,
          10., 11., 5., 5., 6., 11., 3., 9., 7., 13., 14., 12., 15., 21.,
          17., 13., 20., 26., 14., 17., 26., 33., 19., 32., 17., 45.,
          43., 53., 57., 73., 60., 79., 92., 219., 259., 281., 355.,
          179., 206., 212., 214., 198., 172., 117., 99., 44., 50., 31.,
          12., 11., 1., 1., 0., 0., 0., 0., 0., 0., 0., 0., 0., 0., 0.,
          0., 0., 0., 0., 0., 0., 0., 0., 0., 0., 0., 0., 0., 0., 0., 0.,
          0., 0., 0., 0., 0., 0., 0., 0., 0., 0. ]
      - [ 70., 148., 134., 121., 142., 113., 106., 177., 219., 255.,
          218., 182., 278., 461., 589., 461., 204., 53., 39., 10., 1.,
          0., 0., 0., 0., 256., 0., 0., 1., 2., 2., 2., 0., 11., 0., 12.,
          1., 0., 2., 0., 87., 0., 1., 4., 0., 18., 1., 0., 6., 3., 0.,
          3., 0., 0., 0., 170., 0., 0., 0., 0., 0., 1., 0., 3., 0., 13.,
          0., 1., 0., 0., 30., 0., 0., 0., 0., 14., 0., 0., 5., 1., 0.,
          0., 0., 0., 0., 104., 0., 0., 0., 0., 2., 0., 0., 0., 0., 10.,
          0., 1., 1., 0., 14., 0., 0., 0., 1., 1., 3., 0., 4., 3., 1.,
          0., 0., 0., 0., 43., 0., 0., 1., 0., 0., 0., 2., 4., 4., 5.,
          3., 0., 4., 3., 9., 0., 2., 3., 0., 2., 3., 0., 2., 0., 1., 1.,
          0., 1., 1., 84., 1., 4., 1., 2., 5., 3., 3., 4., 2., 2., 8.,
          5., 7., 6., 12., 1., 2., 2., 3., 5., 9., 7., 12., 7., 11., 16.,
          17., 16., 13., 27., 21., 13., 15., 10., 5., 6., 6., 5., 2., 9.,
          8., 3., 5., 5., 3., 3., 4., 3., 7., 4., 2., 2., 4., 6., 10.,
          4., 10., 3., 6., 5., 2., 3., 1., 5., 3., 6., 5., 6., 0., 5.,
          2., 4., 7., 6., 5., 4., 1., 3., 6., 1., 7., 1., 5., 4., 4., 4.,
          3., 2., 0., 1., 4., 6., 3., 1., 3., 3., 4., 3., 5., 2., 2., 7.,
          2., 0., 1., 8., 5., 5., 2., 2., 3., 3., 3., 4., 5., 4., 7., 3.,
          7., 4., 6., 2., 3., 3., 6., 3., 5., 5., 4., 2., 6., 5., 1., 6.,
          5., 4., 4., 9., 4., 2., 7., 8., 8., 4., 6., 6., 7., 4., 5., 9.,
          6., 4., 2., 10., 8., 6., 4., 6., 7., 5., 2., 14., 10., 8., 4.,
          7., 6., 11., 8., 4., 9., 2., 17., 7., 6., 7., 5., 7., 9., 7.,
          8., 5., 6., 16., 5., 13., 5., 10., 11., 17., 13., 19., 12.,
          22., 9., 13., 9., 11., 5., 18., 19., 8., 15., 12., 13., 15.,
          22., 16., 16., 15., 11., 18., 25., 26., 36., 19., 33., 29.,
          49., 47., 83., 115., 138., 173., 231., 205., 180., 165., 151.,
          183., 200., 148., 129., 131., 134., 118., 89., 83., 73., 66.,
          25., 6., 10., 0., 0., 0., 0., 0., 0., 0., 0., 0., 0., 0., 0.,
          0., 0., 0., 0., 0., 0., 0., 0., 0., 0., 0., 0., 0., 0., 0., 0.,
          0., 0., 0., 0., 0., 0., 0., 0., 0. ]
      - [ 68., 104., 109., 102., 118., 116., 208., 110., 102., 147.,
          172., 379., 583., 637., 641., 407., 72., 50., 6., 5., 5., 4.,
          1., 1., 0., 286., 0., 0., 1., 0., 2., 3., 1., 4., 0., 33., 0.,
          2., 1., 0., 65., 0., 1., 2., 0., 12., 0., 0., 2., 0., 0., 0.,
          0., 0., 0., 109., 0., 0., 0., 0., 0., 1., 0., 2., 0., 8., 0.,
          0., 0., 0., 20., 0., 0., 0., 0., 9., 0., 0., 6., 0., 0., 1.,
          0., 0., 0., 108., 0., 0., 0., 2., 0., 0., 0., 3., 0., 19., 0.,
          1., 1., 0., 25., 0., 0., 0., 0., 7., 0., 0., 4., 1., 1., 0.,
          1., 0., 0., 40., 0., 0., 0., 1., 3., 0., 5., 1., 0., 3., 0.,
          1., 0., 1., 12., 1., 1., 1., 0., 6., 1., 0., 2., 4., 1., 4.,
          0., 0., 0., 58., 0., 1., 0., 2., 2., 3., 0., 1., 2., 7., 3.,
          2., 4., 1., 10., 5., 6., 9., 6., 7., 8., 2., 10., 7., 14., 17.,
          9., 15., 13., 28., 30., 16., 15., 15., 10., 11., 9., 8., 6.,
          9., 9., 6., 3., 5., 6., 4., 2., 0., 2., 3., 2., 5., 2., 3., 6.,
          5., 4., 2., 4., 4., 3., 4., 1., 2., 0., 3., 3., 2., 4., 1., 1.,
          5., 2., 2., 4., 3., 1., 2., 2., 2., 5., 1., 3., 7., 6., 5., 3.,
          4., 1., 7., 7., 3., 0., 5., 3., 2., 4., 3., 5., 3., 3., 5., 3.,
          2., 1., 2., 0., 6., 5., 2., 2., 3., 8., 9., 6., 12., 9., 2.,
          2., 8., 5., 4., 3., 6., 8., 2., 4., 4., 1., 7., 2., 4., 6., 2.,
          8., 3., 7., 1., 9., 8., 11., 5., 6., 2., 5., 6., 7., 2., 6.,
          4., 4., 6., 9., 9., 6., 7., 7., 8., 6., 11., 10., 13., 8., 7.,
          9., 5., 6., 11., 7., 8., 7., 2., 12., 6., 17., 8., 10., 23.,
          15., 15., 14., 9., 8., 11., 7., 3., 7., 6., 12., 6., 6., 6.,
          8., 8., 9., 11., 11., 6., 6., 12., 5., 15., 10., 18., 19., 8.,
          24., 13., 23., 23., 22., 23., 21., 36., 33., 22., 50., 41.,
          54., 33., 77., 66., 97., 92., 224., 280., 219., 326., 159.,
          227., 180., 203., 243., 187., 146., 120., 56., 39., 25., 7.,
          7., 2., 0., 0., 0., 0., 0., 0., 0., 0., 0., 0., 0., 0., 0., 0.,
          0., 0., 0., 0., 0., 0., 0., 0., 0., 0., 0., 0., 0., 0., 0., 0.,
          0., 0., 0., 0., 0., 0., 0., 0. ]
      - [ 0., 1., 1., 2., 8., 16., 13., 20., 33., 82., 189., 114., 87.,
          137., 182., 302., 1004., 1525., 255., 100., 11., 1., 3., 2.,
          0., 321., 0., 3., 2., 2., 1., 1., 0., 14., 0., 71., 0., 5., 2.,
          0., 152., 0., 5., 1., 0., 25., 1., 0., 3., 3., 1., 0., 0., 0.,
          0., 194., 0., 0., 0., 0., 0., 0., 0., 2., 0., 26., 0., 3., 0.,
          0., 39., 0., 1., 3., 0., 24., 0., 0., 6., 2., 0., 0., 0., 0.,
          0., 100., 0., 0., 0., 0., 0., 0., 0., 0., 0., 2., 0., 0., 0.,
          0., 11., 0., 0., 0., 0., 1., 0., 0., 0., 0., 0., 0., 0., 0.,
          0., 13., 0., 0., 0., 0., 0., 0., 0., 0., 0., 0., 0., 0., 0.,
          0., 0., 0., 0., 0., 0., 0., 0., 0., 0., 0., 0., 0., 0., 0., 0.,
          10., 0., 0., 0., 0., 0., 0., 0., 0., 0., 0., 1., 0., 0., 0.,
          3., 0., 0., 0., 0., 1., 0., 0., 4., 0., 0., 0., 1., 0., 0.,
          24., 12., 12., 7., 5., 6., 12., 7., 7., 10., 3., 5., 3., 4.,
          2., 5., 2., 9., 3., 4., 5., 3., 7., 3., 6., 2., 6., 2., 4., 1.,
          2., 2., 3., 3., 1., 2., 3., 0., 7., 5., 4., 3., 4., 1., 3., 3.,
          3., 5., 2., 1., 0., 2., 0., 2., 0., 2., 4., 0., 1., 4., 2., 2.,
          5., 1., 0., 0., 1., 2., 1., 0., 0., 1., 0., 0., 0., 3., 1., 1.,
          1., 2., 1., 3., 1., 3., 5., 3., 3., 1., 2., 0., 3., 1., 1., 1.,
          0., 1., 2., 3., 0., 3., 2., 3., 1., 1., 2., 4., 0., 6., 6., 3.,
          5., 12., 2., 12., 11., 7., 7., 10., 7., 8., 7., 9., 9., 16.,
          10., 6., 18., 13., 16., 10., 15., 19., 17., 16., 18., 17., 19.,
          12., 15., 14., 11., 15., 10., 8., 14., 14., 17., 10., 19., 17.,
          13., 21., 20., 20., 21., 8., 22., 15., 15., 11., 11., 24., 27.,
          25., 26., 23., 24., 41., 40., 39., 38., 46., 47., 35., 68.,
          52., 37., 35., 28., 39., 36., 35., 32., 46., 59., 52., 43.,
          36., 39., 46., 24., 25., 40., 35., 42., 58., 49., 46., 42.,
          40., 46., 35., 39., 46., 49., 56., 44., 41., 24., 39., 40.,
          42., 42., 59., 52., 43., 48., 36., 50., 33., 55., 50., 63.,
          66., 47., 48., 58., 70., 57., 54., 41., 19., 15., 18., 15., 4.,
          1., 0., 0., 0., 0., 0., 0., 0., 0., 0., 0., 0., 0., 0., 0. ]
      - [ 0., 1., 0., 0., 0., 8., 1., 3., 2., 4., 31., 1., 3., 8., 4.,
          24., 11., 5., 52., 85., 76., 135., 117., 206., 598., 2375.,
          1365., 96., 10., 4., 7., 26., 1., 19., 2., 54., 0., 0., 0., 0.,
          56., 0., 0., 0., 0., 1., 0., 0., 0., 0., 0., 0., 0., 0., 0.,
          60., 0., 0., 0., 0., 0., 0., 0., 0., 0., 0., 0., 0., 0., 0.,
          1., 0., 0., 0., 0., 1., 0., 0., 2., 0., 0., 0., 0., 0., 0.,
          24., 0., 0., 0., 0., 0., 0., 0., 0., 0., 0., 0., 0., 0., 0.,
          1., 0., 0., 0., 0., 2., 0., 0., 0., 0., 0., 0., 0., 0., 0., 8.,
          0., 0., 0., 0., 0., 0., 0., 0., 0., 2., 0., 0., 0., 0., 6., 0.,
          0., 0., 0., 1., 0., 0., 0., 0., 0., 0., 0., 0., 0., 29., 0.,
          0., 0., 0., 0., 0., 0., 0., 0., 0., 0., 0., 0., 0., 3., 0., 0.,
          0., 0., 0., 0., 1., 1., 0., 0., 0., 0., 0., 0., 55., 22., 11.,
          13., 12., 13., 7., 12., 13., 18., 14., 7., 6., 8., 7., 9., 1.,
          3., 1., 6., 8., 6., 2., 3., 3., 2., 3., 2., 8., 2., 4., 2., 2.,
          1., 1., 3., 6., 6., 2., 1., 5., 2., 6., 5., 0., 2., 1., 6., 7.,
          4., 6., 4., 4., 1., 5., 4., 4., 2., 2., 3., 4., 4., 5., 3., 4.,
          1., 5., 3., 7., 3., 11., 11., 11., 10., 16., 15., 18., 23.,
          30., 29., 33., 20., 28., 36., 40., 52., 54., 58., 59., 45.,
          42., 48., 53., 53., 60., 53., 57., 46., 56., 68., 68., 68.,
          43., 60., 40., 28., 50., 39., 44., 35., 51., 62., 52., 46.,
          41., 38., 36., 17., 37., 31., 35., 23., 36., 44., 32., 33.,
          46., 36., 34., 37., 32., 26., 29., 31., 22., 22., 19., 24.,
          21., 22., 19., 34., 29., 30., 25., 20., 45., 25., 41., 30.,
          36., 31., 15., 26., 31., 25., 28., 43., 23., 38., 31., 26.,
          29., 26., 27., 36., 38., 42., 26., 38., 25., 31., 29., 24.,
          38., 28., 27., 28., 41., 32., 34., 34., 35., 30., 24., 21.,
          23., 13., 25., 11., 11., 25., 29., 23., 17., 26., 14., 13.,
          14., 17., 10., 7., 12., 8., 12., 5., 5., 2., 1., 0., 0., 0.,
          0., 0., 0., 0., 0., 0., 0., 0., 0., 0., 0., 0., 0., 0., 0., 0.,
          0., 0., 0., 0., 0., 0., 0., 0., 0., 0., 0., 0., 0., 0., 0., 0.,
          0., 0., 0., 0., 0., 0., 0. ]
      - [ 0., 0., 0., 1., 0., 5., 1., 4., 1., 0., 32., 3., 2., 2., 12.,
          27., 27., 23., 94., 65., 77., 145., 130., 240., 525., 2505.,
          1267., 49., 8., 12., 12., 10., 0., 12., 0., 27., 0., 3., 2.,
          0., 19., 0., 0., 0., 0., 1., 0., 0., 1., 1., 1., 0., 0., 0.,
          0., 62., 0., 0., 0., 0., 0., 0., 0., 0., 0., 0., 0., 0., 0.,
          0., 6., 0., 0., 0., 0., 0., 0., 0., 0., 0., 0., 0., 0., 0., 0.,
          39., 0., 0., 0., 0., 0., 0., 0., 0., 0., 0., 0., 0., 0., 0.,
          0., 0., 0., 0., 0., 0., 0., 0., 0., 0., 0., 0., 0., 0., 0.,
          15., 0., 0., 0., 0., 0., 0., 0., 0., 0., 0., 0., 0., 0., 0.,
          2., 0., 0., 0., 0., 0., 0., 0., 1., 0., 0., 0., 0., 0., 0.,
          18., 0., 0., 0., 0., 0., 0., 0., 0., 0., 0., 0., 0., 0., 0.,
          7., 0., 0., 0., 0., 1., 0., 0., 1., 2., 0., 0., 0., 0., 0.,
          28., 25., 17., 21., 8., 14., 12., 14., 18., 11., 6., 13., 8.,
          10., 4., 5., 5., 4., 4., 9., 3., 4., 15., 1., 7., 6., 5., 2.,
          5., 2., 5., 1., 3., 1., 3., 1., 3., 3., 2., 1., 9., 2., 5., 3.,
          2., 1., 0., 2., 4., 3., 4., 0., 3., 5., 1., 3., 3., 6., 4.,
          11., 2., 1., 6., 2., 0., 4., 3., 3., 1., 5., 9., 18., 9., 13.,
          13., 12., 19., 8., 21., 21., 32., 18., 28., 28., 31., 25., 37.,
          33., 35., 46., 58., 55., 70., 71., 71., 73., 67., 43., 56.,
          56., 66., 59., 50., 59., 62., 51., 62., 47., 49., 51., 61.,
          31., 46., 45., 66., 59., 30., 47., 53., 35., 26., 35., 59.,
          52., 25., 29., 35., 32., 39., 29., 31., 26., 41., 23., 36.,
          17., 24., 22., 30., 34., 26., 34., 33., 15., 32., 16., 36.,
          20., 26., 19., 40., 24., 28., 32., 24., 27., 29., 24., 23.,
          22., 25., 29., 29., 41., 25., 39., 31., 37., 48., 35., 29.,
          31., 23., 27., 41., 14., 22., 35., 25., 21., 38., 26., 45.,
          51., 37., 42., 39., 12., 30., 6., 13., 25., 18., 15., 4., 10.,
          11., 2., 5., 3., 3., 1., 0., 2., 0., 0., 0., 0., 0., 0., 0.,
          0., 0., 0., 0., 0., 0., 0., 0., 0., 0., 0., 0., 0., 0., 0., 0.,
          0., 0., 0., 0., 0., 0., 0., 0., 0., 0., 0., 0., 0., 0., 0., 0.,
          0., 0., 0., 0., 0., 0., 0., 0. ]
      - [ 282., 229., 298., 414., 207., 212., 236., 130., 22., 8., 17.,
          13., 10., 9., 5., 5., 3., 2., 14., 3., 4., 3., 2., 2., 2., 66.,
          0., 1., 5., 1., 1., 0., 2., 4., 0., 7., 1., 0., 0., 1., 29.,
          1., 1., 1., 0., 12., 0., 0., 1., 0., 1., 0., 0., 0., 0., 156.,
          0., 1., 0., 0., 0., 3., 0., 5., 0., 7., 0., 3., 0., 0., 47.,
          0., 0., 1., 1., 9., 0., 1., 3., 0., 1., 1., 4., 0., 0., 191.,
          0., 2., 0., 1., 1., 0., 0., 3., 2., 6., 1., 0., 1., 1., 25.,
          0., 1., 0., 0., 2., 0., 0., 1., 0., 1., 0., 0., 0., 0., 65.,
          0., 0., 0., 1., 0., 0., 0., 0., 0., 0., 1., 0., 0., 1., 8., 0.,
          0., 0., 1., 1., 0., 0., 0., 0., 1., 0., 0., 0., 0., 48., 0.,
          0., 0., 0., 0., 1., 0., 0., 0., 0., 0., 0., 0., 0., 22., 0.,
          0., 2., 2., 6., 1., 0., 6., 2., 10., 10., 14., 34., 118., 21.,
          15., 15., 10., 7., 10., 12., 13., 11., 13., 10., 6., 2., 8.,
          13., 14., 9., 13., 6., 8., 9., 4., 9., 4., 9., 5., 2., 7., 4.,
          5., 3., 5., 4., 7., 5., 1., 4., 3., 4., 2., 3., 9., 4., 5., 5.,
          5., 8., 4., 6., 4., 2., 7., 8., 1., 4., 0., 3., 1., 4., 0., 4.,
          4., 3., 4., 7., 6., 5., 3., 6., 4., 13., 11., 6., 4., 7., 8.,
          19., 8., 20., 8., 9., 15., 12., 6., 11., 14., 7., 10., 12.,
          10., 9., 7., 10., 15., 10., 14., 9., 4., 16., 12., 17., 15.,
          15., 14., 12., 23., 12., 10., 13., 13., 15., 10., 13., 7., 15.,
          16., 20., 22., 15., 9., 10., 12., 17., 15., 8., 22., 17., 31.,
          23., 17., 30., 23., 25., 28., 18., 19., 17., 20., 28., 19.,
          25., 28., 20., 31., 25., 36., 26., 31., 28., 41., 39., 49.,
          62., 54., 38., 39., 39., 42., 40., 43., 37., 30., 38., 39.,
          56., 44., 51., 54., 79., 75., 45., 82., 75., 61., 52., 63.,
          62., 52., 47., 53., 49., 33., 46., 50., 53., 53., 56., 38.,
          51., 57., 60., 44., 39., 42., 37., 44., 37., 29., 46., 32.,
          66., 40., 37., 41., 37., 21., 19., 38., 35., 30., 36., 32.,
          29., 25., 18., 37., 11., 11., 11., 8., 6., 1., 3., 3., 5., 6.,
          1., 0., 0., 0., 0., 0., 0., 0., 0., 0., 0., 0., 0., 0., 0., 0.,
          0., 0., 0., 0., 0., 0., 0., 0., 0. ]
      - [ 0., 0., 0., 0., 0., 2., 1., 0., 0., 9., 35., 3., 3., 10., 7.,
          24., 15., 32., 82., 102., 89., 101., 128., 200., 381., 1116.,
          1665., 1079., 81., 11., 5., 15., 4., 14., 0., 17., 0., 0., 0.,
          1., 52., 0., 0., 1., 0., 5., 0., 0., 1., 0., 0., 0., 0., 0.,
          0., 42., 0., 0., 0., 0., 0., 1., 0., 1., 0., 3., 0., 1., 0.,
          0., 4., 0., 0., 0., 0., 2., 0., 0., 0., 0., 0., 0., 0., 0., 0.,
          34., 0., 0., 0., 0., 0., 0., 0., 1., 0., 1., 0., 0., 0., 0.,
          4., 0., 0., 0., 0., 0., 0., 0., 0., 0., 0., 0., 0., 0., 0.,
          37., 0., 0., 0., 0., 0., 0., 0., 0., 0., 0., 0., 0., 0., 0.,
          2., 0., 0., 0., 0., 0., 0., 0., 0., 0., 0., 0., 0., 0., 0.,
          30., 0., 0., 0., 0., 0., 0., 0., 0., 0., 0., 0., 0., 0., 0.,
          1., 0., 0., 0., 0., 0., 0., 0., 0., 0., 0., 0., 2., 0., 0.,
          29., 19., 21., 10., 9., 11., 10., 9., 10., 7., 6., 6., 7., 11.,
          4., 14., 5., 7., 10., 15., 13., 6., 6., 6., 5., 3., 5., 9., 8.,
          1., 1., 6., 1., 3., 8., 7., 2., 6., 2., 6., 2., 0., 5., 5., 2.,
          3., 2., 1., 0., 3., 4., 4., 3., 4., 2., 7., 0., 2., 2., 2., 1.,
          3., 5., 3., 4., 0., 6., 10., 21., 16., 9., 16., 7., 17., 17.,
          21., 12., 14., 22., 15., 18., 19., 28., 16., 24., 25., 12.,
          16., 34., 21., 23., 18., 30., 16., 26., 36., 46., 45., 49.,
          62., 47., 38., 24., 42., 30., 46., 24., 28., 37., 35., 46.,
          47., 53., 40., 41., 52., 45., 47., 58., 74., 28., 35., 40.,
          34., 27., 35., 41., 61., 56., 30., 42., 55., 66., 56., 71.,
          79., 53., 34., 43., 44., 40., 26., 29., 25., 45., 28., 37.,
          42., 39., 26., 39., 46., 27., 38., 35., 32., 20., 46., 42.,
          33., 46., 36., 30., 46., 36., 33., 25., 38., 26., 40., 35.,
          30., 40., 31., 37., 34., 33., 36., 33., 34., 39., 25., 37.,
          48., 36., 48., 40., 33., 20., 13., 5., 8., 7., 7., 2., 4., 1.,
          3., 1., 2., 0., 1., 0., 0., 0., 0., 0., 0., 0., 0., 0., 0., 0.,
          0., 0., 0., 0., 0., 0., 0., 0., 0., 0., 0., 0., 0., 0., 0., 0.,
          0., 0., 0., 0., 0., 0., 0., 0., 0., 0., 0., 0., 0., 0., 0., 0.,
          0., 0., 0., 0., 0., 0. ]
      - [ 0., 0., 0., 0., 0., 4., 0., 1., 0., 0., 26., 0., 2., 2., 3.,
          21., 10., 15., 65., 109., 225., 547., 1615., 2122., 428., 402.,
          5., 10., 7., 11., 18., 16., 1., 18., 3., 41., 0., 3., 0., 0.,
          75., 0., 1., 0., 0., 2., 0., 0., 0., 0., 0., 0., 0., 0., 0.,
          65., 0., 0., 0., 0., 0., 0., 0., 0., 0., 3., 0., 0., 0., 0.,
          5., 0., 0., 0., 0., 2., 0., 0., 1., 1., 0., 4., 0., 0., 0.,
          34., 0., 0., 0., 0., 0., 0., 0., 1., 0., 2., 0., 0., 0., 0.,
          5., 0., 0., 0., 0., 0., 0., 0., 0., 0., 0., 0., 0., 0., 0.,
          20., 0., 0., 0., 0., 0., 0., 0., 0., 0., 0., 0., 0., 0., 0.,
          3., 0., 0., 0., 0., 0., 0., 0., 0., 0., 0., 0., 0., 0., 0.,
          14., 0., 0., 0., 0., 0., 0., 0., 0., 0., 0., 0., 0., 0., 0.,
          0., 0., 0., 0., 0., 0., 0., 0., 0., 0., 0., 0., 0., 0., 0.,
          24., 17., 22., 10., 6., 22., 7., 13., 13., 15., 11., 7., 3.,
          7., 5., 3., 6., 5., 3., 3., 7., 7., 3., 7., 10., 7., 5., 9.,
          1., 1., 4., 5., 8., 2., 3., 0., 3., 6., 3., 5., 3., 5., 4., 4.,
          1., 3., 4., 3., 2., 6., 2., 3., 2., 4., 5., 1., 7., 2., 1., 4.,
          5., 1., 5., 5., 1., 6., 5., 6., 12., 14., 10., 12., 11., 9.,
          14., 17., 8., 14., 17., 12., 10., 10., 17., 7., 11., 13., 14.,
          13., 19., 13., 23., 16., 22., 13., 21., 24., 25., 37., 32.,
          32., 52., 36., 52., 45., 46., 36., 40., 32., 80., 72., 65.,
          67., 80., 91., 113., 147., 109., 81., 93., 93., 69., 93., 52.,
          80., 85., 84., 80., 60., 91., 58., 62., 54., 47., 35., 70.,
          49., 57., 78., 59., 51., 66., 71., 96., 71., 46., 52., 57.,
          49., 48., 41., 39., 29., 40., 38., 23., 41., 58., 34., 50.,
          56., 45., 46., 40., 33., 40., 22., 42., 25., 32., 37., 28.,
          23., 18., 23., 18., 22., 15., 14., 14., 11., 17., 9., 14., 7.,
          11., 6., 6., 13., 3., 3., 0., 1., 0., 0., 0., 0., 0., 0., 0.,
          0., 0., 0., 0., 0., 0., 0., 0., 0., 0., 0., 0., 0., 0., 0., 0.,
          0., 0., 0., 0., 0., 0., 0., 0., 0., 0., 0., 0., 0., 0., 0., 0.,
          0., 0., 0., 0., 0., 0., 0., 0., 0., 0., 0., 0., 0., 0., 0., 0.,
          0., 0., 0., 0. ]
      - [ 0., 0., 0., 0., 0., 2., 0., 0., 0., 0., 29., 0., 0., 4., 3.,
          16., 9., 18., 53., 53., 147., 604., 1690., 2330., 127., 331.,
          2., 5., 4., 3., 7., 3., 0., 23., 3., 30., 0., 8., 0., 0., 112.,
          0., 0., 7., 0., 9., 0., 0., 2., 4., 0., 0., 0., 0., 0., 132.,
          0., 0., 0., 0., 0., 0., 0., 2., 0., 5., 0., 0., 0., 0., 7., 0.,
          0., 0., 0., 4., 0., 0., 0., 0., 0., 0., 0., 0., 0., 38., 0.,
          0., 0., 0., 0., 0., 0., 0., 0., 0., 0., 0., 0., 0., 1., 0., 0.,
          0., 0., 0., 0., 0., 0., 0., 0., 0., 0., 0., 0., 20., 0., 0.,
          0., 0., 0., 0., 0., 0., 0., 1., 0., 0., 0., 0., 3., 0., 0., 0.,
          0., 0., 0., 0., 0., 0., 0., 0., 0., 0., 0., 28., 0., 0., 0.,
          0., 0., 0., 0., 0., 0., 0., 0., 0., 0., 0., 8., 0., 0., 0., 0.,
          1., 0., 0., 0., 0., 0., 0., 0., 0., 0., 38., 13., 12., 14., 7.,
          9., 11., 7., 9., 6., 9., 10., 8., 3., 12., 2., 3., 6., 5., 3.,
          4., 7., 7., 1., 0., 2., 3., 5., 5., 3., 1., 5., 4., 2., 1., 3.,
          5., 3., 2., 3., 2., 2., 5., 5., 2., 5., 3., 0., 5., 3., 5., 2.,
          2., 3., 0., 0., 4., 2., 2., 4., 2., 4., 11., 9., 9., 7., 12.,
          9., 6., 9., 9., 10., 6., 9., 12., 15., 9., 19., 8., 13., 19.,
          12., 8., 12., 16., 7., 16., 12., 12., 35., 29., 26., 30., 31.,
          33., 27., 45., 47., 41., 79., 97., 97., 104., 123., 119., 95.,
          112., 106., 109., 110., 87., 93., 96., 82., 81., 57., 66., 61.,
          41., 58., 39., 69., 65., 46., 50., 41., 49., 41., 59., 49.,
          47., 55., 56., 56., 58., 44., 47., 57., 40., 56., 37., 46.,
          34., 56., 41., 49., 48., 39., 40., 33., 37., 38., 31., 38.,
          39., 35., 30., 43., 31., 33., 27., 27., 30., 24., 31., 9., 22.,
          25., 34., 30., 25., 18., 21., 31., 15., 21., 23., 23., 19.,
          21., 21., 12., 7., 8., 1., 0., 0., 0., 0., 0., 0., 0., 0., 0.,
          0., 0., 0., 0., 0., 0., 0., 0., 0., 0., 0., 0., 0., 0., 0., 0.,
          0., 0., 0., 0., 0., 0., 0., 0., 0., 0., 0., 0., 0., 0., 0., 0.,
          0., 0., 0., 0., 0., 0., 0., 0., 0., 0., 0., 0., 0., 0., 0., 0.,
          0., 0., 0., 0., 0., 0., 0., 0., 0. ]
      - [ 2., 2., 2., 2., 8., 12., 15., 25., 28., 54., 99., 111., 197.,
          240., 137., 241., 1437., 1047., 255., 121., 8., 2., 2., 0., 0.,
          292., 0., 0., 0., 3., 1., 8., 2., 29., 1., 73., 5., 8., 2., 0.,
          133., 0., 1., 9., 2., 39., 0., 0., 12., 0., 2., 0., 0., 0., 0.,
          223., 0., 0., 0., 0., 1., 2., 0., 3., 0., 10., 0., 1., 0., 0.,
          45., 0., 0., 1., 0., 10., 0., 0., 2., 0., 0., 0., 0., 0., 0.,
          113., 0., 0., 0., 1., 0., 0., 0., 0., 0., 0., 0., 0., 0., 0.,
          10., 0., 0., 0., 0., 0., 0., 0., 0., 0., 0., 0., 0., 0., 0.,
          9., 0., 0., 0., 0., 0., 0., 0., 0., 0., 0., 0., 0., 0., 0., 1.,
          0., 0., 0., 0., 0., 0., 0., 1., 0., 0., 0., 0., 0., 0., 18.,
          0., 0., 0., 0., 0., 1., 0., 0., 0., 0., 0., 0., 0., 0., 9., 0.,
          0., 1., 0., 0., 0., 1., 0., 0., 0., 0., 0., 0., 0., 51., 19.,
          9., 14., 4., 5., 10., 1., 8., 1., 3., 6., 12., 4., 4., 5., 8.,
          2., 7., 2., 8., 5., 1., 2., 2., 0., 3., 0., 2., 4., 2., 5., 3.,
          3., 1., 4., 2., 2., 2., 3., 6., 3., 4., 2., 1., 1., 0., 0., 1.,
          1., 4., 2., 4., 2., 5., 6., 2., 2., 1., 2., 4., 0., 4., 5., 4.,
          1., 2., 2., 2., 3., 2., 1., 1., 1., 0., 4., 3., 0., 2., 1., 5.,
          1., 0., 0., 2., 4., 0., 2., 4., 3., 3., 0., 0., 1., 0., 1., 1.,
          2., 5., 1., 0., 0., 2., 2., 28., 21., 5., 6., 10., 4., 10.,
          10., 10., 13., 10., 10., 8., 10., 5., 9., 4., 17., 4., 12.,
          11., 10., 16., 22., 14., 15., 11., 14., 11., 5., 18., 20., 9.,
          6., 15., 14., 15., 15., 15., 14., 17., 10., 13., 15., 20., 22.,
          20., 20., 13., 14., 19., 10., 21., 10., 19., 18., 26., 17.,
          27., 22., 36., 23., 23., 27., 24., 24., 23., 22., 27., 34.,
          57., 44., 36., 47., 29., 46., 38., 49., 39., 36., 32., 44.,
          30., 53., 57., 27., 37., 40., 46., 28., 29., 40., 39., 43.,
          35., 34., 35., 30., 31., 38., 43., 38., 38., 34., 43., 36.,
          29., 47., 40., 52., 52., 65., 41., 63., 66., 55., 56., 62.,
          67., 64., 45., 33., 38., 50., 58., 56., 32., 44., 28., 20.,
          20., 17., 6., 5., 1., 0., 0., 0., 0., 0., 0., 0., 0., 0., 0.,
          0., 0. ]
      - [ 706., 841., 475., 209., 26., 19., 13., 12., 5., 5., 24., 5.,
          0., 6., 1., 6., 3., 0., 7., 6., 6., 2., 0., 0., 0., 115., 0.,
          0., 0., 1., 1., 0., 1., 2., 0., 5., 0., 1., 0., 0., 52., 0.,
          0., 0., 0., 3., 0., 0., 0., 0., 0., 1., 0., 0., 0., 131., 0.,
          0., 0., 0., 0., 1., 0., 2., 0., 12., 0., 2., 0., 0., 56., 0.,
          0., 2., 0., 24., 1., 0., 16., 5., 1., 1., 0., 0., 0., 261., 0.,
          0., 0., 1., 1., 2., 0., 2., 0., 8., 0., 1., 1., 0., 30., 0.,
          0., 0., 0., 5., 0., 0., 2., 0., 0., 0., 0., 0., 0., 96., 0.,
          0., 0., 0., 0., 0., 0., 0., 0., 0., 0., 0., 0., 0., 11., 0.,
          0., 0., 0., 1., 0., 0., 0., 0., 0., 0., 0., 0., 0., 44., 0.,
          0., 0., 0., 0., 0., 0., 0., 0., 0., 1., 0., 0., 0., 9., 0., 2.,
          0., 0., 3., 0., 0., 0., 1., 0., 8., 4., 19., 54., 35., 12.,
          19., 14., 15., 8., 5., 14., 4., 10., 5., 8., 7., 13., 8., 6.,
          5., 5., 1., 2., 3., 6., 6., 3., 10., 6., 1., 8., 4., 2., 2.,
          1., 6., 10., 2., 2., 4., 0., 4., 1., 2., 5., 0., 2., 1., 4.,
          4., 2., 5., 3., 4., 1., 3., 3., 4., 4., 5., 10., 7., 9., 10.,
          6., 3., 6., 1., 5., 4., 11., 4., 4., 6., 3., 4., 3., 3., 3.,
          11., 6., 4., 7., 5., 3., 0., 2., 7., 4., 1., 2., 6., 8., 2.,
          5., 3., 8., 5., 7., 4., 4., 4., 4., 8., 4., 8., 3., 4., 8., 8.,
          5., 9., 10., 9., 10., 8., 5., 4., 7., 5., 8., 4., 10., 10., 1.,
          5., 9., 6., 4., 11., 9., 11., 8., 4., 9., 10., 12., 14., 6.,
          6., 14., 11., 11., 9., 11., 13., 5., 13., 8., 10., 19., 11.,
          15., 6., 14., 18., 14., 15., 30., 15., 11., 24., 13., 27., 39.,
          51., 34., 62., 41., 57., 52., 46., 43., 55., 58., 70., 74.,
          82., 64., 52., 59., 77., 79., 91., 60., 86., 64., 82., 64.,
          60., 69., 55., 62., 58., 59., 87., 62., 70., 72., 86., 66.,
          62., 38., 52., 53., 58., 77., 71., 55., 68., 62., 64., 63.,
          83., 50., 55., 32., 38., 22., 11., 3., 1., 11., 3., 14., 6.,
          11., 1., 14., 3., 0., 0., 0., 0., 0., 0., 0., 0., 0., 0., 0.,
          0., 0., 0., 0., 0., 0., 0., 0., 0., 0., 0., 0., 0. ]
      - [ 1., 0., 2., 2., 2., 3., 0., 1., 3., 4., 42., 3., 4., 9., 12.,
          47., 18., 24., 80., 69., 91., 116., 73., 120., 390., 2366.,
          1179., 565., 60., 5., 3., 32., 0., 18., 0., 39., 0., 0., 0.,
          0., 49., 0., 0., 0., 0., 4., 0., 0., 0., 0., 0., 0., 0., 0.,
          0., 56., 0., 0., 0., 0., 0., 0., 0., 1., 0., 1., 0., 1., 0.,
          0., 10., 0., 0., 0., 0., 3., 0., 0., 2., 0., 0., 0., 0., 0.,
          0., 26., 0., 0., 0., 0., 0., 0., 0., 0., 0., 0., 0., 0., 0.,
          0., 0., 0., 0., 0., 0., 0., 0., 0., 0., 0., 0., 0., 0., 0., 0.,
          12., 0., 0., 0., 0., 0., 0., 0., 0., 0., 0., 0., 0., 0., 0.,
          6., 0., 0., 0., 0., 1., 0., 0., 0., 0., 0., 0., 0., 0., 0.,
          21., 0., 0., 0., 0., 0., 0., 0., 0., 0., 0., 0., 0., 0., 0.,
          10., 0., 0., 0., 0., 2., 0., 0., 0., 0., 0., 0., 0., 0., 0.,
          35., 21., 17., 11., 12., 16., 7., 10., 9., 6., 15., 8., 4., 8.,
          13., 16., 10., 7., 9., 3., 7., 4., 3., 9., 5., 12., 1., 2., 3.,
          5., 0., 9., 2., 2., 0., 4., 0., 3., 15., 9., 2., 3., 0., 2.,
          5., 2., 5., 7., 4., 1., 4., 1., 5., 10., 2., 5., 2., 2., 5.,
          1., 9., 6., 5., 1., 4., 2., 2., 6., 12., 7., 13., 11., 10.,
          15., 7., 11., 13., 20., 7., 7., 23., 8., 7., 32., 21., 21.,
          18., 28., 26., 26., 34., 35., 49., 63., 46., 55., 57., 31.,
          62., 62., 52., 54., 43., 42., 54., 33., 62., 50., 46., 47.,
          53., 47., 66., 46., 57., 51., 67., 71., 55., 114., 74., 65.,
          97., 83., 41., 53., 53., 62., 75., 45., 54., 29., 30., 44.,
          28., 23., 27., 21., 30., 22., 24., 26., 24., 33., 37., 34.,
          39., 25., 35., 42., 28., 30., 29., 38., 38., 33., 22., 44.,
          26., 22., 14., 29., 29., 24., 22., 27., 17., 25., 18., 11.,
          22., 20., 18., 22., 23., 26., 27., 33., 44., 37., 33., 30.,
          40., 52., 31., 38., 34., 16., 18., 10., 3., 6., 4., 4., 2., 4.,
          4., 0., 2., 1., 0., 0., 0., 0., 0., 0., 0., 0., 0., 0., 0., 0.,
          0., 0., 0., 0., 0., 0., 0., 0., 0., 0., 0., 0., 0., 0., 0., 0.,
          0., 0., 0., 0., 0., 0., 0., 0., 0., 0., 0., 0., 0., 0., 0., 0.,
          0., 0., 0., 0., 0., 0., 0. ]
      - [ 524., 508., 499., 417., 325., 431., 483., 272., 187., 7., 24.,
          6., 2., 6., 4., 14., 4., 1., 6., 4., 2., 2., 0., 2., 0., 163.,
          0., 0., 0., 1., 0., 0., 0., 5., 0., 10., 0., 2., 0., 0., 28.,
          0., 0., 1., 0., 12., 0., 0., 3., 0., 0., 0., 0., 0., 0., 137.,
          0., 0., 0., 0., 0., 0., 0., 2., 0., 17., 0., 2., 0., 0., 43.,
          0., 1., 0., 0., 11., 0., 0., 1., 1., 1., 0., 0., 0., 0., 162.,
          0., 0., 0., 0., 0., 0., 0., 4., 0., 11., 0., 0., 0., 0., 23.,
          0., 0., 1., 0., 3., 0., 0., 0., 1., 0., 0., 0., 0., 0., 53.,
          0., 0., 0., 0., 0., 0., 0., 1., 0., 0., 0., 0., 0., 0., 8., 0.,
          0., 0., 0., 2., 0., 0., 0., 0., 0., 0., 0., 0., 0., 48., 0.,
          0., 0., 0., 0., 0., 0., 2., 0., 0., 0., 0., 0., 0., 5., 0., 0.,
          1., 1., 7., 0., 0., 3., 1., 1., 1., 4., 7., 13., 26., 11., 20.,
          7., 3., 12., 12., 14., 5., 8., 4., 11., 6., 11., 4., 11., 6.,
          4., 1., 10., 5., 9., 2., 7., 6., 5., 5., 3., 3., 5., 3., 3.,
          5., 7., 4., 1., 6., 2., 2., 4., 2., 1., 5., 3., 1., 2., 2., 3.,
          2., 1., 0., 4., 3., 3., 4., 1., 3., 7., 1., 3., 3., 5., 3., 0.,
          3., 7., 5., 2., 3., 5., 3., 3., 4., 3., 1., 3., 1., 1., 4., 3.,
          17., 10., 17., 12., 25., 19., 13., 7., 10., 8., 8., 14., 11.,
          14., 10., 8., 17., 5., 10., 12., 4., 9., 7., 15., 10., 10., 7.,
          16., 6., 8., 17., 12., 6., 10., 19., 12., 12., 12., 9., 18.,
          17., 15., 12., 9., 18., 10., 16., 16., 30., 26., 12., 18., 25.,
          23., 15., 20., 19., 15., 21., 15., 30., 27., 30., 31., 34.,
          35., 32., 43., 34., 41., 26., 39., 42., 39., 25., 44., 21.,
          38., 44., 45., 46., 48., 45., 56., 60., 53., 85., 72., 83.,
          78., 61., 51., 83., 79., 77., 77., 98., 78., 105., 89., 113.,
          108., 88., 90., 77., 92., 72., 65., 80., 75., 41., 47., 45.,
          41., 45., 36., 36., 28., 31., 30., 19., 7., 9., 11., 2., 6.,
          2., 7., 4., 1., 0., 0., 0., 0., 0., 0., 0., 0., 0., 0., 0., 0.,
          0., 0., 0., 0., 0., 0., 0., 0., 0., 0., 0., 0., 0., 0., 0., 0.,
          0., 0., 0., 0., 0., 0., 0., 0., 0., 0., 0., 0., 0. ]
      - [ 50., 115., 123., 107., 96., 144., 176., 104., 117., 138., 221.,
          404., 584., 715., 549., 382., 75., 24., 9., 0., 0., 3., 0., 0.,
          0., 266., 0., 0., 0., 1., 0., 1., 0., 11., 0., 16., 1., 4., 0.,
          0., 50., 0., 2., 2., 0., 12., 0., 0., 6., 4., 0., 0., 0., 0.,
          0., 101., 0., 0., 0., 0., 0., 1., 0., 4., 0., 5., 0., 1., 0.,
          0., 16., 0., 0., 2., 0., 8., 1., 0., 6., 3., 2., 1., 0., 0.,
          0., 107., 0., 0., 0., 1., 3., 0., 0., 1., 1., 10., 0., 1., 1.,
          0., 16., 0., 2., 1., 0., 3., 1., 0., 1., 1., 0., 1., 0., 0.,
          0., 59., 0., 0., 0., 0., 0., 3., 0., 2., 2., 4., 1., 2., 0.,
          0., 11., 1., 0., 1., 2., 5., 2., 0., 1., 4., 2., 2., 0., 0.,
          0., 37., 0., 1., 1., 3., 2., 5., 0., 8., 2., 6., 2., 3., 2.,
          4., 11., 6., 5., 2., 1., 7., 12., 3., 10., 17., 6., 11., 16.,
          7., 25., 37., 20., 19., 18., 13., 11., 10., 2., 7., 10., 7.,
          7., 4., 3., 2., 4., 3., 2., 5., 4., 2., 4., 1., 2., 2., 4., 3.,
          2., 0., 5., 5., 5., 0., 3., 3., 3., 2., 3., 5., 2., 1., 6., 5.,
          1., 5., 3., 1., 1., 5., 3., 4., 1., 1., 8., 2., 5., 1., 6., 8.,
          6., 3., 4., 2., 8., 4., 2., 3., 1., 2., 6., 4., 3., 5., 6., 2.,
          3., 7., 2., 5., 3., 5., 3., 2., 2., 5., 4., 8., 6., 3., 8., 5.,
          6., 3., 6., 3., 5., 2., 7., 5., 3., 3., 7., 2., 9., 6., 4., 9.,
          6., 7., 3., 12., 7., 3., 2., 5., 7., 3., 10., 5., 12., 9., 10.,
          9., 6., 9., 7., 9., 7., 5., 4., 5., 4., 6., 7., 7., 13., 6.,
          2., 10., 6., 6., 4., 10., 9., 9., 12., 6., 6., 13., 7., 8., 8.,
          5., 10., 6., 20., 18., 10., 8., 8., 5., 9., 4., 7., 10., 8.,
          12., 12., 17., 9., 8., 14., 17., 8., 19., 8., 9., 21., 20.,
          16., 20., 17., 24., 31., 27., 37., 24., 48., 32., 56., 50.,
          70., 99., 117., 111., 235., 270., 314., 236., 198., 302., 220.,
          203., 200., 144., 78., 57., 63., 42., 15., 2., 1., 0., 0., 0.,
          0., 0., 0., 0., 0., 0., 0., 0., 0., 0., 0., 0., 0., 0., 0., 0.,
          0., 0., 0., 0., 0., 0., 0., 0., 0., 0., 0., 0., 0., 0., 0., 0.,
          0., 0., 0., 0. ]
      - [ 0., 1., 0., 2., 1., 3., 4., 16., 30., 47., 124., 110., 160.,
          143., 146., 238., 563., 1955., 300., 122., 7., 2., 6., 4., 0.,
          267., 3., 0., 2., 1., 0., 11., 1., 31., 1., 48., 0., 9., 1.,
          0., 143., 0., 0., 4., 1., 30., 0., 0., 6., 1., 0., 0., 0., 0.,
          0., 205., 0., 0., 0., 0., 0., 0., 1., 1., 0., 24., 0., 1., 0.,
          0., 68., 0., 0., 0., 0., 15., 0., 0., 2., 0., 0., 1., 0., 0.,
          0., 142., 0., 0., 0., 0., 0., 0., 0., 0., 0., 0., 0., 0., 0.,
          0., 3., 0., 0., 0., 0., 1., 0., 0., 0., 0., 0., 0., 0., 0., 0.,
          28., 0., 0., 0., 0., 0., 0., 0., 0., 0., 0., 0., 0., 0., 0.,
          3., 0., 0., 0., 0., 0., 0., 0., 0., 0., 0., 0., 0., 0., 0.,
          33., 0., 0., 0., 0., 0., 0., 0., 0., 0., 1., 0., 0., 0., 0.,
          2., 0., 0., 0., 0., 0., 0., 0., 0., 0., 0., 0., 0., 0., 0.,
          38., 6., 5., 11., 8., 6., 14., 9., 5., 6., 2., 0., 4., 5., 1.,
          2., 5., 4., 4., 5., 5., 4., 3., 3., 1., 3., 1., 2., 6., 3., 4.,
          4., 4., 1., 1., 1., 5., 4., 2., 6., 1., 6., 1., 6., 4., 1., 6.,
          4., 1., 0., 2., 3., 5., 2., 0., 7., 0., 2., 2., 1., 1., 1., 3.,
          4., 3., 3., 1., 3., 1., 2., 1., 0., 0., 3., 0., 1., 0., 1., 3.,
          4., 1., 5., 0., 1., 4., 1., 1., 2., 3., 1., 3., 0., 1., 1., 0.,
          0., 1., 2., 14., 8., 6., 6., 0., 5., 6., 5., 5., 5., 7., 4.,
          6., 12., 3., 3., 3., 3., 8., 6., 5., 7., 6., 8., 5., 2., 9.,
          2., 13., 15., 12., 5., 5., 5., 8., 11., 11., 15., 17., 9., 11.,
          16., 11., 9., 11., 5., 12., 16., 6., 3., 4., 13., 11., 20.,
          20., 13., 20., 31., 19., 23., 19., 26., 36., 23., 20., 26.,
          27., 32., 36., 31., 38., 38., 35., 36., 46., 48., 41., 42.,
          46., 47., 39., 33., 47., 26., 41., 46., 48., 56., 45., 65.,
          38., 43., 44., 57., 53., 44., 43., 41., 43., 51., 48., 47.,
          36., 51., 45., 30., 44., 49., 59., 39., 47., 40., 38., 38.,
          34., 50., 47., 56., 32., 36., 47., 29., 45., 45., 60., 51.,
          44., 49., 28., 42., 45., 58., 51., 43., 16., 3., 4., 0., 0.,
          0., 0., 0., 0., 0., 0., 0., 0., 0., 0., 0., 0., 0., 0. ]
      - [ 515., 394., 355., 388., 385., 200., 67., 21., 17., 8., 40.,
          10., 2., 8., 2., 13., 1., 0., 3., 2., 1., 2., 0., 0., 0., 168.,
          0., 0., 0., 0., 0., 1., 0., 7., 0., 16., 0., 2., 0., 0., 79.,
          0., 0., 3., 0., 15., 0., 0., 2., 0., 1., 1., 0., 0., 0., 130.,
          0., 0., 0., 0., 0., 1., 0., 3., 0., 12., 0., 2., 0., 0., 37.,
          0., 0., 1., 1., 25., 0., 0., 11., 1., 1., 0., 0., 0., 0., 181.,
          0., 0., 0., 0., 1., 2., 0., 2., 0., 8., 0., 0., 0., 0., 22.,
          0., 0., 0., 0., 1., 0., 0., 1., 0., 0., 0., 0., 0., 0., 78.,
          0., 0., 0., 0., 0., 0., 0., 0., 0., 0., 0., 0., 1., 0., 14.,
          0., 0., 0., 0., 1., 0., 0., 0., 0., 0., 0., 0., 0., 0., 74.,
          0., 0., 0., 0., 1., 0., 0., 1., 0., 3., 1., 3., 2., 0., 18.,
          0., 0., 3., 3., 1., 3., 2., 3., 1., 6., 29., 36., 32., 63.,
          29., 16., 7., 6., 6., 15., 2., 13., 5., 7., 11., 11., 10., 5.,
          2., 10., 5., 8., 7., 6., 5., 5., 13., 3., 3., 5., 5., 4., 4.,
          4., 1., 5., 4., 7., 3., 4., 6., 2., 10., 2., 10., 7., 4., 4.,
          3., 2., 3., 1., 4., 6., 5., 3., 3., 3., 2., 6., 3., 4., 7., 6.,
          6., 0., 5., 4., 3., 5., 3., 4., 3., 7., 2., 8., 8., 4., 2.,
          10., 5., 7., 10., 3., 9., 5., 6., 8., 13., 8., 5., 6., 8., 6.,
          3., 4., 6., 13., 10., 3., 11., 2., 4., 10., 4., 13., 7., 7.,
          11., 8., 10., 11., 13., 8., 8., 6., 16., 8., 7., 13., 4., 11.,
          17., 10., 10., 6., 9., 13., 9., 11., 7., 10., 12., 9., 19.,
          10., 16., 10., 17., 15., 13., 14., 12., 13., 12., 15., 12.,
          16., 6., 19., 17., 15., 19., 22., 23., 24., 20., 35., 27., 23.,
          26., 15., 18., 29., 36., 33., 34., 37., 46., 48., 68., 63.,
          79., 71., 76., 85., 65., 66., 76., 58., 71., 72., 74., 86.,
          78., 74., 98., 122., 98., 83., 67., 119., 81., 96., 66., 70.,
          85., 73., 89., 70., 72., 68., 69., 36., 61., 40., 27., 45.,
          21., 36., 22., 30., 39., 33., 26., 17., 9., 10., 10., 19., 14.,
          13., 9., 3., 1., 0., 0., 0., 0., 0., 0., 0., 0., 0., 0., 0.,
          0., 0., 0., 0., 0., 0., 0., 0., 0., 0., 0., 0., 0., 0., 0., 0.,
          0., 0., 0. ]
      - [ 0., 2., 2., 1., 4., 5., 11., 17., 20., 31., 112., 99., 124.,
          155., 151., 190., 633., 2360., 190., 6., 8., 7., 3., 1., 3.,
          456., 4., 1., 3., 4., 7., 14., 0., 30., 0., 58., 0., 8., 0.,
          0., 155., 0., 0., 1., 2., 27., 0., 0., 3., 1., 1., 0., 0., 0.,
          0., 160., 0., 0., 0., 1., 1., 0., 0., 1., 0., 17., 0., 1., 0.,
          0., 26., 0., 0., 0., 0., 7., 0., 0., 1., 0., 0., 0., 0., 0.,
          0., 91., 0., 0., 0., 0., 1., 0., 0., 0., 0., 2., 0., 0., 0.,
          0., 5., 0., 0., 0., 0., 1., 0., 0., 0., 0., 0., 0., 0., 0., 0.,
          20., 0., 0., 0., 0., 0., 0., 0., 0., 0., 0., 0., 0., 0., 0.,
          1., 0., 0., 0., 0., 1., 0., 0., 0., 0., 0., 0., 0., 0., 0.,
          27., 0., 0., 0., 0., 0., 0., 0., 0., 0., 0., 0., 0., 0., 0.,
          4., 0., 1., 0., 0., 3., 0., 0., 0., 1., 1., 1., 0., 0., 0.,
          39., 27., 11., 9., 9., 5., 5., 5., 8., 6., 3., 8., 2., 8., 6.,
          3., 3., 3., 6., 5., 5., 5., 4., 4., 7., 4., 8., 1., 3., 0., 2.,
          5., 6., 0., 2., 4., 5., 1., 3., 5., 1., 0., 1., 3., 3., 4., 2.,
          1., 2., 3., 0., 3., 1., 4., 1., 3., 1., 1., 3., 1., 2., 2., 1.,
          0., 3., 0., 3., 1., 1., 4., 2., 2., 1., 4., 0., 1., 1., 2., 4.,
          5., 0., 3., 1., 0., 1., 1., 3., 4., 2., 0., 2., 3., 2., 1., 2.,
          3., 0., 3., 6., 1., 4., 6., 4., 2., 1., 1., 3., 1., 2., 2., 1.,
          3., 3., 3., 9., 0., 1., 4., 11., 23., 17., 14., 2., 12., 10.,
          0., 6., 6., 8., 3., 1., 3., 3., 8., 9., 9., 7., 3., 7., 6., 4.,
          5., 9., 7., 4., 7., 11., 15., 13., 8., 8., 10., 11., 11., 8.,
          15., 20., 10., 21., 15., 12., 25., 17., 22., 26., 43., 31.,
          37., 27., 35., 32., 39., 43., 42., 70., 75., 65., 88., 48.,
          40., 38., 22., 31., 33., 36., 26., 37., 49., 37., 30., 32.,
          41., 32., 29., 60., 87., 54., 69., 57., 94., 55., 59., 38.,
          40., 24., 30., 34., 36., 53., 41., 47., 56., 47., 56., 52.,
          48., 50., 40., 68., 50., 55., 45., 55., 69., 47., 27., 43.,
          34., 60., 72., 54., 63., 43., 29., 16., 5., 8., 1., 0., 0., 0.,
          0., 0., 0., 0., 0., 0., 0., 0., 0., 0. ]
      - [ 0., 1., 0., 3., 0., 2., 0., 1., 0., 0., 22., 1., 1., 2., 4.,
          34., 8., 24., 55., 70., 176., 556., 2317., 1370., 341., 458.,
          1., 0., 5., 4., 4., 14., 0., 41., 1., 46., 1., 1., 2., 0., 85.,
          0., 0., 3., 0., 5., 0., 0., 4., 0., 0., 0., 0., 0., 0., 92.,
          0., 0., 0., 0., 0., 0., 0., 3., 0., 0., 0., 0., 0., 0., 13.,
          0., 0., 0., 0., 1., 0., 0., 0., 0., 0., 0., 0., 0., 0., 57.,
          0., 0., 0., 0., 0., 0., 0., 0., 0., 3., 0., 3., 0., 0., 1., 0.,
          0., 0., 0., 0., 0., 0., 0., 1., 0., 0., 0., 0., 0., 28., 0.,
          0., 0., 0., 0., 0., 0., 1., 0., 1., 0., 0., 0., 0., 13., 0.,
          0., 0., 0., 3., 0., 0., 2., 0., 0., 0., 0., 0., 0., 22., 0.,
          0., 0., 0., 0., 0., 0., 0., 0., 0., 0., 0., 0., 0., 13., 0.,
          0., 0., 0., 1., 0., 0., 0., 0., 0., 0., 0., 0., 0., 33., 19.,
          21., 20., 21., 6., 4., 12., 8., 5., 5., 5., 9., 4., 1., 8., 5.,
          6., 7., 1., 5., 4., 5., 2., 5., 6., 5., 5., 3., 0., 2., 3., 6.,
          2., 2., 3., 3., 4., 5., 2., 4., 2., 1., 1., 5., 7., 3., 7., 1.,
          3., 1., 3., 3., 3., 3., 7., 7., 3., 6., 5., 2., 3., 1., 5., 1.,
          2., 2., 1., 3., 2., 11., 11., 7., 11., 18., 26., 27., 24., 17.,
          18., 21., 9., 18., 12., 27., 17., 20., 19., 21., 20., 22., 19.,
          24., 21., 28., 34., 35., 46., 27., 44., 50., 73., 70., 80.,
          90., 89., 83., 76., 102., 72., 111., 89., 127., 87., 111.,
          137., 84., 86., 122., 74., 72., 71., 58., 83., 77., 44., 58.,
          59., 57., 53., 56., 50., 74., 48., 43., 46., 48., 51., 50.,
          49., 28., 38., 48., 38., 34., 29., 32., 31., 24., 30., 42.,
          36., 44., 45., 56., 41., 30., 33., 33., 35., 24., 41., 22.,
          25., 29., 10., 20., 14., 16., 13., 19., 19., 23., 15., 12., 8.,
          12., 13., 8., 12., 5., 6., 7., 1., 0., 0., 0., 0., 0., 0., 0.,
          0., 0., 0., 0., 0., 0., 0., 0., 0., 0., 0., 0., 0., 0., 0., 0.,
          0., 0., 0., 0., 0., 0., 0., 0., 0., 0., 0., 0., 0., 0., 0., 0.,
          0., 0., 0., 0., 0., 0., 0., 0., 0., 0., 0., 0., 0., 0., 0., 0.,
          0., 0., 0., 0., 0., 0., 0., 0., 0., 0., 0., 0. ]
      - [ 0., 0., 0., 0., 0., 3., 1., 1., 0., 0., 44., 5., 6., 3., 9.,
          48., 23., 25., 76., 95., 99., 133., 126., 211., 381., 1046.,
          1401., 1263., 83., 8., 9., 15., 0., 19., 1., 33., 0., 5., 0.,
          0., 59., 0., 1., 0., 0., 1., 0., 0., 1., 0., 2., 0., 0., 0.,
          0., 60., 0., 0., 0., 0., 0., 1., 0., 1., 0., 3., 0., 0., 0.,
          0., 8., 0., 0., 0., 0., 1., 0., 0., 0., 0., 0., 0., 0., 0., 0.,
          21., 0., 0., 0., 0., 0., 0., 0., 0., 0., 0., 0., 0., 0., 0.,
          2., 0., 0., 0., 0., 0., 0., 0., 0., 0., 0., 0., 0., 0., 0.,
          21., 0., 0., 0., 0., 0., 0., 0., 1., 0., 2., 0., 0., 0., 0.,
          4., 0., 0., 0., 0., 1., 0., 0., 0., 0., 0., 0., 0., 0., 0.,
          12., 0., 0., 0., 0., 0., 0., 0., 0., 0., 0., 0., 0., 0., 0.,
          7., 0., 0., 0., 0., 2., 0., 0., 0., 0., 0., 0., 0., 0., 0.,
          32., 27., 15., 10., 19., 10., 5., 7., 4., 6., 5., 18., 6., 14.,
          11., 5., 6., 4., 15., 9., 5., 7., 10., 2., 4., 7., 6., 2., 11.,
          3., 2., 2., 4., 6., 5., 6., 3., 10., 1., 7., 2., 1., 5., 5.,
          2., 3., 1., 1., 2., 1., 2., 2., 5., 4., 1., 5., 8., 2., 6., 2.,
          3., 5., 1., 4., 6., 8., 14., 7., 14., 13., 9., 20., 15., 10.,
          12., 15., 7., 6., 10., 14., 26., 13., 15., 12., 25., 33., 23.,
          28., 21., 43., 30., 20., 20., 29., 36., 29., 34., 29., 38.,
          28., 38., 62., 51., 50., 26., 29., 21., 35., 37., 21., 32.,
          29., 36., 33., 49., 73., 60., 38., 81., 37., 33., 33., 50.,
          47., 38., 34., 48., 45., 50., 37., 32., 38., 35., 30., 26.,
          38., 52., 52., 46., 62., 75., 73., 62., 45., 43., 29., 37.,
          27., 39., 30., 31., 31., 26., 57., 31., 42., 22., 45., 30.,
          39., 33., 36., 54., 60., 30., 53., 36., 43., 33., 37., 22.,
          25., 17., 38., 44., 28., 45., 20., 32., 37., 33., 26., 26.,
          40., 29., 45., 51., 25., 25., 26., 20., 15., 11., 6., 3., 1.,
          0., 0., 0., 0., 0., 0., 0., 0., 0., 0., 0., 0., 0., 0., 0., 0.,
          0., 0., 0., 0., 0., 0., 0., 0., 0., 0., 0., 0., 0., 0., 0., 0.,
          0., 0., 0., 0., 0., 0., 0., 0., 0., 0., 0., 0., 0., 0., 0., 0.,
          0., 0., 0., 0., 0., 0., 0. ]
      - [ 0., 0., 0., 6., 0., 4., 1., 2., 2., 0., 23., 0., 0., 2., 2.,
          24., 14., 10., 37., 101., 331., 645., 1827., 1978., 71., 346.,
          0., 7., 3., 12., 5., 17., 0., 16., 3., 45., 1., 4., 2., 0.,
          71., 0., 0., 0., 0., 13., 0., 0., 0., 0., 0., 0., 0., 0., 0.,
          111., 0., 0., 0., 0., 0., 0., 0., 0., 0., 3., 0., 0., 0., 0.,
          17., 0., 0., 0., 0., 4., 0., 0., 0., 0., 0., 0., 0., 0., 0.,
          55., 0., 0., 0., 0., 0., 0., 0., 3., 0., 2., 0., 0., 0., 0.,
          7., 0., 0., 0., 0., 1., 0., 0., 0., 0., 0., 0., 0., 0., 0., 9.,
          0., 0., 0., 0., 0., 0., 0., 0., 0., 0., 0., 0., 0., 0., 3., 0.,
          0., 0., 0., 0., 0., 0., 0., 0., 0., 0., 0., 0., 0., 26., 0.,
          0., 0., 0., 0., 0., 0., 0., 0., 0., 0., 0., 0., 0., 0., 0., 0.,
          0., 0., 0., 0., 0., 0., 0., 0., 0., 0., 0., 0., 38., 18., 20.,
          15., 8., 15., 4., 5., 9., 10., 7., 13., 7., 7., 7., 6., 7., 3.,
          3., 4., 2., 5., 4., 2., 6., 6., 7., 3., 5., 2., 2., 3., 3., 3.,
          3., 3., 3., 2., 2., 2., 2., 5., 0., 4., 2., 6., 2., 5., 6., 4.,
          4., 5., 3., 2., 4., 2., 3., 3., 2., 5., 1., 4., 4., 4., 2., 0.,
          7., 2., 7., 2., 6., 4., 4., 8., 21., 18., 19., 12., 20., 12.,
          23., 23., 14., 22., 14., 18., 33., 28., 29., 31., 41., 20.,
          30., 34., 39., 28., 17., 41., 42., 42., 48., 61., 71., 74.,
          70., 70., 45., 66., 59., 56., 70., 76., 68., 96., 84., 86.,
          90., 76., 99., 72., 70., 98., 60., 79., 113., 51., 84., 52.,
          37., 64., 41., 42., 32., 39., 44., 35., 38., 43., 25., 50.,
          26., 46., 46., 44., 43., 47., 46., 45., 26., 44., 42., 43.,
          26., 28., 34., 31., 33., 36., 27., 35., 39., 31., 31., 33.,
          44., 14., 26., 25., 46., 34., 27., 26., 29., 26., 32., 26.,
          25., 23., 27., 23., 11., 18., 26., 23., 29., 9., 22., 17., 20.,
          9., 9., 0., 3., 0., 0., 0., 0., 0., 0., 0., 0., 0., 0., 0., 0.,
          0., 0., 0., 0., 0., 0., 0., 0., 0., 0., 0., 0., 0., 0., 0., 0.,
          0., 0., 0., 0., 0., 0., 0., 0., 0., 0., 0., 0., 0., 0., 0., 0.,
          0., 0., 0., 0., 0., 0., 0., 0., 0., 0., 0., 0., 0., 0. ]
      - [ 686., 855., 455., 168., 25., 21., 10., 17., 13., 8., 26., 2.,
          2., 4., 2., 19., 2., 0., 4., 2., 1., 1., 2., 0., 0., 97., 0.,
          0., 0., 0., 0., 0., 0., 1., 2., 7., 0., 0., 2., 0., 72., 0.,
          0., 1., 0., 2., 0., 0., 3., 2., 0., 1., 0., 0., 0., 137., 0.,
          0., 0., 0., 0., 1., 0., 0., 0., 10., 0., 1., 0., 0., 62., 0.,
          1., 3., 0., 24., 0., 0., 14., 2., 2., 1., 0., 0., 0., 269., 0.,
          0., 0., 3., 0., 2., 0., 2., 0., 9., 0., 2., 0., 0., 20., 0.,
          0., 0., 0., 3., 0., 0., 0., 0., 0., 0., 0., 0., 0., 60., 0.,
          0., 0., 0., 0., 0., 0., 0., 0., 2., 0., 0., 0., 0., 9., 0., 0.,
          0., 0., 1., 0., 0., 0., 0., 0., 0., 0., 0., 0., 66., 0., 0.,
          0., 0., 0., 0., 0., 0., 0., 0., 0., 0., 0., 0., 4., 0., 0., 0.,
          0., 1., 0., 0., 3., 0., 2., 4., 1., 19., 74., 26., 9., 19.,
          16., 18., 3., 7., 12., 7., 8., 4., 3., 12., 6., 11., 9., 4.,
          8., 3., 2., 9., 6., 0., 3., 8., 2., 4., 1., 5., 3., 1., 4., 1.,
          3., 9., 1., 4., 4., 3., 6., 4., 1., 2., 1., 5., 1., 2., 4., 5.,
          4., 0., 3., 1., 5., 7., 10., 8., 5., 7., 5., 8., 2., 3., 9.,
          4., 4., 1., 4., 7., 2., 10., 4., 4., 3., 7., 6., 6., 1., 8.,
          2., 4., 2., 2., 4., 3., 8., 6., 11., 6., 4., 1., 2., 4., 5.,
          2., 6., 7., 5., 13., 4., 3., 8., 8., 13., 5., 6., 4., 6., 4.,
          7., 5., 8., 6., 10., 6., 7., 8., 3., 13., 11., 7., 10., 5., 4.,
          8., 8., 6., 12., 9., 10., 8., 11., 9., 9., 13., 10., 4., 10.,
          2., 11., 11., 9., 10., 15., 12., 20., 13., 15., 17., 20., 8.,
          25., 12., 12., 17., 23., 20., 19., 30., 33., 25., 31., 33.,
          31., 48., 54., 51., 36., 62., 82., 53., 60., 57., 55., 61.,
          63., 67., 82., 58., 61., 72., 62., 85., 113., 96., 86., 68.,
          56., 61., 56., 55., 59., 78., 68., 73., 48., 64., 52., 47.,
          66., 48., 60., 61., 43., 58., 63., 58., 47., 64., 76., 65.,
          43., 67., 47., 33., 33., 20., 7., 10., 5., 0., 1., 3., 4., 2.,
          12., 9., 7., 0., 0., 0., 0., 0., 0., 0., 0., 0., 0., 0., 0.,
          0., 0., 0., 0., 0., 0., 0., 0., 0., 0., 0. ]
      - [ 908., 642., 485., 357., 127., 43., 11., 6., 7., 4., 26., 1.,
          4., 3., 3., 28., 5., 0., 3., 2., 3., 2., 1., 0., 0., 111., 0.,
          0., 0., 0., 1., 1., 0., 7., 0., 2., 0., 4., 0., 0., 23., 0.,
          0., 3., 0., 4., 0., 0., 1., 2., 1., 0., 0., 0., 0., 49., 0.,
          0., 0., 0., 0., 1., 0., 2., 0., 6., 0., 1., 1., 0., 22., 0.,
          0., 2., 0., 14., 0., 0., 9., 1., 0., 0., 0., 0., 0., 176., 0.,
          0., 0., 0., 1., 0., 0., 2., 0., 7., 0., 1., 0., 0., 23., 0.,
          0., 1., 0., 3., 0., 0., 0., 0., 0., 0., 0., 0., 0., 59., 0.,
          0., 0., 0., 0., 0., 0., 0., 0., 2., 0., 0., 0., 0., 2., 0., 0.,
          0., 0., 5., 0., 0., 0., 0., 0., 0., 0., 0., 0., 54., 0., 0.,
          0., 0., 0., 0., 0., 0., 0., 1., 0., 0., 0., 0., 7., 0., 0., 0.,
          0., 5., 1., 0., 4., 2., 3., 3., 8., 13., 18., 33., 13., 24.,
          19., 16., 6., 8., 12., 12., 11., 6., 9., 6., 10., 9., 9., 5.,
          2., 1., 6., 1., 2., 1., 1., 2., 4., 2., 3., 6., 1., 3., 2., 4.,
          1., 6., 8., 2., 3., 4., 6., 2., 3., 5., 4., 2., 4., 2., 1., 1.,
          7., 3., 2., 2., 3., 5., 4., 4., 2., 2., 2., 1., 10., 2., 3.,
          2., 0., 4., 3., 8., 13., 6., 9., 5., 2., 3., 1., 8., 5., 5.,
          4., 4., 11., 13., 11., 9., 10., 9., 7., 6., 9., 10., 12., 6.,
          6., 12., 5., 3., 8., 11., 17., 12., 4., 6., 10., 11., 4., 2.,
          4., 15., 8., 11., 9., 13., 9., 2., 10., 9., 10., 10., 9., 14.,
          11., 13., 16., 10., 11., 7., 9., 19., 11., 9., 11., 20., 21.,
          18., 18., 18., 14., 22., 14., 15., 27., 19., 23., 18., 29.,
          25., 31., 18., 36., 27., 44., 29., 33., 32., 34., 25., 24.,
          44., 32., 35., 30., 45., 42., 38., 34., 35., 36., 41., 38.,
          42., 34., 46., 52., 56., 56., 51., 64., 62., 70., 69., 69.,
          73., 80., 61., 97., 86., 98., 77., 86., 78., 69., 82., 81.,
          91., 84., 84., 71., 70., 63., 60., 74., 84., 82., 81., 56.,
          61., 61., 52., 43., 33., 35., 22., 23., 22., 23., 25., 9., 22.,
          3., 3., 0., 0., 0., 0., 0., 0., 0., 0., 0., 0., 0., 0., 0., 0.,
          0., 0., 0., 0., 0., 0., 0., 0., 0., 0., 0., 0., 0., 0., 0., 0. ]
      - [ 0., 0., 0., 3., 1., 8., 0., 0., 1., 0., 19., 1., 0., 5., 7.,
          28., 6., 11., 47., 94., 92., 128., 133., 172., 439., 2646.,
          1396., 99., 8., 15., 11., 6., 0., 15., 0., 28., 0., 0., 0., 0.,
          57., 0., 0., 0., 0., 0., 0., 0., 0., 0., 2., 0., 0., 0., 0.,
          63., 0., 0., 0., 0., 0., 0., 0., 0., 0., 1., 0., 1., 0., 0.,
          1., 0., 0., 0., 0., 0., 0., 0., 0., 0., 0., 0., 0., 0., 0.,
          25., 0., 0., 0., 0., 0., 0., 0., 0., 0., 0., 0., 0., 0., 0.,
          2., 0., 0., 0., 0., 0., 0., 0., 0., 0., 0., 0., 0., 0., 0.,
          27., 0., 0., 0., 0., 0., 0., 0., 0., 0., 0., 0., 0., 0., 0.,
          8., 0., 0., 0., 0., 5., 0., 0., 0., 0., 0., 0., 0., 0., 0.,
          30., 0., 0., 0., 0., 0., 0., 0., 0., 0., 2., 0., 0., 0., 0.,
          2., 0., 0., 0., 0., 1., 0., 0., 0., 0., 0., 0., 0., 0., 0.,
          25., 17., 18., 13., 11., 15., 10., 9., 7., 12., 5., 6., 9., 8.,
          4., 4., 5., 9., 7., 7., 11., 7., 1., 3., 3., 3., 9., 3., 4.,
          3., 1., 4., 2., 6., 2., 4., 1., 5., 4., 4., 6., 3., 2., 1., 4.,
          5., 2., 3., 2., 0., 6., 6., 4., 3., 5., 6., 3., 1., 5., 0., 1.,
          2., 4., 4., 1., 6., 2., 10., 2., 4., 2., 35., 21., 13., 18.,
          22., 18., 24., 30., 29., 35., 31., 42., 20., 33., 51., 45.,
          45., 39., 53., 51., 49., 60., 56., 72., 59., 52., 48., 41.,
          60., 46., 51., 37., 43., 50., 37., 44., 36., 41., 52., 37.,
          44., 53., 42., 66., 41., 64., 37., 52., 53., 49., 26., 40.,
          26., 16., 24., 18., 31., 34., 22., 24., 28., 40., 42., 34.,
          29., 34., 24., 24., 27., 29., 37., 30., 37., 39., 22., 26.,
          22., 36., 25., 30., 51., 18., 30., 19., 31., 38., 21., 23.,
          31., 24., 17., 20., 29., 25., 28., 22., 29., 42., 55., 45.,
          24., 34., 46., 53., 35., 31., 27., 26., 23., 29., 19., 18.,
          36., 27., 39., 39., 26., 27., 27., 19., 32., 29., 21., 14.,
          13., 12., 2., 11., 15., 10., 11., 8., 7., 13., 8., 5., 2., 1.,
          0., 1., 0., 0., 0., 0., 0., 0., 0., 0., 0., 0., 0., 0., 0., 0.,
          0., 0., 0., 0., 0., 0., 0., 0., 0., 0., 0., 0., 0., 0., 0., 0.,
          0., 0., 0., 0., 0., 0., 0., 0., 0., 0. ]
      - [ 477., 473., 360., 310., 179., 27., 25., 13., 9., 7., 34., 8.,
          13., 9., 4., 6., 3., 3., 10., 5., 2., 6., 2., 0., 0., 56., 0.,
          1., 2., 1., 4., 3., 0., 5., 1., 13., 1., 1., 0., 1., 29., 1.,
          0., 3., 0., 8., 0., 1., 3., 1., 0., 0., 0., 0., 0., 111., 0.,
          0., 0., 1., 0., 1., 0., 3., 1., 11., 0., 0., 0., 0., 54., 0.,
          0., 3., 0., 31., 1., 0., 16., 5., 1., 1., 1., 0., 1., 210., 1.,
          0., 2., 0., 0., 2., 1., 9., 1., 10., 0., 0., 2., 0., 25., 1.,
          0., 2., 1., 5., 0., 1., 0., 0., 3., 0., 2., 0., 1., 75., 0.,
          0., 0., 0., 0., 0., 1., 0., 0., 0., 0., 0., 0., 0., 5., 1., 0.,
          0., 0., 0., 0., 0., 1., 0., 0., 0., 0., 0., 0., 55., 0., 0.,
          0., 0., 0., 0., 0., 0., 0., 0., 0., 0., 0., 0., 14., 1., 0.,
          0., 0., 0., 1., 1., 1., 2., 6., 9., 30., 61., 87., 22., 22.,
          16., 17., 22., 14., 1., 6., 7., 17., 7., 8., 9., 8., 11., 19.,
          12., 14., 13., 6., 11., 6., 7., 12., 15., 6., 8., 10., 7., 9.,
          7., 11., 3., 2., 7., 7., 0., 8., 5., 2., 2., 2., 5., 1., 5.,
          4., 4., 5., 2., 5., 4., 6., 6., 4., 3., 4., 3., 1., 8., 8., 5.,
          3., 3., 8., 2., 1., 4., 3., 6., 16., 4., 9., 6., 5., 6., 8.,
          7., 6., 11., 5., 6., 4., 6., 14., 11., 10., 6., 18., 14., 9.,
          11., 13., 13., 13., 15., 7., 8., 7., 14., 15., 15., 11., 8.,
          6., 13., 8., 12., 13., 18., 23., 9., 22., 19., 8., 17., 26.,
          21., 23., 38., 18., 36., 18., 41., 37., 11., 29., 22., 26.,
          27., 13., 22., 25., 28., 29., 25., 34., 30., 16., 20., 36.,
          26., 20., 28., 12., 28., 18., 21., 14., 17., 24., 33., 15.,
          24., 31., 56., 25., 23., 23., 29., 32., 31., 36., 23., 26.,
          32., 21., 28., 32., 32., 34., 47., 42., 64., 38., 51., 64.,
          68., 59., 47., 51., 72., 66., 61., 62., 60., 41., 55., 32.,
          44., 48., 43., 42., 24., 45., 45., 37., 36., 29., 34., 45.,
          54., 57., 35., 57., 56., 65., 53., 50., 56., 48., 69., 34.,
          60., 54., 31., 32., 46., 31., 24., 15., 13., 13., 9., 7., 4.,
          10., 4., 0., 4., 0., 0., 0., 0., 0., 0., 0., 0., 0., 0., 0.,
          0., 0., 0., 0., 0., 0., 0., 0., 0., 0., 0. ]
      - [ 61., 129., 128., 140., 124., 122., 106., 175., 158., 241.,
          305., 178., 292., 446., 581., 437., 223., 58., 29., 4., 0., 0.,
          0., 0., 0., 263., 0., 0., 0., 0., 0., 3., 0., 9., 0., 16., 0.,
          1., 0., 0., 78., 0., 2., 1., 1., 21., 0., 0., 10., 0., 0., 0.,
          0., 0., 0., 128., 0., 0., 0., 0., 0., 0., 0., 4., 0., 9., 0.,
          1., 0., 0., 43., 0., 0., 1., 0., 16., 0., 0., 5., 0., 0., 0.,
          0., 0., 0., 118., 0., 0., 0., 0., 0., 0., 0., 2., 0., 7., 1.,
          0., 2., 2., 18., 0., 1., 1., 2., 0., 0., 0., 0., 0., 0., 0.,
          3., 0., 0., 53., 1., 0., 5., 1., 2., 0., 1., 3., 1., 8., 1.,
          4., 3., 2., 12., 1., 3., 0., 0., 7., 2., 1., 1., 4., 0., 5.,
          1., 2., 1., 46., 0., 0., 2., 1., 1., 2., 1., 5., 5., 4., 4.,
          2., 2., 2., 11., 8., 5., 9., 4., 20., 13., 6., 14., 7., 10.,
          12., 20., 25., 11., 17., 16., 6., 9., 8., 7., 13., 5., 12.,
          11., 8., 5., 2., 5., 2., 2., 3., 6., 0., 3., 2., 2., 8., 6.,
          7., 5., 3., 7., 7., 4., 5., 9., 0., 3., 2., 8., 3., 3., 6., 1.,
          3., 4., 1., 3., 1., 4., 1., 3., 5., 2., 1., 2., 3., 9., 2., 4.,
          0., 6., 2., 3., 0., 2., 5., 0., 3., 0., 7., 5., 3., 7., 4., 6.,
          4., 7., 2., 3., 4., 4., 2., 4., 3., 7., 4., 7., 5., 2., 6., 3.,
          6., 6., 4., 8., 5., 7., 4., 2., 10., 4., 6., 5., 8., 5., 9.,
          7., 8., 9., 3., 6., 5., 4., 3., 7., 7., 4., 1., 5., 5., 10.,
          4., 3., 4., 7., 5., 4., 10., 3., 5., 4., 5., 6., 3., 4., 6.,
          8., 3., 6., 8., 8., 6., 6., 2., 13., 11., 8., 8., 6., 10., 12.,
          8., 11., 4., 8., 15., 9., 3., 11., 14., 11., 13., 8., 11., 8.,
          8., 4., 16., 12., 14., 12., 19., 13., 14., 8., 7., 13., 8.,
          13., 16., 16., 18., 15., 13., 22., 14., 19., 29., 50., 25.,
          36., 35., 38., 60., 74., 117., 158., 146., 185., 247., 218.,
          233., 172., 160., 155., 112., 135., 174., 119., 85., 75., 80.,
          61., 68., 33., 17., 2., 0., 0., 0., 0., 0., 0., 0., 0., 0., 0.,
          0., 0., 0., 0., 0., 0., 0., 0., 0., 0., 0., 0., 0., 0., 0., 0.,
          0., 0., 0., 0., 0., 0., 0., 0., 0., 0., 0. ]
      - [ 67., 147., 181., 154., 130., 129., 147., 142., 127., 159.,
          257., 304., 342., 499., 363., 421., 199., 65., 13., 2., 1., 2.,
          0., 0., 0., 302., 0., 1., 0., 0., 1., 1., 0., 11., 3., 28., 0.,
          3., 4., 0., 57., 0., 0., 3., 0., 15., 0., 0., 3., 0., 0., 0.,
          0., 0., 0., 105., 0., 0., 0., 0., 0., 0., 0., 1., 0., 9., 0.,
          0., 0., 0., 29., 0., 0., 2., 0., 4., 0., 0., 4., 1., 1., 0.,
          0., 0., 0., 132., 0., 0., 0., 1., 1., 0., 0., 10., 2., 14., 0.,
          0., 1., 0., 15., 0., 0., 0., 0., 5., 2., 2., 2., 0., 0., 2.,
          4., 1., 0., 40., 1., 0., 0., 2., 2., 1., 0., 1., 1., 2., 2.,
          2., 2., 1., 9., 1., 2., 1., 0., 3., 1., 2., 6., 0., 4., 2., 0.,
          2., 0., 128., 0., 1., 1., 2., 1., 3., 3., 2., 6., 6., 3., 5.,
          3., 5., 8., 5., 4., 5., 5., 10., 8., 6., 10., 13., 14., 17.,
          27., 15., 18., 25., 21., 15., 13., 12., 10., 5., 7., 7., 4.,
          6., 6., 6., 6., 9., 4., 2., 6., 5., 2., 5., 3., 4., 0., 4., 5.,
          7., 3., 2., 4., 0., 4., 3., 3., 1., 1., 4., 1., 3., 3., 4., 4.,
          6., 6., 3., 2., 4., 2., 5., 5., 2., 3., 1., 0., 3., 4., 3., 1.,
          4., 2., 4., 4., 1., 2., 1., 0., 2., 1., 3., 4., 3., 5., 0., 3.,
          4., 1., 4., 6., 4., 2., 2., 2., 5., 4., 3., 5., 7., 8., 7., 5.,
          7., 7., 4., 6., 6., 4., 2., 10., 5., 7., 3., 9., 7., 10., 3.,
          6., 9., 2., 4., 9., 8., 5., 2., 5., 3., 5., 2., 5., 1., 4., 6.,
          3., 6., 8., 5., 5., 9., 4., 10., 7., 6., 8., 8., 8., 5., 4.,
          7., 6., 8., 11., 10., 6., 4., 12., 5., 5., 5., 7., 12., 11.,
          7., 8., 7., 11., 7., 9., 7., 9., 13., 10., 17., 16., 14., 7.,
          10., 18., 14., 16., 18., 15., 15., 12., 22., 22., 27., 23.,
          30., 28., 29., 39., 28., 32., 42., 39., 22., 31., 29., 63.,
          46., 64., 69., 105., 131., 143., 171., 209., 199., 140., 163.,
          99., 129., 123., 121., 142., 112., 121., 105., 83., 73., 68.,
          49., 32., 15., 4., 0., 0., 0., 0., 0., 0., 0., 0., 0., 0., 0.,
          0., 0., 0., 0., 0., 0., 0., 0., 0., 0., 0., 0., 0., 0., 0., 0.,
          0., 0., 0., 0., 0., 0., 0., 0., 0., 0. ]
      - [ 65., 95., 118., 133., 114., 108., 97., 100., 99., 121., 319.,
          414., 571., 594., 625., 266., 75., 14., 9., 1., 5., 3., 1., 3.,
          0., 322., 1., 0., 1., 0., 0., 1., 0., 6., 0., 24., 0., 6., 1.,
          0., 81., 0., 1., 2., 0., 15., 1., 0., 5., 1., 1., 0., 0., 0.,
          0., 164., 0., 0., 0., 0., 1., 4., 0., 6., 2., 14., 0., 1., 1.,
          0., 34., 0., 0., 2., 0., 13., 1., 0., 9., 0., 1., 0., 0., 0.,
          0., 102., 0., 0., 3., 2., 0., 0., 0., 1., 2., 4., 0., 1., 1.,
          0., 9., 0., 1., 3., 0., 2., 2., 0., 1., 2., 0., 0., 2., 0., 0.,
          27., 0., 0., 0., 0., 1., 0., 1., 4., 0., 3., 3., 4., 3., 3.,
          6., 1., 1., 3., 2., 6., 4., 1., 2., 1., 6., 1., 0., 1., 0.,
          74., 0., 1., 1., 2., 3., 2., 0., 8., 4., 6., 1., 2., 0., 5.,
          12., 4., 4., 10., 6., 2., 12., 5., 16., 11., 17., 20., 21.,
          22., 19., 38., 31., 18., 16., 8., 13., 8., 6., 5., 9., 10., 4.,
          3., 11., 9., 2., 5., 2., 1., 4., 4., 7., 5., 5., 7., 3., 7.,
          7., 2., 1., 4., 4., 0., 3., 2., 1., 3., 1., 5., 5., 2., 3., 3.,
          2., 3., 1., 6., 3., 0., 3., 2., 2., 3., 1., 2., 3., 1., 2., 6.,
          1., 3., 4., 0., 1., 3., 3., 1., 5., 5., 4., 7., 1., 0., 4., 4.,
          5., 3., 3., 1., 3., 3., 4., 3., 1., 7., 3., 2., 5., 4., 8., 5.,
          2., 1., 3., 4., 6., 10., 10., 6., 3., 8., 8., 11., 5., 10., 9.,
          10., 9., 4., 6., 5., 6., 5., 5., 6., 5., 7., 3., 5., 4., 13.,
          8., 3., 6., 4., 2., 6., 5., 6., 9., 9., 3., 1., 11., 5., 9.,
          6., 7., 7., 9., 4., 4., 6., 6., 9., 4., 9., 9., 4., 8., 7., 8.,
          16., 18., 5., 16., 10., 7., 5., 6., 10., 10., 9., 16., 8., 13.,
          4., 9., 19., 8., 11., 8., 11., 22., 13., 12., 14., 13., 26.,
          18., 13., 27., 23., 27., 38., 33., 62., 58., 39., 48., 37.,
          46., 66., 67., 120., 231., 292., 294., 324., 184., 225., 260.,
          196., 155., 105., 81., 60., 42., 36., 14., 7., 1., 0., 0., 0.,
          0., 0., 0., 0., 0., 0., 0., 0., 0., 0., 0., 0., 0., 0., 0., 0.,
          0., 0., 0., 0., 0., 0., 0., 0., 0., 0., 0., 0., 0., 0., 0., 0.,
          0., 0., 0., 0. ]
      - [ 120., 139., 129., 143., 154., 196., 275., 205., 189., 267.,
          326., 404., 435., 504., 206., 113., 68., 22., 19., 0., 1., 2.,
          2., 0., 0., 252., 0., 0., 0., 1., 0., 3., 0., 11., 0., 24., 0.,
          3., 3., 0., 81., 0., 0., 3., 0., 22., 0., 0., 5., 1., 0., 1.,
          0., 0., 0., 196., 0., 0., 0., 1., 0., 1., 0., 7., 0., 7., 0.,
          1., 0., 0., 26., 0., 1., 0., 0., 7., 0., 0., 1., 1., 0., 0.,
          0., 1., 0., 127., 0., 0., 0., 0., 1., 2., 0., 5., 0., 4., 0.,
          2., 0., 0., 9., 1., 1., 0., 2., 3., 2., 0., 0., 3., 0., 0., 1.,
          0., 0., 60., 1., 0., 3., 5., 1., 0., 1., 5., 2., 4., 1., 5.,
          4., 1., 11., 4., 2., 1., 1., 16., 1., 1., 9., 3., 4., 3., 0.,
          2., 1., 83., 1., 4., 5., 1., 0., 4., 2., 3., 0., 8., 2., 5.,
          4., 3., 14., 3., 8., 5., 4., 8., 6., 4., 24., 12., 17., 13.,
          7., 9., 13., 31., 23., 16., 13., 11., 14., 13., 3., 8., 5., 7.,
          4., 4., 4., 8., 3., 8., 5., 7., 4., 8., 5., 6., 6., 1., 5., 0.,
          5., 5., 3., 5., 2., 6., 2., 3., 1., 1., 2., 1., 2., 2., 5., 3.,
          3., 2., 8., 5., 6., 4., 2., 4., 1., 5., 1., 2., 6., 2., 2., 0.,
          6., 2., 3., 1., 2., 1., 1., 2., 6., 1., 1., 4., 5., 3., 5., 5.,
          4., 13., 2., 5., 2., 0., 5., 5., 6., 5., 4., 3., 4., 5., 1.,
          2., 5., 1., 5., 3., 3., 5., 3., 1., 3., 2., 3., 3., 2., 2., 7.,
          4., 6., 6., 7., 3., 1., 5., 6., 2., 2., 3., 2., 4., 5., 3., 2.,
          2., 3., 10., 5., 3., 5., 3., 8., 6., 4., 2., 7., 3., 8., 3.,
          6., 6., 4., 2., 6., 3., 4., 4., 1., 9., 6., 6., 10., 12., 9.,
          13., 15., 11., 10., 15., 8., 13., 6., 17., 12., 21., 16., 12.,
          11., 19., 9., 6., 13., 15., 16., 13., 17., 21., 11., 22., 17.,
          30., 36., 29., 17., 49., 28., 42., 56., 30., 58., 51., 58.,
          85., 96., 120., 146., 148., 261., 353., 267., 498., 219., 210.,
          127., 90., 58., 59., 28., 17., 1., 1., 0., 0., 0., 0., 0., 0.,
          0., 0., 0., 0., 0., 0., 0., 0., 0., 0., 0., 0., 0., 0., 0., 0.,
          0., 0., 0., 0., 0., 0., 0., 0., 0., 0., 0., 0., 0., 0., 0., 0.,
          0., 0., 0., 0. ]
      - [ 81., 127., 131., 189., 245., 278., 229., 175., 203., 134.,
          185., 379., 604., 438., 317., 251., 135., 62., 67., 32., 12.,
          2., 1., 0., 0., 187., 0., 0., 0., 0., 7., 1., 0., 9., 2., 18.,
          0., 0., 0., 0., 44., 0., 0., 3., 0., 15., 1., 0., 2., 1., 0.,
          0., 0., 0., 0., 103., 0., 0., 0., 0., 1., 1., 0., 5., 0., 6.,
          0., 0., 0., 0., 22., 0., 0., 1., 0., 4., 0., 0., 2., 2., 1.,
          0., 0., 0., 0., 106., 0., 0., 2., 0., 0., 2., 2., 1., 1., 7.,
          2., 1., 2., 0., 11., 1., 0., 0., 2., 1., 0., 0., 0., 1., 4.,
          3., 0., 1., 0., 49., 0., 0., 0., 0., 1., 2., 2., 3., 1., 2.,
          2., 2., 0., 2., 6., 0., 1., 2., 0., 4., 2., 0., 3., 2., 1., 0.,
          0., 0., 0., 112., 1., 0., 2., 4., 6., 3., 1., 4., 5., 5., 4.,
          2., 4., 4., 9., 3., 3., 7., 4., 8., 5., 2., 12., 6., 15., 5.,
          16., 18., 9., 20., 34., 8., 11., 12., 11., 6., 5., 13., 7., 6.,
          8., 5., 4., 6., 16., 6., 4., 3., 3., 1., 3., 2., 4., 1., 2.,
          2., 3., 4., 2., 4., 2., 2., 3., 2., 1., 3., 0., 4., 3., 1., 2.,
          2., 2., 2., 3., 4., 3., 1., 0., 3., 2., 2., 3., 9., 5., 3., 7.,
          3., 4., 5., 5., 4., 5., 3., 4., 1., 4., 1., 3., 3., 4., 2., 4.,
          5., 2., 2., 10., 4., 4., 5., 4., 4., 6., 7., 5., 4., 4., 2.,
          5., 7., 5., 4., 4., 7., 4., 4., 1., 4., 3., 6., 6., 10., 4.,
          5., 3., 4., 1., 2., 6., 5., 4., 5., 1., 2., 4., 6., 6., 3., 3.,
          4., 3., 7., 3., 2., 2., 4., 7., 6., 4., 3., 5., 7., 1., 1., 5.,
          8., 6., 2., 5., 4., 7., 4., 5., 6., 2., 4., 5., 4., 5., 7., 7.,
          7., 5., 6., 13., 12., 11., 11., 13., 10., 14., 16., 8., 16.,
          18., 23., 14., 28., 20., 21., 16., 25., 17., 22., 33., 39.,
          40., 40., 49., 60., 58., 76., 71., 63., 88., 93., 88., 68.,
          94., 106., 150., 209., 217., 182., 388., 339., 293., 194.,
          101., 152., 106., 65., 39., 18., 8., 2., 0., 0., 0., 0., 0.,
          0., 0., 0., 0., 0., 0., 0., 0., 0., 0., 0., 0., 0., 0., 0., 0.,
          0., 0., 0., 0., 0., 0., 0., 0., 0., 0., 0., 0., 0., 0., 0., 0.,
          0., 0., 0., 0., 0., 0., 0. ]
      - [ 480., 356., 277., 420., 373., 239., 129., 22., 9., 3., 26., 8.,
          7., 5., 7., 8., 4., 0., 8., 3., 7., 1., 0., 0., 0., 113., 0.,
          0., 1., 0., 0., 2., 0., 8., 1., 9., 0., 3., 0., 0., 56., 0.,
          1., 1., 0., 7., 0., 0., 6., 0., 0., 0., 0., 0., 0., 166., 0.,
          0., 0., 0., 1., 0., 0., 3., 0., 17., 0., 2., 0., 0., 71., 0.,
          0., 1., 0., 17., 1., 0., 6., 2., 0., 1., 0., 0., 0., 166., 0.,
          0., 0., 0., 1., 0., 0., 3., 0., 10., 0., 1., 0., 0., 18., 0.,
          0., 0., 0., 4., 0., 0., 0., 0., 0., 0., 0., 0., 0., 80., 0.,
          0., 0., 0., 0., 0., 0., 0., 0., 3., 0., 0., 0., 0., 31., 0.,
          0., 0., 0., 5., 0., 0., 0., 0., 0., 0., 0., 0., 0., 92., 0.,
          0., 0., 0., 0., 0., 0., 0., 0., 2., 0., 0., 0., 0., 7., 0., 2.,
          0., 0., 1., 0., 1., 5., 1., 7., 17., 40., 56., 117., 19., 14.,
          11., 14., 11., 8., 9., 7., 9., 5., 4., 14., 9., 7., 4., 13.,
          3., 6., 6., 1., 11., 4., 8., 3., 2., 7., 3., 4., 3., 5., 2.,
          5., 3., 2., 3., 9., 7., 3., 3., 6., 5., 2., 1., 5., 2., 1., 2.,
          3., 6., 2., 4., 5., 3., 5., 4., 2., 5., 1., 1., 7., 7., 2., 7.,
          6., 5., 7., 7., 6., 6., 4., 6., 6., 9., 4., 2., 9., 7., 2., 5.,
          3., 5., 8., 6., 11., 6., 5., 6., 6., 8., 4., 5., 7., 9., 5.,
          10., 9., 6., 10., 3., 11., 8., 7., 12., 6., 8., 9., 8., 17.,
          11., 7., 6., 12., 13., 7., 9., 9., 20., 5., 11., 8., 25., 9.,
          14., 11., 4., 30., 11., 15., 15., 9., 17., 18., 14., 15., 18.,
          11., 16., 15., 10., 20., 12., 15., 8., 19., 17., 19., 16., 25.,
          14., 26., 13., 31., 32., 33., 37., 29., 32., 27., 45., 44.,
          42., 44., 39., 50., 65., 25., 71., 81., 71., 82., 62., 60.,
          85., 80., 63., 76., 76., 83., 77., 66., 74., 124., 110., 78.,
          62., 77., 65., 99., 65., 74., 82., 76., 60., 64., 61., 63.,
          41., 41., 37., 31., 31., 37., 57., 51., 48., 37., 41., 40.,
          35., 28., 22., 12., 11., 19., 18., 7., 6., 6., 4., 3., 0., 0.,
          0., 0., 0., 0., 0., 0., 0., 0., 0., 0., 0., 0., 0., 0., 0., 0.,
          0., 0., 0., 0., 0., 0., 0., 0., 0., 0., 0., 0., 0. ]
      - [ 516., 507., 421., 438., 398., 356., 411., 353., 186., 31., 27.,
          4., 6., 7., 2., 16., 5., 4., 7., 9., 3., 1., 2., 0., 2., 132.,
          0., 0., 0., 1., 0., 3., 0., 3., 0., 12., 0., 2., 0., 0., 68.,
          0., 0., 2., 0., 6., 0., 0., 3., 0., 0., 1., 0., 0., 0., 130.,
          0., 0., 0., 0., 0., 3., 0., 5., 0., 11., 0., 2., 0., 0., 43.,
          0., 0., 4., 0., 12., 4., 0., 17., 2., 1., 0., 0., 0., 0., 188.,
          0., 0., 0., 1., 1., 4., 0., 3., 0., 4., 0., 1., 0., 0., 24.,
          0., 0., 0., 0., 4., 0., 0., 1., 0., 1., 0., 0., 0., 0., 59.,
          0., 0., 0., 0., 0., 0., 0., 0., 0., 1., 0., 0., 0., 0., 10.,
          0., 0., 0., 0., 3., 0., 0., 1., 0., 0., 0., 0., 0., 0., 63.,
          0., 0., 0., 0., 0., 0., 0., 0., 0., 0., 0., 0., 0., 0., 8., 0.,
          0., 0., 0., 3., 0., 0., 4., 1., 1., 6., 6., 9., 22., 44., 18.,
          15., 20., 10., 5., 10., 8., 4., 8., 7., 7., 9., 9., 10., 12.,
          5., 4., 5., 10., 5., 5., 2., 5., 8., 5., 8., 2., 1., 7., 5.,
          3., 6., 5., 3., 0., 0., 10., 4., 3., 4., 3., 1., 5., 1., 0.,
          2., 5., 3., 0., 2., 5., 4., 0., 3., 4., 7., 7., 2., 4., 4., 2.,
          0., 4., 1., 4., 4., 2., 2., 5., 2., 1., 3., 7., 5., 3., 1., 4.,
          7., 15., 18., 20., 19., 13., 17., 8., 7., 7., 9., 14., 16., 9.,
          6., 13., 6., 11., 9., 7., 8., 6., 9., 15., 11., 10., 14., 15.,
          11., 9., 14., 14., 18., 15., 17., 8., 8., 10., 13., 11., 13.,
          14., 9., 16., 18., 16., 18., 15., 15., 13., 24., 14., 32., 19.,
          23., 31., 29., 25., 25., 29., 25., 20., 24., 24., 28., 28.,
          32., 23., 22., 47., 31., 28., 37., 33., 38., 32., 32., 42.,
          47., 34., 53., 43., 51., 48., 71., 78., 97., 73., 96., 65.,
          101., 57., 69., 59., 58., 61., 66., 82., 70., 72., 87., 70.,
          97., 96., 108., 101., 93., 72., 70., 62., 39., 58., 44., 35.,
          29., 22., 33., 27., 29., 25., 51., 34., 21., 19., 12., 14., 7.,
          5., 7., 5., 5., 0., 0., 0., 0., 0., 0., 0., 0., 0., 0., 0., 0.,
          0., 0., 0., 0., 0., 0., 0., 0., 0., 0., 0., 0., 0., 0., 0., 0.,
          0., 0., 0., 0., 0., 0., 0., 0., 0., 0., 0., 0., 0., 0. ]
      - [ 0., 3., 0., 0., 2., 8., 7., 6., 20., 41., 108., 96., 125.,
          181., 216., 349., 1360., 1364., 115., 19., 7., 5., 7., 1., 0.,
          373., 0., 0., 3., 2., 4., 4., 0., 8., 0., 37., 1., 4., 4., 0.,
          116., 0., 0., 1., 0., 17., 0., 0., 3., 1., 0., 1., 1., 0., 0.,
          199., 0., 0., 0., 0., 1., 2., 0., 7., 0., 22., 0., 1., 0., 0.,
          30., 0., 0., 3., 0., 10., 0., 0., 9., 4., 1., 0., 0., 0., 0.,
          53., 0., 0., 0., 0., 0., 0., 0., 1., 0., 3., 0., 0., 0., 0.,
          3., 0., 0., 0., 0., 0., 0., 0., 0., 0., 0., 0., 0., 0., 0.,
          19., 0., 0., 0., 0., 0., 0., 0., 0., 0., 0., 0., 0., 0., 0.,
          3., 0., 0., 0., 0., 0., 0., 0., 0., 0., 0., 0., 0., 0., 0.,
          34., 0., 0., 0., 0., 0., 0., 0., 0., 0., 0., 0., 0., 0., 0.,
          2., 0., 0., 0., 0., 3., 0., 0., 0., 0., 0., 0., 0., 0., 0.,
          33., 26., 11., 13., 13., 7., 3., 11., 4., 5., 4., 4., 7., 4.,
          3., 5., 7., 6., 8., 6., 14., 2., 3., 1., 1., 5., 0., 2., 4.,
          1., 2., 4., 1., 1., 4., 1., 1., 2., 2., 3., 1., 3., 3., 3., 1.,
          1., 2., 3., 1., 1., 2., 6., 1., 2., 2., 0., 4., 0., 2., 1., 2.,
          0., 1., 4., 3., 1., 1., 4., 3., 0., 1., 1., 4., 2., 0., 0., 0.,
          1., 0., 0., 1., 0., 2., 0., 1., 3., 0., 1., 0., 4., 3., 2., 7.,
          0., 1., 2., 2., 1., 5., 2., 3., 0., 0., 1., 1., 2., 2., 2., 4.,
          6., 5., 1., 5., 1., 5., 10., 2., 6., 5., 1., 0., 2., 1., 4.,
          11., 3., 9., 5., 6., 4., 9., 8., 8., 3., 4., 9., 6., 9., 6.,
          4., 5., 5., 10., 8., 13., 8., 5., 3., 15., 9., 16., 12., 12.,
          5., 9., 8., 15., 15., 13., 19., 18., 15., 18., 11., 24., 18.,
          23., 20., 14., 26., 35., 22., 27., 25., 32., 35., 25., 41.,
          52., 33., 43., 54., 44., 63., 54., 37., 44., 58., 59., 75.,
          74., 55., 92., 77., 72., 56., 54., 43., 48., 53., 46., 42.,
          42., 70., 72., 64., 62., 76., 62., 52., 54., 61., 43., 38.,
          47., 29., 36., 48., 56., 46., 41., 46., 53., 56., 52., 66.,
          78., 55., 49., 37., 39., 16., 6., 2., 0., 0., 0., 0., 0., 0.,
          0., 0., 0., 0., 0., 0., 0., 0., 0., 0., 0. ]
      - [ 0., 0., 0., 5., 0., 2., 1., 3., 0., 0., 28., 0., 6., 10., 0.,
          36., 15., 31., 71., 125., 105., 122., 146., 167., 379., 1958.,
          1892., 232., 16., 15., 3., 21., 0., 14., 0., 20., 0., 1., 0.,
          0., 42., 0., 0., 0., 0., 3., 0., 0., 0., 0., 0., 0., 0., 0.,
          0., 54., 0., 0., 0., 0., 0., 0., 0., 0., 0., 1., 0., 0., 0.,
          0., 4., 0., 0., 0., 0., 1., 0., 0., 2., 0., 0., 0., 0., 0., 0.,
          23., 0., 0., 0., 0., 0., 0., 0., 1., 0., 1., 0., 0., 0., 0.,
          1., 0., 0., 0., 0., 0., 0., 0., 0., 0., 0., 0., 0., 0., 0.,
          31., 0., 0., 0., 0., 0., 0., 0., 0., 0., 2., 0., 0., 0., 0.,
          3., 0., 0., 0., 0., 0., 0., 0., 0., 0., 0., 0., 0., 0., 0.,
          21., 0., 0., 0., 0., 0., 0., 0., 3., 0., 0., 0., 0., 0., 0.,
          8., 0., 0., 0., 0., 0., 0., 0., 0., 0., 0., 1., 0., 0., 0.,
          34., 29., 15., 16., 9., 15., 14., 6., 13., 8., 5., 7., 14., 5.,
          7., 6., 8., 5., 5., 8., 4., 6., 2., 2., 6., 5., 5., 2., 1., 4.,
          5., 3., 2., 2., 4., 5., 5., 2., 5., 5., 3., 3., 2., 5., 6., 3.,
          12., 7., 4., 8., 3., 1., 3., 2., 2., 4., 1., 4., 5., 8., 1.,
          5., 5., 3., 1., 1., 2., 3., 5., 15., 16., 6., 6., 16., 13.,
          13., 14., 14., 18., 12., 30., 19., 25., 24., 36., 46., 30.,
          43., 66., 57., 93., 66., 68., 74., 57., 55., 65., 35., 65.,
          38., 42., 48., 31., 32., 28., 23., 43., 28., 48., 39., 43.,
          50., 30., 26., 41., 31., 41., 55., 72., 51., 35., 28., 55.,
          58., 33., 46., 31., 36., 37., 20., 29., 36., 29., 32., 32.,
          36., 41., 36., 38., 30., 29., 42., 21., 33., 46., 23., 30.,
          15., 35., 27., 19., 32., 23., 27., 43., 30., 26., 36., 41.,
          43., 58., 41., 45., 29., 29., 31., 20., 41., 33., 43., 35.,
          33., 27., 19., 29., 9., 25., 22., 37., 34., 40., 29., 34., 49.,
          57., 56., 52., 30., 24., 34., 22., 22., 28., 15., 15., 13.,
          12., 7., 9., 10., 3., 4., 8., 0., 3., 0., 0., 0., 0., 0., 0.,
          0., 0., 0., 0., 0., 0., 0., 0., 0., 0., 0., 0., 0., 0., 0., 0.,
          0., 0., 0., 0., 0., 0., 0., 0., 0., 0., 0., 0., 0., 0., 0., 0.,
          0., 0., 0., 0., 0., 0., 0., 0. ]
      - [ 0., 0., 0., 1., 0., 6., 3., 2., 0., 2., 49., 7., 5., 10., 6.,
          35., 13., 29., 97., 73., 94., 163., 170., 222., 323., 1049.,
          1478., 1309., 70., 6., 6., 5., 1., 22., 0., 33., 0., 1., 0.,
          0., 42., 0., 0., 0., 0., 2., 0., 0., 0., 0., 0., 0., 0., 0.,
          0., 43., 0., 0., 0., 0., 0., 0., 0., 0., 0., 0., 0., 0., 0.,
          0., 5., 0., 0., 0., 0., 0., 0., 0., 0., 0., 0., 0., 0., 0., 0.,
          13., 0., 0., 0., 0., 0., 0., 0., 1., 0., 2., 0., 1., 0., 0.,
          0., 0., 0., 0., 0., 1., 0., 0., 0., 0., 0., 0., 0., 0., 0.,
          28., 0., 0., 0., 0., 0., 0., 0., 0., 0., 0., 0., 0., 0., 0.,
          2., 0., 0., 0., 0., 0., 0., 0., 0., 0., 0., 0., 0., 0., 0.,
          22., 0., 0., 0., 0., 0., 1., 0., 0., 0., 0., 0., 1., 0., 0.,
          4., 0., 0., 0., 0., 2., 0., 0., 0., 0., 0., 0., 0., 0., 0.,
          27., 10., 25., 14., 13., 11., 10., 12., 10., 14., 8., 12., 5.,
          9., 5., 9., 11., 6., 5., 4., 4., 8., 4., 6., 3., 8., 4., 7.,
          3., 3., 1., 5., 4., 0., 7., 7., 5., 1., 4., 5., 5., 1., 1., 0.,
          1., 3., 9., 6., 6., 3., 4., 6., 3., 5., 0., 1., 5., 3., 9., 6.,
          1., 2., 0., 0., 11., 15., 13., 9., 21., 10., 8., 5., 10., 11.,
          10., 10., 13., 14., 17., 8., 17., 15., 16., 14., 21., 24., 22.,
          23., 16., 24., 32., 26., 32., 39., 22., 39., 62., 35., 41.,
          37., 47., 44., 30., 34., 33., 30., 54., 37., 47., 47., 41.,
          35., 31., 34., 36., 33., 48., 56., 31., 41., 28., 29., 37.,
          44., 20., 31., 40., 33., 44., 40., 41., 41., 30., 35., 36.,
          34., 40., 41., 56., 37., 36., 33., 25., 43., 37., 38., 35.,
          46., 69., 42., 45., 42., 39., 54., 49., 38., 41., 50., 52.,
          39., 34., 37., 34., 28., 39., 49., 31., 46., 40., 51., 47.,
          33., 39., 28., 46., 23., 39., 30., 26., 32., 27., 26., 22.,
          32., 40., 52., 48., 26., 27., 21., 20., 18., 16., 15., 7., 4.,
          2., 4., 1., 0., 0., 0., 0., 0., 0., 0., 0., 0., 0., 0., 0., 0.,
          0., 0., 0., 0., 0., 0., 0., 0., 0., 0., 0., 0., 0., 0., 0., 0.,
          0., 0., 0., 0., 0., 0., 0., 0., 0., 0., 0., 0., 0., 0., 0., 0.,
          0., 0., 0., 0., 0., 0., 0. ]
      - [ 1., 1., 0., 7., 1., 10., 0., 3., 0., 1., 45., 2., 7., 2., 4.,
          21., 16., 5., 35., 49., 55., 87., 84., 119., 213., 1779.,
          1761., 569., 84., 26., 22., 9., 1., 20., 0., 29., 0., 2., 0.,
          0., 37., 0., 0., 2., 0., 0., 0., 0., 0., 0., 0., 0., 0., 0.,
          0., 42., 0., 0., 0., 0., 0., 0., 0., 0., 0., 2., 0., 0., 0.,
          0., 0., 0., 0., 0., 0., 0., 0., 0., 0., 0., 0., 0., 0., 0., 0.,
          35., 0., 0., 0., 0., 0., 0., 0., 0., 0., 0., 0., 0., 0., 0.,
          0., 0., 0., 0., 0., 0., 0., 0., 0., 0., 0., 0., 0., 0., 0.,
          39., 0., 0., 0., 0., 0., 0., 0., 0., 0., 0., 0., 0., 0., 0.,
          1., 0., 0., 0., 0., 0., 0., 0., 0., 0., 0., 0., 0., 0., 0.,
          25., 0., 0., 0., 0., 0., 0., 0., 0., 0., 0., 0., 0., 0., 0.,
          7., 0., 1., 0., 0., 2., 0., 0., 2., 0., 0., 0., 0., 0., 0.,
          25., 32., 19., 13., 11., 10., 3., 6., 13., 16., 16., 3., 5.,
          3., 6., 6., 8., 5., 10., 2., 5., 3., 4., 6., 7., 4., 5., 3.,
          7., 5., 3., 3., 3., 5., 6., 7., 2., 2., 4., 5., 6., 6., 2.,
          10., 1., 1., 5., 0., 0., 5., 8., 2., 6., 3., 1., 1., 2., 1.,
          1., 2., 0., 5., 6., 1., 2., 4., 3., 2., 2., 6., 14., 11., 12.,
          12., 18., 14., 15., 17., 25., 15., 19., 15., 14., 34., 33.,
          40., 27., 36., 35., 34., 32., 52., 64., 69., 62., 78., 52.,
          48., 46., 63., 46., 65., 37., 36., 37., 31., 40., 30., 38.,
          28., 42., 31., 61., 40., 42., 41., 35., 32., 26., 57., 40.,
          33., 47., 41., 23., 33., 27., 28., 26., 27., 30., 39., 39.,
          39., 32., 26., 20., 21., 45., 33., 17., 28., 21., 22., 17.,
          22., 25., 13., 22., 20., 21., 22., 15., 26., 21., 13., 21.,
          30., 21., 11., 24., 16., 29., 24., 28., 50., 32., 19., 20.,
          50., 19., 19., 23., 15., 34., 14., 23., 52., 20., 30., 34.,
          24., 22., 26., 20., 28., 28., 15., 27., 23., 11., 20., 19.,
          32., 19., 35., 25., 28., 20., 11., 11., 23., 13., 16., 30., 7.,
          17., 7., 19., 6., 4., 2., 3., 3., 3., 1., 0., 0., 0., 0., 0.,
          0., 0., 0., 0., 0., 0., 0., 0., 0., 0., 0., 0., 0., 0., 0., 0.,
          0., 0., 0., 0., 0., 0., 0., 0., 0., 0., 0., 0., 0., 0. ]
      - [ 0., 0., 0., 5., 0., 2., 0., 1., 1., 0., 26., 0., 3., 3., 9.,
          23., 8., 8., 44., 86., 181., 470., 1728., 2149., 452., 316.,
          3., 5., 2., 5., 9., 9., 1., 18., 11., 24., 0., 4., 0., 0., 75.,
          0., 1., 1., 0., 3., 0., 0., 2., 5., 0., 3., 0., 0., 0., 72.,
          0., 0., 0., 0., 0., 0., 0., 1., 0., 3., 0., 1., 0., 0., 13.,
          0., 0., 1., 0., 3., 0., 0., 1., 3., 0., 0., 0., 0., 0., 44.,
          0., 0., 0., 0., 0., 2., 0., 0., 0., 4., 0., 0., 0., 0., 5., 0.,
          0., 0., 0., 0., 0., 0., 0., 0., 0., 0., 0., 0., 0., 22., 0.,
          0., 0., 0., 0., 0., 0., 0., 0., 1., 0., 0., 0., 0., 2., 0., 0.,
          0., 0., 0., 0., 0., 0., 0., 0., 0., 0., 0., 0., 12., 0., 0.,
          0., 0., 0., 0., 0., 0., 0., 0., 0., 0., 0., 0., 2., 0., 0., 0.,
          1., 0., 1., 0., 1., 0., 0., 0., 0., 0., 0., 37., 21., 21., 28.,
          11., 16., 7., 5., 7., 8., 5., 0., 10., 6., 10., 0., 8., 1., 5.,
          6., 4., 6., 2., 12., 3., 4., 4., 5., 6., 6., 5., 8., 2., 5.,
          5., 2., 3., 2., 3., 5., 1., 2., 4., 5., 2., 2., 5., 3., 4., 5.,
          2., 7., 5., 4., 3., 0., 4., 1., 3., 4., 4., 4., 0., 3., 2.,
          12., 11., 5., 5., 8., 10., 9., 13., 13., 23., 24., 9., 9., 10.,
          9., 16., 20., 5., 14., 17., 9., 17., 17., 17., 16., 6., 7.,
          25., 24., 21., 21., 33., 25., 29., 22., 43., 30., 48., 41.,
          37., 39., 30., 36., 71., 48., 64., 67., 66., 94., 80., 91.,
          58., 102., 93., 98., 95., 117., 72., 73., 90., 81., 126., 88.,
          89., 85., 101., 83., 58., 49., 66., 39., 46., 44., 50., 54.,
          48., 53., 51., 55., 69., 54., 74., 54., 42., 58., 45., 48.,
          50., 57., 48., 38., 42., 44., 42., 51., 35., 47., 31., 49.,
          36., 21., 41., 29., 30., 40., 34., 27., 20., 11., 19., 18.,
          26., 7., 17., 13., 10., 5., 15., 7., 9., 6., 8., 6., 2., 0.,
          2., 0., 0., 0., 0., 0., 0., 0., 0., 0., 0., 0., 0., 0., 0., 0.,
          0., 0., 0., 0., 0., 0., 0., 0., 0., 0., 0., 0., 0., 0., 0., 0.,
          0., 0., 0., 0., 0., 0., 0., 0., 0., 0., 0., 0., 0., 0., 0., 0.,
          0., 0., 0., 0., 0., 0., 0., 0., 0., 0., 0., 0., 0. ]
      - [ 0., 2., 0., 1., 0., 5., 1., 3., 2., 1., 35., 1., 4., 1., 4.,
          22., 13., 11., 72., 107., 240., 478., 1495., 2312., 420., 406.,
          4., 8., 9., 17., 19., 8., 4., 24., 2., 28., 2., 6., 0., 0.,
          64., 0., 0., 0., 0., 3., 0., 0., 0., 0., 0., 0., 0., 0., 0.,
          41., 0., 0., 0., 0., 0., 0., 0., 0., 0., 0., 0., 0., 0., 0.,
          1., 0., 0., 0., 0., 2., 0., 0., 0., 1., 0., 3., 0., 0., 0.,
          32., 0., 0., 0., 0., 0., 0., 0., 0., 0., 0., 0., 0., 0., 0.,
          6., 0., 0., 0., 0., 0., 0., 0., 1., 0., 0., 0., 0., 0., 0.,
          23., 0., 0., 0., 0., 0., 0., 0., 0., 0., 0., 0., 0., 0., 0.,
          1., 0., 0., 0., 0., 1., 0., 0., 0., 0., 0., 0., 0., 0., 0.,
          19., 0., 0., 0., 0., 0., 0., 0., 0., 0., 0., 0., 0., 0., 0.,
          8., 0., 0., 0., 0., 0., 0., 0., 0., 1., 0., 0., 0., 0., 0.,
          35., 26., 23., 11., 16., 8., 6., 12., 17., 5., 12., 9., 2., 5.,
          5., 7., 8., 2., 9., 7., 13., 5., 5., 9., 9., 5., 6., 5., 4.,
          2., 5., 4., 7., 5., 3., 3., 4., 5., 2., 2., 5., 1., 4., 6., 3.,
          5., 3., 2., 3., 0., 4., 9., 2., 5., 1., 4., 4., 6., 3., 2., 3.,
          2., 1., 7., 2., 3., 1., 3., 5., 10., 11., 6., 20., 12., 7.,
          10., 22., 9., 9., 13., 14., 9., 15., 11., 8., 18., 13., 4.,
          19., 14., 17., 18., 16., 25., 28., 28., 28., 33., 41., 24.,
          48., 39., 45., 38., 55., 41., 45., 38., 54., 39., 83., 112.,
          106., 129., 140., 76., 78., 75., 102., 96., 97., 91., 48., 64.,
          83., 63., 92., 76., 94., 57., 48., 52., 57., 40., 59., 55.,
          62., 71., 53., 60., 80., 88., 61., 63., 44., 46., 51., 52.,
          43., 48., 36., 33., 32., 35., 27., 41., 38., 44., 51., 41.,
          35., 31., 49., 48., 37., 18., 36., 35., 29., 37., 28., 26.,
          29., 28., 14., 19., 24., 25., 20., 13., 15., 17., 15., 13.,
          15., 10., 5., 5., 2., 1., 2., 0., 0., 0., 0., 0., 0., 0., 0.,
          0., 0., 0., 0., 0., 0., 0., 0., 0., 0., 0., 0., 0., 0., 0., 0.,
          0., 0., 0., 0., 0., 0., 0., 0., 0., 0., 0., 0., 0., 0., 0., 0.,
          0., 0., 0., 0., 0., 0., 0., 0., 0., 0., 0., 0., 0., 0., 0., 0.,
          0., 0., 0., 0. ]
      - [ 1., 0., 0., 6., 0., 4., 0., 2., 1., 6., 37., 6., 10., 6., 10.,
          53., 21., 18., 78., 103., 67., 105., 103., 176., 377., 1686.,
          1612., 734., 95., 6., 7., 8., 0., 7., 2., 24., 0., 3., 0., 0.,
