%YAML:1.0
---
opencv_ml_svm:
   format: 3
   svmType: C_SVC
   kernel:
      type: RBF
      gamma: 1.0000000000000001e-05
   C: 1.0000000000000001e-01
   term_criteria: { epsilon:1.1920928955078125e-07, iterations:1000 }
   var_count: 426
   class_count: 5
   class_labels: !!opencv-matrix
      rows: 5
      cols: 1
      dt: i
      data: [ 0, 1, 2, 3, 4 ]
   sv_total: 483
   support_vectors:
      - [ 0., 3., 1., 5., 0., 3., 3., 4., 4., 2., 26., 2., 3., 5., 8.,
          27., 19., 18., 63., 74., 132., 562., 1680., 1688., 753., 327.,
          8., 13., 10., 17., 8., 15., 3., 18., 2., 18., 1., 7., 2., 0.,
          32., 0., 3., 0., 0., 17., 1., 0., 4., 2., 0., 0., 0., 0., 0.,
          28., 0., 0., 0., 0., 0., 1., 0., 1., 0., 7., 0., 0., 0., 0.,
          16., 0., 0., 1., 0., 4., 0., 0., 2., 0., 0., 0., 0., 0., 0.,
          77., 0., 0., 0., 0., 0., 0., 0., 3., 1., 2., 0., 0., 0., 0.,
          19., 0., 0., 0., 0., 6., 0., 0., 0., 0., 0., 0., 0., 0., 0.,
          54., 0., 0., 0., 0., 0., 0., 0., 0., 0., 7., 0., 0., 0., 0.,
          26., 0., 0., 3., 0., 4., 0., 0., 2., 0., 0., 0., 0., 0., 0.,
          69., 0., 0., 0., 0., 0., 1., 0., 1., 1., 4., 0., 0., 0., 0.,
          19., 0., 0., 0., 0., 3., 0., 0., 0., 0., 0., 0., 0., 0., 0.,
          70., 35., 29., 21., 14., 18., 6., 5., 7., 9., 7., 7., 3., 3.,
          2., 2., 7., 3., 5., 9., 9., 4., 5., 5., 3., 5., 5., 8., 2., 6.,
          3., 3., 7., 4., 3., 5., 2., 3., 3., 1., 9., 6., 7., 6., 4., 1.,
          2., 3., 4., 6., 9., 6., 5., 1., 1., 6., 2., 4., 7., 4., 5., 1.,
          4., 10., 6., 3., 8., 12., 10., 14., 7., 8., 8., 7., 5., 7., 6.,
          13., 12., 12., 14., 19., 17., 15., 22., 29., 22., 23., 24.,
          21., 25., 30., 22., 24., 28., 29., 38., 47., 39., 33., 32.,
          41., 44., 38., 54., 39., 66., 63., 73., 67., 71., 80., 70.,
          84., 67., 64., 65., 50., 67., 103., 74., 100., 81., 95., 126.,
          74., 78., 76., 79., 72., 74., 71., 58., 57., 49., 69., 51.,
          62., 57., 60., 55., 79., 75., 70., 61., 58., 57., 71., 58.,
          64., 39., 36., 34., 36., 43., 33., 38., 24., 33., 27., 21.,
          30., 21., 16., 27., 19., 33., 27., 25., 23., 19., 13., 28.,
          16., 24., 19., 20., 16., 12., 12., 11., 7., 2., 6., 5., 2., 2.,
          0., 2., 1., 2., 1., 1., 0., 0., 1., 0., 0., 0., 0., 1., 0., 0.,
          0., 0., 0., 0., 1., 0., 0., 0., 0., 1., 3., 0., 0., 0., 0., 1.,
          0., 0., 0., 0., 0., 0., 0., 0., 0., 0., 0., 0., 1., 0., 0., 0.,
          1., 0., 0., 0., 0., 0., 0., 0., 0., 0., 0., 0., 0., 0., 0., 0. ]
      - [ 0., 1., 0., 1., 1., 4., 0., 2., 2., 0., 15., 3., 7., 10., 3.,
          31., 12., 16., 48., 91., 190., 576., 1530., 1926., 663., 345.,
          10., 10., 8., 12., 8., 31., 1., 18., 1., 21., 1., 11., 1., 0.,
          33., 0., 1., 1., 0., 13., 0., 0., 4., 4., 0., 0., 0., 0., 0.,
          38., 0., 0., 0., 1., 0., 0., 1., 1., 0., 4., 0., 0., 0., 0.,
          12., 0., 0., 2., 0., 2., 0., 0., 4., 4., 0., 0., 0., 0., 0.,
          68., 0., 0., 0., 0., 0., 2., 0., 4., 1., 5., 0., 2., 0., 0.,
          8., 0., 0., 0., 0., 4., 0., 0., 2., 0., 0., 0., 0., 0., 0.,
          61., 0., 0., 0., 0., 0., 0., 0., 2., 0., 7., 0., 0., 0., 0.,
          30., 0., 0., 0., 0., 6., 0., 0., 0., 0., 0., 0., 0., 0., 0.,
          78., 0., 0., 0., 0., 0., 0., 0., 1., 0., 1., 0., 0., 1., 0.,
          13., 0., 0., 0., 0., 2., 0., 0., 0., 0., 0., 0., 0., 0., 0.,
          93., 34., 27., 17., 17., 15., 4., 6., 13., 9., 6., 7., 7., 8.,
          8., 8., 4., 4., 2., 6., 7., 1., 9., 2., 7., 8., 1., 6., 4., 5.,
          4., 3., 4., 5., 0., 2., 5., 6., 6., 4., 3., 4., 8., 2., 2., 5.,
          3., 5., 5., 4., 1., 2., 4., 6., 9., 5., 6., 8., 10., 7., 6.,
          9., 7., 7., 9., 12., 12., 17., 6., 11., 10., 15., 11., 15., 6.,
          11., 15., 10., 18., 11., 17., 15., 22., 12., 23., 30., 17.,
          29., 26., 19., 23., 29., 29., 31., 29., 36., 24., 39., 45.,
          35., 52., 36., 32., 44., 40., 38., 52., 55., 42., 65., 84.,
          67., 75., 63., 75., 86., 77., 69., 60., 90., 89., 67., 63.,
          70., 73., 67., 65., 67., 85., 81., 83., 69., 71., 72., 69.,
          74., 61., 49., 48., 42., 37., 44., 56., 39., 56., 56., 52.,
          46., 67., 72., 44., 53., 44., 54., 64., 42., 39., 53., 37.,
          29., 36., 56., 41., 37., 29., 26., 37., 27., 28., 29., 17.,
          15., 19., 22., 16., 15., 10., 16., 19., 9., 8., 9., 11., 8.,
          6., 7., 4., 4., 1., 2., 1., 4., 3., 0., 1., 1., 0., 1., 0., 0.,
          0., 0., 1., 0., 1., 0., 0., 0., 0., 0., 1., 0., 1., 0., 0., 0.,
          0., 0., 0., 0., 0., 0., 0., 1., 0., 0., 0., 0., 0., 0., 0., 0.,
          0., 0., 0., 1., 0., 0., 0., 0., 1., 1., 0., 0., 0., 0., 0., 0.,
          0., 0., 0. ]
      - [ 1., 0., 0., 1., 1., 6., 0., 0., 0., 0., 26., 0., 10., 9., 11.,
          21., 12., 13., 57., 81., 70., 174., 122., 174., 454., 2409.,
          1342., 156., 19., 20., 21., 21., 2., 15., 7., 19., 0., 10., 0.,
          0., 27., 0., 0., 1., 0., 9., 0., 0., 0., 0., 0., 0., 0., 0.,
          0., 23., 0., 0., 0., 0., 0., 0., 0., 1., 0., 0., 0., 0., 0.,
          0., 7., 0., 0., 0., 0., 1., 0., 0., 0., 2., 0., 0., 0., 0., 0.,
          33., 0., 0., 0., 0., 0., 0., 0., 0., 0., 0., 0., 0., 0., 0.,
          9., 0., 0., 0., 0., 1., 0., 0., 0., 0., 0., 0., 0., 0., 0.,
          66., 0., 0., 0., 0., 0., 0., 0., 2., 0., 7., 0., 0., 1., 0.,
          41., 0., 0., 2., 0., 12., 0., 0., 3., 1., 0., 0., 0., 0., 0.,
          54., 0., 0., 0., 0., 0., 0., 0., 0., 0., 1., 0., 0., 1., 0.,
          15., 0., 0., 0., 0., 2., 0., 0., 0., 0., 0., 0., 0., 0., 0.,
          69., 42., 37., 27., 20., 9., 8., 12., 7., 7., 4., 10., 12., 7.,
          8., 7., 5., 4., 4., 7., 6., 5., 6., 6., 6., 2., 3., 4., 3., 7.,
          3., 5., 5., 4., 5., 0., 2., 7., 4., 4., 5., 2., 6., 7., 6., 5.,
          2., 2., 3., 5., 3., 4., 4., 5., 1., 3., 3., 4., 2., 5., 2., 2.,
          1., 7., 1., 6., 2., 9., 9., 13., 6., 12., 22., 15., 20., 13.,
          21., 30., 35., 26., 29., 25., 40., 30., 33., 41., 42., 42.,
          45., 51., 60., 63., 50., 59., 32., 36., 48., 34., 62., 54.,
          54., 57., 51., 39., 54., 50., 65., 31., 48., 47., 38., 42.,
          36., 54., 48., 36., 46., 46., 40., 39., 28., 30., 45., 50.,
          29., 29., 47., 33., 40., 27., 29., 23., 25., 31., 23., 28.,
          31., 20., 29., 29., 27., 24., 20., 21., 23., 22., 26., 26.,
          27., 19., 21., 28., 31., 22., 23., 26., 24., 22., 29., 21.,
          30., 29., 37., 33., 26., 35., 36., 29., 31., 28., 31., 23.,
          34., 36., 32., 26., 32., 32., 29., 30., 33., 37., 39., 38.,
          39., 27., 37., 18., 37., 26., 18., 19., 22., 20., 11., 20.,
          15., 16., 6., 10., 6., 10., 9., 8., 10., 10., 2., 5., 5., 7.,
          3., 6., 6., 1., 6., 2., 4., 1., 1., 0., 1., 2., 2., 1., 1., 0.,
          1., 1., 0., 0., 0., 0., 0., 0., 2., 0., 0., 0., 0., 0., 0., 0.,
          0., 0., 0., 0., 0., 0., 0., 0., 0. ]
      - [ 719., 810., 435., 165., 63., 46., 17., 20., 12., 2., 43., 3.,
          2., 4., 4., 20., 0., 0., 9., 2., 3., 3., 0., 0., 0., 101., 0.,
          0., 0., 1., 1., 6., 0., 6., 0., 8., 0., 2., 0., 0., 29., 0.,
          1., 0., 0., 15., 1., 0., 1., 3., 1., 1., 0., 0., 0., 50., 0.,
          0., 0., 0., 1., 2., 1., 13., 0., 11., 2., 4., 3., 0., 29., 0.,
          2., 3., 1., 24., 3., 0., 32., 9., 4., 4., 0., 0., 0., 149., 0.,
          0., 0., 2., 0., 1., 0., 3., 1., 11., 0., 0., 0., 0., 26., 0.,
          0., 0., 0., 4., 0., 0., 0., 0., 0., 0., 0., 0., 0., 34., 0.,
          0., 0., 0., 0., 0., 0., 1., 0., 0., 0., 0., 0., 0., 22., 0.,
          0., 0., 0., 9., 0., 0., 1., 2., 0., 0., 0., 0., 0., 111., 0.,
          0., 0., 0., 0., 0., 0., 2., 0., 8., 0., 0., 0., 0., 53., 0.,
          0., 2., 0., 10., 0., 0., 4., 2., 3., 2., 7., 24., 62., 66.,
          32., 34., 20., 20., 15., 15., 6., 9., 6., 11., 8., 4., 5., 7.,
          6., 6., 6., 10., 3., 5., 6., 7., 1., 4., 2., 4., 6., 9., 3.,
          5., 8., 3., 2., 5., 8., 3., 5., 3., 1., 4., 8., 1., 3., 5., 3.,
          2., 4., 5., 1., 3., 3., 2., 5., 4., 12., 7., 7., 10., 4., 5.,
          5., 6., 7., 7., 5., 7., 6., 5., 8., 3., 6., 9., 4., 5., 1., 8.,
          9., 7., 5., 7., 7., 7., 13., 7., 6., 9., 6., 5., 6., 4., 10.,
          4., 9., 14., 7., 10., 8., 7., 8., 9., 6., 8., 7., 7., 6., 7.,
          5., 7., 8., 7., 7., 11., 9., 10., 10., 4., 10., 6., 7., 8.,
          10., 14., 12., 5., 14., 3., 7., 17., 8., 12., 10., 14., 10.,
          14., 13., 10., 13., 19., 12., 12., 16., 10., 15., 19., 15.,
          19., 13., 18., 17., 24., 23., 24., 27., 16., 20., 26., 27.,
          29., 31., 34., 43., 38., 33., 46., 51., 24., 34., 49., 53.,
          43., 58., 48., 67., 62., 55., 57., 61., 61., 54., 66., 56.,
          52., 72., 61., 48., 52., 67., 62., 49., 63., 64., 52., 49.,
          69., 59., 61., 54., 55., 69., 63., 54., 43., 68., 52., 62.,
          42., 38., 47., 29., 32., 50., 39., 45., 41., 37., 41., 36.,
          44., 29., 26., 30., 27., 20., 12., 18., 12., 7., 16., 4., 9.,
          6., 0., 10., 1., 2., 0., 0., 1., 0., 0., 0., 0., 0., 0., 0.,
          0., 0., 0., 0., 0. ]
      - [ 181., 204., 140., 130., 117., 118., 98., 127., 174., 217.,
          357., 384., 413., 403., 313., 218., 134., 111., 88., 43., 38.,
          26., 20., 8., 2., 198., 1., 1., 4., 15., 14., 11., 3., 29., 1.,
          39., 1., 5., 2., 0., 42., 0., 2., 6., 3., 13., 0., 0., 9., 3.,
          0., 0., 1., 0., 0., 49., 0., 0., 0., 0., 1., 0., 1., 3., 0.,
          16., 0., 5., 0., 0., 30., 0., 3., 4., 0., 27., 2., 0., 10., 4.,
          4., 3., 0., 0., 0., 164., 0., 0., 1., 3., 0., 4., 0., 7., 0.,
          13., 1., 3., 3., 1., 24., 1., 0., 0., 2., 4., 1., 3., 3., 3.,
          2., 2., 2., 1., 0., 42., 0., 1., 3., 0., 1., 2., 0., 2., 3.,
          3., 2., 3., 0., 1., 19., 1., 1., 4., 1., 5., 3., 2., 1., 1.,
          1., 3., 0., 1., 0., 224., 1., 1., 0., 4., 5., 3., 0., 5., 4.,
          9., 4., 4., 5., 4., 15., 4., 6., 6., 8., 13., 3., 5., 13., 5.,
          9., 9., 7., 11., 15., 112., 61., 42., 41., 26., 18., 18., 9.,
          13., 6., 3., 6., 5., 4., 5., 3., 4., 11., 5., 3., 5., 4., 0.,
          6., 3., 4., 5., 5., 4., 10., 2., 1., 2., 3., 5., 4., 2., 1.,
          7., 2., 7., 2., 4., 5., 3., 2., 2., 2., 0., 3., 9., 4., 2., 6.,
          4., 5., 3., 1., 4., 3., 1., 4., 2., 3., 1., 1., 5., 1., 3., 7.,
          4., 1., 2., 2., 4., 1., 3., 5., 1., 1., 4., 2., 3., 2., 7., 5.,
          5., 7., 3., 3., 3., 5., 6., 3., 1., 5., 3., 6., 4., 5., 2., 4.,
          2., 1., 4., 1., 3., 4., 5., 3., 4., 4., 0., 3., 5., 4., 5., 7.,
          3., 3., 5., 4., 3., 6., 8., 6., 7., 3., 9., 4., 4., 6., 6., 8.,
          9., 5., 9., 3., 6., 13., 10., 16., 11., 8., 9., 13., 11., 13.,
          15., 11., 16., 12., 12., 14., 23., 15., 24., 21., 17., 28.,
          29., 31., 29., 25., 31., 19., 29., 43., 38., 35., 45., 34.,
          41., 38., 38., 48., 51., 57., 62., 58., 50., 40., 63., 64.,
          60., 92., 69., 90., 87., 102., 99., 104., 112., 106., 108.,
          98., 117., 114., 126., 101., 102., 102., 87., 82., 85., 73.,
          72., 52., 35., 38., 35., 24., 17., 21., 13., 9., 14., 4., 8.,
          7., 3., 2., 3., 1., 1., 1., 0., 1., 0., 0., 1., 0., 0., 0., 0.,
          0., 0., 0., 0., 0., 0., 0., 0., 0., 0., 0., 0., 0., 0., 0., 0. ]
      - [ 79., 117., 105., 104., 103., 128., 164., 164., 132., 133.,
          252., 345., 486., 575., 604., 404., 137., 50., 30., 14., 7.,
          8., 6., 3., 0., 177., 0., 0., 2., 5., 6., 13., 2., 28., 2.,
          17., 2., 6., 1., 0., 56., 0., 1., 1., 0., 12., 0., 0., 11., 5.,
          1., 1., 0., 0., 0., 54., 0., 0., 0., 0., 0., 2., 0., 6., 1.,
          12., 1., 3., 2., 0., 20., 0., 2., 2., 0., 16., 1., 0., 12., 1.,
          7., 1., 0., 0., 0., 129., 0., 0., 0., 5., 3., 4., 1., 3., 2.,
          14., 0., 3., 2., 0., 35., 1., 0., 2., 0., 3., 1., 0., 2., 0.,
          0., 0., 1., 0., 0., 65., 0., 0., 0., 1., 1., 1., 0., 5., 1.,
          4., 1., 2., 1., 1., 20., 0., 2., 3., 0., 9., 1., 0., 6., 2.,
          1., 1., 2., 0., 0., 214., 0., 1., 4., 3., 5., 6., 1., 1., 4.,
          11., 5., 5., 1., 3., 30., 3., 4., 7., 5., 10., 8., 7., 8., 10.,
          12., 15., 7., 13., 13., 91., 77., 40., 37., 18., 19., 11., 8.,
          9., 4., 14., 8., 3., 5., 8., 5., 6., 3., 1., 3., 8., 8., 8.,
          5., 5., 6., 6., 3., 4., 3., 2., 1., 5., 1., 1., 3., 9., 5., 3.,
          4., 2., 5., 1., 3., 3., 5., 2., 3., 2., 4., 2., 6., 5., 7., 4.,
          1., 5., 1., 8., 6., 3., 5., 5., 2., 3., 3., 4., 4., 2., 3., 3.,
          5., 4., 3., 6., 1., 2., 2., 2., 1., 4., 8., 7., 7., 4., 7., 2.,
          6., 1., 9., 5., 7., 2., 4., 8., 4., 4., 5., 4., 5., 4., 2., 4.,
          6., 3., 6., 6., 4., 3., 7., 6., 5., 7., 7., 5., 3., 6., 6., 7.,
          9., 3., 9., 7., 9., 7., 7., 4., 6., 8., 7., 4., 14., 14., 5.,
          14., 9., 12., 13., 10., 4., 8., 12., 5., 12., 9., 17., 5., 8.,
          9., 9., 8., 6., 12., 9., 13., 8., 9., 10., 10., 6., 7., 5.,
          12., 10., 11., 15., 10., 11., 12., 10., 14., 13., 10., 12.,
          19., 25., 11., 14., 17., 28., 32., 22., 28., 25., 36., 33.,
          46., 53., 70., 79., 81., 100., 95., 112., 113., 132., 170.,
          184., 174., 164., 168., 162., 135., 139., 140., 128., 115.,
          88., 78., 62., 60., 49., 34., 28., 34., 23., 21., 14., 12., 4.,
          3., 5., 3., 2., 0., 0., 0., 0., 0., 0., 0., 0., 0., 0., 0., 0.,
          0., 0., 0., 0., 0., 0., 0., 0., 0., 0., 0., 0., 0., 0., 0. ]
      - [ 80., 108., 114., 121., 151., 148., 140., 164., 172., 214.,
          265., 246., 284., 404., 499., 475., 252., 62., 50., 26., 12.,
          3., 2., 1., 0., 161., 0., 0., 4., 7., 9., 17., 1., 19., 2.,
          22., 2., 6., 4., 0., 42., 0., 1., 9., 1., 9., 0., 0., 8., 2.,
          0., 3., 0., 0., 0., 73., 0., 0., 0., 0., 0., 6., 0., 3., 0.,
          19., 1., 3., 1., 0., 32., 1., 0., 8., 0., 13., 1., 0., 11., 8.,
          2., 4., 0., 0., 0., 190., 0., 0., 1., 2., 5., 4., 0., 6., 2.,
          10., 0., 1., 1., 0., 27., 0., 2., 1., 2., 7., 3., 1., 3., 2.,
          3., 2., 1., 1., 0., 61., 1., 4., 2., 1., 1., 1., 2., 2., 0.,
          12., 1., 2., 2., 1., 18., 0., 3., 4., 0., 9., 2., 2., 7., 2.,
          3., 1., 0., 2., 1., 234., 0., 2., 3., 3., 2., 4., 1., 9., 2.,
          13., 4., 2., 1., 2., 23., 7., 7., 7., 4., 15., 5., 6., 8., 6.,
          8., 24., 14., 22., 8., 117., 55., 43., 31., 14., 13., 9., 5.,
          8., 11., 5., 6., 9., 3., 5., 7., 7., 6., 3., 3., 4., 4., 5.,
          4., 8., 3., 7., 5., 1., 8., 6., 1., 3., 4., 5., 5., 2., 5., 8.,
          2., 2., 4., 4., 4., 7., 7., 6., 2., 6., 3., 5., 4., 1., 2., 6.,
          3., 4., 5., 1., 2., 6., 2., 1., 0., 6., 3., 2., 2., 6., 2., 2.,
          7., 3., 3., 2., 4., 5., 5., 3., 6., 3., 3., 4., 2., 6., 5., 8.,
          6., 2., 3., 4., 5., 6., 8., 7., 4., 4., 7., 4., 5., 3., 5., 3.,
          3., 3., 1., 5., 2., 3., 8., 7., 5., 6., 2., 4., 6., 6., 7., 4.,
          4., 6., 4., 9., 4., 7., 4., 5., 10., 12., 6., 9., 8., 8., 10.,
          11., 5., 7., 7., 10., 11., 5., 12., 6., 7., 9., 7., 8., 5.,
          13., 6., 10., 7., 14., 5., 6., 14., 10., 16., 11., 12., 15.,
          11., 6., 19., 13., 14., 20., 13., 9., 11., 16., 15., 13., 26.,
          18., 13., 18., 17., 25., 25., 26., 26., 22., 50., 42., 44.,
          39., 63., 51., 77., 75., 78., 89., 95., 107., 157., 115., 102.,
          138., 122., 146., 119., 128., 114., 119., 113., 113., 115.,
          81., 94., 76., 57., 52., 37., 42., 33., 22., 14., 12., 8., 8.,
          8., 6., 4., 1., 5., 0., 1., 2., 0., 0., 0., 0., 0., 0., 0., 0.,
          0., 0., 0., 0., 0., 0., 0., 0., 0., 0., 0., 0., 0., 0. ]
      - [ 78., 99., 126., 99., 88., 133., 184., 130., 112., 171., 279.,
          359., 466., 581., 612., 391., 145., 60., 38., 12., 8., 11., 2.,
          1., 0., 207., 0., 1., 10., 6., 8., 7., 0., 9., 0., 25., 1., 3.,
          4., 0., 28., 0., 3., 4., 2., 10., 1., 1., 9., 1., 2., 0., 0.,
          0., 0., 40., 0., 0., 0., 0., 1., 2., 1., 3., 0., 9., 1., 1.,
          0., 0., 31., 0., 0., 0., 0., 6., 0., 0., 11., 5., 1., 1., 1.,
          0., 0., 171., 0., 1., 1., 2., 3., 9., 0., 14., 0., 12., 1., 2.,
          2., 1., 22., 0., 0., 1., 0., 7., 0., 0., 5., 0., 0., 0., 1.,
          0., 0., 59., 0., 0., 1., 1., 3., 2., 1., 4., 1., 5., 0., 4.,
          0., 2., 28., 1., 2., 3., 1., 11., 0., 0., 2., 5., 4., 3., 1.,
          0., 0., 171., 0., 0., 1., 3., 0., 4., 1., 3., 2., 14., 7., 3.,
          4., 3., 26., 8., 4., 6., 4., 12., 8., 3., 12., 7., 13., 14.,
          7., 10., 25., 93., 71., 37., 36., 29., 17., 14., 8., 13., 8.,
          6., 13., 3., 5., 6., 5., 3., 6., 6., 2., 5., 4., 6., 4., 7.,
          4., 5., 4., 0., 4., 3., 1., 5., 5., 2., 4., 8., 2., 3., 4., 3.,
          2., 3., 4., 3., 3., 0., 6., 4., 4., 2., 3., 3., 5., 6., 5., 4.,
          5., 4., 7., 5., 2., 4., 3., 1., 1., 7., 4., 2., 3., 1., 7., 5.,
          4., 6., 2., 4., 3., 7., 3., 3., 4., 3., 4., 3., 4., 6., 7., 4.,
          1., 5., 5., 6., 7., 2., 2., 3., 3., 5., 5., 5., 9., 7., 10.,
          5., 5., 4., 4., 7., 6., 7., 7., 3., 5., 3., 2., 3., 4., 4., 9.,
          7., 9., 14., 5., 11., 5., 11., 4., 4., 5., 11., 5., 7., 10.,
          6., 11., 6., 5., 7., 9., 9., 13., 10., 13., 13., 11., 5., 11.,
          6., 7., 10., 13., 9., 6., 11., 12., 10., 11., 5., 10., 8., 8.,
          10., 16., 7., 12., 11., 11., 12., 10., 13., 13., 14., 10., 17.,
          23., 13., 24., 18., 23., 20., 31., 37., 45., 38., 47., 47.,
          51., 54., 71., 78., 83., 113., 103., 117., 136., 165., 168.,
          182., 154., 173., 165., 139., 134., 119., 125., 116., 97., 87.,
          78., 72., 49., 36., 30., 19., 20., 16., 13., 9., 7., 10., 4.,
          3., 2., 0., 0., 1., 0., 0., 0., 0., 0., 0., 0., 0., 0., 0., 0.,
          0., 0., 0., 0., 0., 0., 0., 0., 0., 0., 0., 0., 0. ]
      - [ 1., 7., 1., 3., 4., 9., 2., 12., 41., 100., 148., 111., 122.,
          145., 184., 310., 1022., 1448., 329., 117., 28., 8., 6., 1.,
          3., 237., 1., 3., 6., 6., 6., 15., 4., 24., 6., 30., 1., 7.,
          6., 0., 43., 0., 5., 7., 1., 13., 0., 0., 12., 7., 1., 1., 0.,
          0., 0., 66., 0., 0., 0., 1., 0., 0., 0., 7., 0., 11., 0., 5.,
          1., 0., 34., 0., 0., 4., 1., 14., 2., 0., 16., 1., 0., 4., 0.,
          0., 0., 207., 0., 0., 1., 0., 3., 7., 0., 18., 0., 13., 0., 1.,
          0., 0., 24., 0., 0., 0., 0., 6., 1., 0., 0., 1., 0., 0., 0.,
          0., 0., 33., 0., 0., 0., 0., 0., 1., 0., 7., 0., 5., 0., 1.,
          0., 0., 20., 0., 0., 1., 0., 8., 0., 0., 3., 1., 0., 1., 0.,
          0., 0., 71., 0., 0., 0., 0., 0., 0., 0., 1., 0., 4., 1., 0.,
          0., 0., 24., 0., 0., 2., 0., 3., 0., 0., 4., 1., 0., 0., 1.,
          0., 0., 124., 63., 38., 26., 21., 11., 18., 6., 9., 13., 4.,
          9., 0., 4., 2., 4., 4., 4., 1., 5., 7., 8., 6., 5., 4., 8., 2.,
          5., 3., 3., 3., 5., 5., 3., 2., 3., 2., 1., 3., 6., 4., 3., 3.,
          2., 1., 0., 3., 2., 2., 1., 1., 2., 3., 2., 2., 2., 2., 5., 0.,
          1., 1., 1., 2., 3., 0., 1., 2., 2., 1., 1., 0., 5., 2., 2., 1.,
          2., 1., 4., 0., 2., 2., 1., 1., 1., 4., 1., 0., 2., 2., 3., 1.,
          3., 3., 1., 1., 1., 9., 3., 2., 4., 3., 3., 3., 4., 9., 6., 8.,
          9., 6., 1., 7., 9., 9., 12., 5., 9., 12., 6., 9., 6., 11., 9.,
          8., 21., 13., 12., 11., 17., 12., 10., 15., 24., 15., 13., 15.,
          11., 14., 16., 17., 7., 12., 14., 10., 7., 11., 14., 20., 18.,
          10., 10., 21., 14., 11., 16., 19., 16., 12., 21., 16., 18.,
          17., 15., 28., 20., 31., 34., 33., 28., 29., 25., 20., 32.,
          47., 32., 49., 53., 41., 52., 44., 28., 44., 38., 38., 44.,
          49., 56., 32., 43., 35., 33., 42., 42., 41., 40., 36., 41.,
          34., 35., 61., 44., 46., 29., 46., 50., 49., 41., 40., 41.,
          34., 47., 31., 36., 42., 53., 29., 51., 51., 41., 54., 49.,
          57., 52., 53., 47., 50., 39., 48., 45., 33., 47., 48., 25.,
          25., 28., 19., 12., 16., 10., 9., 6., 4., 4., 1., 1., 3., 1.,
          1., 3., 0., 0., 1. ]
      - [ 0., 0., 0., 3., 0., 3., 0., 1., 2., 0., 13., 2., 5., 7., 9.,
          17., 47., 29., 60., 79., 59., 164., 118., 221., 583., 2374.,
          1219., 96., 12., 17., 15., 27., 1., 18., 2., 13., 1., 5., 1.,
          0., 11., 0., 0., 1., 0., 11., 0., 0., 0., 2., 1., 0., 0., 0.,
          0., 24., 0., 0., 0., 0., 1., 1., 0., 0., 0., 2., 0., 0., 0.,
          0., 10., 0., 0., 0., 0., 0., 0., 0., 2., 0., 0., 0., 0., 0.,
          0., 36., 0., 0., 0., 1., 0., 1., 0., 1., 0., 2., 0., 1., 0.,
          0., 11., 0., 0., 0., 0., 0., 0., 0., 0., 0., 0., 0., 0., 0.,
          0., 55., 0., 0., 0., 0., 0., 0., 0., 3., 0., 7., 0., 0., 0.,
          0., 33., 0., 0., 0., 0., 7., 0., 0., 2., 1., 0., 0., 0., 0.,
          0., 34., 0., 0., 0., 0., 0., 0., 0., 1., 0., 1., 0., 0., 0.,
          0., 12., 0., 0., 1., 0., 3., 0., 0., 0., 1., 0., 0., 0., 0.,
          0., 65., 34., 31., 22., 8., 20., 9., 17., 18., 9., 9., 12., 8.,
          11., 5., 4., 6., 3., 5., 9., 1., 5., 14., 2., 4., 4., 1., 6.,
          5., 4., 4., 2., 1., 3., 4., 1., 3., 3., 7., 2., 9., 2., 5., 2.,
          1., 2., 1., 5., 3., 4., 3., 3., 4., 7., 1., 4., 4., 6., 7., 4.,
          3., 2., 8., 6., 4., 4., 7., 5., 5., 7., 10., 16., 10., 12.,
          22., 11., 15., 18., 20., 20., 18., 21., 24., 19., 31., 30.,
          29., 42., 41., 37., 49., 58., 64., 72., 75., 79., 49., 35.,
          61., 57., 52., 51., 50., 54., 62., 57., 51., 44., 55., 61.,
          58., 35., 52., 45., 53., 60., 44., 48., 47., 42., 36., 32.,
          55., 47., 31., 26., 32., 36., 30., 32., 28., 28., 28., 23.,
          34., 21., 23., 29., 33., 28., 28., 31., 27., 32., 28., 17.,
          27., 20., 32., 28., 39., 25., 24., 31., 26., 21., 23., 26.,
          31., 23., 20., 22., 28., 44., 28., 44., 26., 33., 32., 32.,
          26., 44., 37., 26., 39., 17., 23., 25., 26., 24., 35., 27.,
          38., 27., 36., 30., 47., 17., 23., 17., 10., 23., 16., 11., 7.,
          16., 11., 8., 5., 9., 7., 8., 4., 6., 5., 2., 1., 1., 0., 2.,
          1., 0., 0., 1., 0., 0., 0., 0., 0., 0., 0., 0., 0., 0., 0., 0.,
          0., 0., 0., 0., 0., 0., 0., 0., 0., 0., 0., 0., 0., 0., 0., 0.,
          0., 0., 0., 0., 0., 0., 0., 0., 0. ]
      - [ 287., 264., 283., 352., 251., 204., 188., 139., 60., 12., 22.,
          4., 8., 7., 3., 18., 5., 3., 13., 7., 2., 2., 0., 1., 0., 58.,
          1., 1., 3., 1., 2., 6., 1., 7., 0., 17., 2., 5., 1., 0., 20.,
          0., 0., 1., 1., 13., 1., 1., 2., 3., 1., 2., 0., 0., 0., 49.,
          0., 1., 0., 1., 2., 6., 2., 17., 1., 11., 0., 8., 0., 1., 37.,
          0., 1., 2., 0., 18., 3., 0., 25., 2., 4., 2., 2., 0., 1., 167.,
          0., 0., 0., 1., 0., 7., 1., 8., 5., 15., 2., 2., 0., 1., 17.,
          0., 0., 0., 0., 4., 0., 0., 0., 0., 0., 0., 0., 0., 0., 35.,
          0., 0., 0., 0., 0., 0., 0., 1., 0., 4., 0., 1., 0., 0., 12.,
          0., 0., 1., 0., 8., 0., 0., 2., 0., 0., 0., 0., 0., 0., 86.,
          0., 0., 0., 0., 0., 2., 0., 2., 0., 10., 0., 1., 0., 0., 73.,
          0., 0., 5., 1., 13., 1., 0., 6., 4., 10., 13., 36., 57., 141.,
          59., 36., 23., 17., 12., 16., 11., 8., 13., 8., 12., 12., 9.,
          8., 8., 6., 12., 14., 10., 7., 5., 5., 6., 4., 9., 9., 2., 5.,
          3., 3., 2., 9., 1., 7., 5., 5., 2., 5., 7., 1., 2., 4., 2., 3.,
          5., 5., 5., 2., 3., 3., 6., 9., 12., 4., 5., 3., 3., 5., 7.,
          4., 6., 1., 10., 3., 4., 10., 8., 6., 7., 8., 11., 4., 9., 12.,
          14., 6., 17., 12., 20., 7., 12., 8., 11., 11., 15., 12., 5.,
          7., 9., 15., 9., 13., 11., 14., 12., 12., 11., 6., 10., 12.,
          12., 17., 19., 17., 10., 14., 10., 11., 8., 16., 9., 10., 13.,
          15., 10., 12., 9., 12., 16., 15., 20., 11., 16., 11., 16., 24.,
          14., 22., 19., 29., 18., 28., 30., 19., 23., 28., 19., 18.,
          29., 29., 22., 31., 27., 27., 29., 32., 24., 37., 21., 34.,
          26., 42., 38., 53., 30., 39., 28., 54., 43., 49., 34., 43.,
          21., 38., 49., 37., 31., 46., 54., 48., 43., 62., 65., 54.,
          43., 59., 56., 59., 49., 54., 59., 48., 55., 69., 39., 63.,
          65., 40., 62., 40., 58., 39., 47., 44., 52., 38., 42., 27.,
          38., 46., 43., 51., 38., 46., 32., 28., 30., 28., 39., 33.,
          34., 30., 21., 25., 29., 22., 16., 18., 13., 12., 5., 5., 13.,
          8., 14., 12., 5., 7., 1., 4., 3., 2., 5., 2., 0., 0., 5., 1.,
          0., 0., 1., 0., 0., 0., 0., 0., 0., 0., 0., 0., 0. ]
      - [ 0., 0., 0., 0., 0., 7., 1., 1., 1., 5., 15., 1., 13., 7., 5.,
          38., 13., 45., 57., 104., 88., 119., 127., 196., 360., 1109.,
          1669., 940., 168., 28., 15., 28., 3., 11., 2., 13., 1., 3., 0.,
          0., 19., 1., 1., 0., 0., 3., 0., 0., 0., 0., 0., 1., 0., 0.,
          0., 17., 0., 0., 0., 0., 0., 0., 0., 2., 0., 0., 0., 0., 0.,
          0., 6., 0., 0., 0., 0., 1., 0., 0., 2., 1., 0., 0., 0., 0., 0.,
          39., 0., 0., 0., 0., 0., 3., 0., 5., 0., 2., 2., 1., 1., 0.,
          20., 0., 0., 0., 0., 5., 0., 0., 0., 0., 0., 0., 0., 0., 0.,
          69., 0., 0., 0., 0., 0., 0., 0., 1., 0., 3., 0., 0., 0., 0.,
          36., 0., 0., 0., 0., 5., 0., 0., 1., 0., 0., 0., 0., 0., 0.,
          45., 0., 0., 0., 0., 0., 0., 0., 1., 0., 1., 0., 0., 0., 0.,
          18., 0., 0., 0., 0., 0., 0., 0., 0., 0., 0., 0., 1., 0., 0.,
          63., 34., 39., 18., 14., 13., 10., 11., 13., 7., 7., 5., 7.,
          10., 4., 12., 8., 7., 8., 8., 11., 3., 6., 9., 3., 3., 7., 8.,
          6., 2., 1., 4., 4., 4., 5., 8., 5., 2., 3., 4., 3., 1., 4., 3.,
          3., 3., 5., 2., 1., 4., 2., 3., 4., 5., 4., 7., 3., 1., 1., 0.,
          3., 4., 3., 2., 7., 11., 8., 13., 21., 15., 11., 15., 5., 20.,
          19., 11., 14., 18., 22., 17., 17., 18., 23., 15., 28., 18.,
          16., 25., 32., 28., 23., 20., 32., 22., 26., 22., 45., 45.,
          48., 32., 40., 35., 25., 40., 36., 53., 37., 30., 38., 38.,
          37., 46., 53., 48., 45., 57., 50., 47., 43., 60., 36., 40.,
          46., 39., 31., 37., 36., 49., 49., 32., 46., 60., 63., 59.,
          62., 69., 50., 38., 44., 40., 34., 36., 28., 27., 43., 29.,
          31., 32., 30., 31., 38., 36., 29., 44., 32., 39., 33., 38.,
          34., 36., 41., 38., 32., 44., 30., 40., 18., 43., 27., 35.,
          39., 30., 32., 29., 46., 33., 37., 30., 40., 31., 35., 25.,
          37., 46., 34., 43., 39., 16., 18., 13., 7., 14., 13., 10., 4.,
          13., 6., 5., 7., 7., 3., 3., 4., 1., 1., 1., 0., 1., 0., 0.,
          0., 0., 0., 0., 0., 0., 0., 0., 0., 0., 0., 0., 0., 0., 0., 0.,
          0., 0., 0., 0., 0., 0., 0., 0., 0., 0., 0., 0., 0., 0., 0., 0.,
          0., 0., 0., 0., 0., 0., 0., 0., 0. ]
      - [ 2., 1., 1., 6., 1., 9., 4., 28., 48., 54., 127., 89., 192.,
          217., 143., 267., 1395., 999., 321., 155., 25., 8., 5., 1., 0.,
          188., 0., 0., 4., 9., 7., 13., 6., 34., 3., 31., 1., 13., 2.,
          0., 61., 0., 1., 16., 1., 25., 2., 0., 9., 7., 1., 1., 0., 0.,
          0., 81., 0., 0., 0., 3., 2., 5., 0., 13., 0., 12., 0., 4., 2.,
          0., 31., 0., 3., 5., 0., 14., 1., 0., 14., 5., 2., 3., 1., 1.,
          0., 151., 0., 0., 3., 3., 3., 8., 0., 7., 1., 7., 1., 4., 0.,
          0., 46., 1., 0., 0., 1., 4., 0., 0., 1., 1., 0., 0., 0., 0.,
          0., 53., 0., 0., 0., 0., 0., 0., 0., 0., 0., 9., 0., 1., 0.,
          0., 31., 0., 0., 2., 0., 9., 0., 0., 5., 2., 0., 0., 0., 0.,
          0., 84., 0., 0., 0., 0., 0., 0., 0., 3., 0., 15., 0., 2., 0.,
          0., 34., 0., 1., 1., 0., 7., 0., 0., 2., 1., 0., 0., 0., 0.,
          0., 142., 90., 45., 24., 12., 17., 7., 10., 12., 1., 5., 10.,
          7., 2., 7., 3., 6., 3., 5., 2., 7., 10., 0., 2., 3., 2., 4.,
          0., 1., 4., 4., 7., 2., 4., 4., 4., 1., 3., 1., 3., 4., 3., 5.,
          4., 1., 1., 0., 2., 5., 0., 1., 1., 3., 3., 4., 2., 1., 4., 2.,
          1., 5., 2., 1., 5., 2., 1., 2., 5., 3., 3., 4., 3., 1., 4., 3.,
          2., 1., 0., 0., 0., 2., 3., 1., 3., 2., 2., 1., 1., 3., 2., 4.,
          3., 2., 2., 8., 1., 2., 4., 3., 3., 5., 5., 13., 12., 11., 8.,
          14., 8., 3., 7., 11., 9., 15., 9., 8., 6., 14., 8., 6., 7.,
          10., 14., 8., 11., 12., 13., 16., 16., 19., 7., 11., 12., 9.,
          13., 15., 16., 18., 15., 15., 10., 24., 10., 21., 12., 15.,
          15., 11., 12., 14., 17., 10., 6., 16., 9., 15., 14., 23., 19.,
          18., 16., 23., 12., 26., 20., 27., 19., 19., 28., 29., 19.,
          28., 33., 23., 37., 47., 37., 36., 50., 37., 32., 39., 49.,
          31., 40., 38., 53., 27., 49., 53., 28., 42., 33., 46., 32.,
          35., 19., 45., 32., 29., 39., 42., 39., 30., 38., 41., 31.,
          35., 37., 44., 35., 28., 51., 46., 41., 52., 43., 53., 44.,
          69., 57., 58., 59., 65., 47., 55., 38., 54., 42., 48., 42.,
          24., 31., 32., 15., 26., 14., 16., 8., 18., 13., 9., 8., 6.,
          2., 6., 1., 4., 0., 1., 0., 0. ]
      - [ 642., 764., 450., 265., 74., 32., 17., 11., 10., 5., 37., 6.,
          2., 6., 3., 26., 4., 0., 7., 3., 5., 1., 0., 0., 0., 97., 0.,
          0., 2., 2., 2., 2., 1., 7., 0., 10., 0., 2., 0., 0., 24., 0.,
          0., 2., 0., 16., 0., 0., 1., 4., 1., 0., 0., 0., 0., 53., 0.,
          0., 0., 0., 0., 0., 1., 20., 2., 8., 1., 6., 3., 0., 38., 0.,
          3., 4., 1., 33., 4., 0., 30., 12., 4., 8., 0., 0., 0., 206.,
          0., 0., 1., 0., 3., 1., 0., 9., 1., 12., 0., 2., 0., 0., 21.,
          0., 0., 0., 0., 8., 0., 0., 1., 0., 0., 0., 0., 0., 0., 41.,
          0., 0., 0., 0., 0., 0., 0., 0., 0., 2., 0., 0., 0., 0., 25.,
          0., 0., 0., 0., 10., 0., 0., 1., 1., 0., 0., 0., 0., 0., 100.,
          0., 0., 0., 1., 2., 2., 1., 4., 0., 10., 2., 2., 0., 0., 49.,
          0., 1., 0., 0., 8., 0., 1., 2., 1., 0., 4., 5., 30., 73., 77.,
          39., 32., 31., 22., 9., 9., 14., 6., 6., 3., 10., 7., 10., 5.,
          7., 3., 5., 5., 6., 5., 4., 7., 7., 8., 6., 2., 7., 5., 3., 4.,
          2., 5., 7., 1., 4., 4., 1., 2., 1., 3., 4., 5., 3., 0., 4., 2.,
          4., 3., 7., 4., 5., 3., 7., 8., 7., 7., 9., 10., 5., 5., 10.,
          3., 4., 3., 4., 4., 7., 8., 6., 5., 6., 4., 2., 4., 5., 7., 5.,
          4., 7., 5., 6., 3., 4., 3., 8., 3., 4., 5., 9., 3., 11., 2.,
          11., 1., 6., 3., 5., 10., 4., 7., 7., 6., 9., 5., 7., 5., 12.,
          10., 4., 4., 9., 5., 9., 6., 9., 8., 9., 6., 6., 11., 7., 7.,
          8., 9., 4., 1., 12., 8., 8., 14., 12., 12., 7., 8., 5., 13.,
          7., 10., 7., 11., 11., 6., 13., 11., 15., 16., 16., 14., 14.,
          14., 17., 19., 18., 15., 17., 32., 27., 24., 28., 24., 34.,
          35., 37., 48., 28., 56., 39., 50., 44., 50., 46., 62., 51.,
          58., 70., 59., 71., 71., 71., 75., 73., 55., 67., 78., 57.,
          75., 63., 55., 80., 55., 57., 68., 72., 67., 62., 78., 61.,
          57., 71., 56., 64., 69., 53., 59., 52., 47., 44., 53., 54.,
          74., 43., 48., 32., 38., 36., 25., 25., 13., 22., 12., 14., 9.,
          9., 7., 17., 4., 13., 1., 6., 2., 2., 0., 2., 1., 2., 0., 0.,
          0., 0., 0., 0., 0., 0., 0., 0., 0., 0., 0., 0., 0. ]
      - [ 1., 1., 1., 3., 1., 6., 0., 1., 3., 3., 20., 3., 11., 14., 16.,
          37., 37., 30., 58., 79., 65., 128., 80., 110., 407., 2266.,
          1144., 499., 117., 12., 19., 52., 0., 18., 0., 23., 0., 6., 1.,
          0., 15., 0., 0., 2., 1., 5., 0., 0., 0., 0., 0., 0., 0., 0.,
          0., 23., 0., 0., 0., 0., 0., 0., 0., 2., 0., 0., 0., 0., 0.,
          0., 8., 0., 0., 1., 1., 2., 0., 0., 1., 0., 2., 0., 1., 0., 0.,
          46., 0., 0., 0., 0., 0., 0., 0., 1., 1., 2., 0., 2., 0., 0.,
          8., 0., 0., 0., 0., 1., 0., 0., 0., 0., 0., 0., 0., 0., 0.,
          50., 0., 0., 0., 0., 0., 0., 0., 1., 0., 3., 0., 0., 0., 0.,
          33., 0., 0., 2., 0., 8., 0., 0., 1., 0., 0., 0., 0., 0., 0.,
          60., 0., 0., 0., 0., 0., 0., 0., 0., 0., 1., 0., 0., 0., 0.,
          16., 0., 0., 0., 0., 1., 0., 0., 0., 0., 0., 0., 0., 0., 0.,
          95., 41., 30., 20., 20., 12., 12., 12., 9., 9., 12., 8., 4.,
          5., 12., 16., 8., 6., 8., 2., 6., 7., 1., 7., 5., 6., 5., 5.,
          3., 4., 0., 10., 4., 2., 2., 4., 2., 5., 4., 7., 3., 3., 2.,
          3., 3., 3., 4., 3., 4., 1., 4., 2., 5., 5., 5., 3., 3., 6., 6.,
          2., 11., 5., 5., 3., 5., 5., 10., 5., 9., 10., 10., 11., 14.,
          12., 13., 14., 10., 10., 15., 6., 26., 15., 6., 30., 23., 17.,
          21., 36., 29., 30., 34., 36., 49., 39., 35., 48., 54., 43.,
          53., 66., 53., 52., 42., 54., 46., 43., 60., 48., 45., 52.,
          47., 54., 61., 51., 50., 53., 70., 70., 75., 114., 65., 52.,
          79., 78., 46., 41., 54., 57., 61., 54., 47., 34., 43., 36.,
          27., 27., 28., 30., 32., 21., 31., 23., 25., 34., 38., 32.,
          38., 30., 37., 37., 44., 30., 35., 21., 36., 33., 18., 26.,
          24., 20., 18., 21., 34., 23., 25., 34., 20., 22., 24., 24.,
          24., 21., 19., 22., 26., 36., 23., 26., 28., 33., 24., 25.,
          19., 30., 23., 26., 35., 19., 21., 15., 6., 14., 12., 13., 9.,
          13., 11., 3., 7., 4., 4., 0., 1., 3., 1., 1., 2., 1., 0., 1.,
          2., 0., 0., 0., 0., 1., 0., 0., 0., 0., 0., 0., 0., 0., 0., 0.,
          0., 0., 0., 0., 0., 0., 0., 0., 0., 0., 0., 0., 0., 0., 0., 0.,
          0., 0., 0., 0., 0., 0., 0., 0., 0. ]
      - [ 463., 466., 456., 463., 371., 415., 426., 292., 184., 66., 33.,
          3., 5., 9., 3., 22., 3., 3., 9., 3., 5., 1., 1., 0., 1., 140.,
          0., 0., 0., 1., 0., 7., 0., 7., 0., 10., 1., 7., 0., 0., 23.,
          0., 0., 1., 0., 9., 0., 0., 5., 4., 0., 0., 0., 0., 0., 58.,
          0., 0., 0., 1., 2., 3., 0., 18., 0., 14., 0., 3., 1., 0., 30.,
          0., 1., 4., 0., 15., 0., 0., 15., 8., 3., 2., 0., 0., 0., 159.,
          0., 0., 1., 1., 3., 5., 0., 11., 0., 10., 0., 0., 0., 0., 31.,
          0., 0., 1., 0., 11., 0., 0., 0., 0., 0., 0., 0., 0., 0., 49.,
          0., 0., 0., 0., 0., 0., 0., 1., 0., 4., 0., 0., 0., 0., 15.,
          0., 0., 1., 0., 14., 0., 0., 3., 0., 1., 0., 0., 0., 0., 81.,
          0., 0., 0., 1., 0., 0., 0., 5., 1., 4., 0., 0., 0., 0., 41.,
          0., 2., 1., 1., 17., 0., 0., 3., 2., 1., 2., 4., 14., 23., 89.,
          44., 31., 15., 13., 11., 14., 10., 9., 7., 6., 11., 6., 5., 3.,
          8., 13., 3., 5., 7., 7., 6., 3., 7., 7., 5., 6., 3., 3., 5.,
          7., 3., 2., 5., 8., 1., 5., 1., 2., 3., 3., 3., 3., 3., 1., 2.,
          1., 4., 4., 6., 2., 4., 5., 6., 4., 2., 2., 3., 3., 3., 5., 4.,
          2., 5., 4., 4., 5., 1., 4., 5., 2., 5., 5., 4., 6., 8., 3., 9.,
          9., 8., 15., 10., 17., 10., 14., 15., 17., 8., 6., 8., 8., 11.,
          17., 15., 21., 10., 14., 5., 9., 15., 7., 5., 11., 20., 14.,
          14., 9., 9., 9., 15., 12., 15., 8., 10., 12., 9., 12., 12.,
          16., 12., 13., 12., 18., 16., 12., 9., 19., 15., 21., 18., 16.,
          13., 20., 20., 15., 26., 19., 31., 20., 31., 18., 26., 26.,
          31., 35., 27., 29., 35., 37., 33., 34., 45., 27., 30., 32.,
          40., 41., 50., 44., 46., 48., 48., 52., 57., 56., 56., 75.,
          57., 64., 69., 60., 48., 75., 61., 79., 81., 78., 65., 97.,
          74., 72., 70., 90., 85., 63., 85., 67., 63., 65., 72., 65.,
          59., 59., 46., 56., 37., 28., 33., 36., 31., 23., 17., 24.,
          20., 11., 17., 13., 12., 8., 8., 11., 4., 4., 4., 3., 2., 1.,
          0., 0., 0., 0., 0., 0., 1., 0., 0., 0., 0., 0., 0., 0., 0., 0.,
          0., 0., 0., 0., 0., 0., 0., 0., 0., 0., 0., 0., 0., 0., 0., 0.,
          0., 0. ]
      - [ 1., 2., 1., 6., 1., 15., 0., 5., 26., 54., 126., 113., 140.,
          147., 146., 306., 620., 1755., 422., 119., 48., 6., 6., 3., 0.,
          205., 2., 1., 6., 16., 8., 13., 0., 20., 6., 38., 3., 10., 0.,
          0., 50., 0., 0., 4., 2., 25., 4., 1., 6., 7., 2., 0., 0., 0.,
          0., 82., 0., 0., 0., 2., 0., 2., 0., 12., 1., 11., 1., 6., 0.,
          0., 37., 0., 1., 3., 0., 30., 0., 0., 21., 11., 1., 3., 1., 0.,
          0., 180., 0., 0., 1., 3., 5., 8., 0., 9., 1., 16., 0., 2., 0.,
          0., 21., 0., 0., 0., 0., 1., 0., 0., 1., 0., 0., 0., 0., 0.,
          0., 32., 0., 0., 0., 0., 0., 0., 0., 3., 0., 4., 0., 1., 0.,
          0., 23., 0., 0., 1., 0., 13., 0., 0., 4., 0., 0., 0., 0., 0.,
          0., 110., 0., 0., 0., 0., 0., 1., 0., 5., 0., 7., 0., 0., 0.,
          0., 35., 0., 0., 0., 0., 4., 0., 0., 0., 0., 0., 0., 0., 0.,
          0., 116., 78., 40., 28., 8., 18., 17., 12., 6., 6., 5., 3., 3.,
          9., 4., 3., 6., 3., 5., 3., 3., 4., 3., 4., 1., 4., 5., 2., 5.,
          2., 6., 2., 2., 3., 3., 2., 4., 5., 3., 4., 0., 6., 2., 4., 3.,
          1., 4., 3., 4., 1., 2., 1., 4., 6., 0., 4., 2., 4., 1., 2., 2.,
          3., 2., 2., 1., 4., 2., 1., 1., 3., 0., 1., 1., 0., 1., 4., 1.,
          2., 6., 2., 3., 2., 1., 4., 0., 2., 1., 1., 2., 3., 5., 1., 3.,
          2., 6., 5., 5., 11., 7., 7., 4., 3., 5., 4., 6., 5., 4., 6.,
          4., 2., 9., 10., 7., 2., 5., 10., 6., 5., 3., 11., 5., 8., 2.,
          13., 11., 9., 7., 8., 7., 5., 9., 4., 9., 9., 16., 13., 9.,
          10., 14., 12., 13., 10., 10., 6., 10., 10., 11., 15., 14., 14.,
          12., 18., 17., 20., 20., 21., 17., 25., 23., 20., 37., 18.,
          21., 23., 32., 25., 26., 29., 29., 32., 30., 31., 58., 45.,
          33., 51., 42., 44., 39., 40., 40., 45., 38., 45., 39., 49.,
          41., 48., 45., 44., 50., 46., 47., 52., 45., 48., 33., 57.,
          56., 42., 43., 42., 44., 34., 43., 41., 45., 42., 42., 34.,
          29., 43., 36., 45., 49., 53., 42., 30., 52., 39., 49., 41.,
          51., 48., 40., 43., 28., 41., 36., 29., 33., 35., 31., 31.,
          13., 13., 12., 6., 10., 4., 3., 2., 1., 1., 0., 0., 0., 0., 0.,
          0., 0. ]
      - [ 472., 426., 348., 368., 308., 244., 100., 43., 17., 6., 40.,
          6., 4., 14., 5., 19., 4., 3., 12., 4., 4., 2., 1., 0., 0.,
          112., 1., 0., 1., 3., 5., 10., 0., 14., 0., 11., 0., 7., 0.,
          1., 39., 0., 0., 2., 1., 11., 1., 0., 8., 5., 1., 0., 0., 0.,
          0., 80., 0., 0., 0., 0., 0., 1., 1., 7., 0., 21., 1., 7., 2.,
          0., 42., 0., 3., 7., 3., 26., 2., 2., 28., 12., 3., 4., 3., 0.,
          0., 146., 0., 0., 0., 1., 5., 1., 0., 3., 0., 8., 0., 5., 1.,
          2., 24., 0., 0., 0., 0., 4., 0., 0., 4., 3., 0., 0., 0., 0.,
          0., 62., 0., 0., 0., 0., 0., 0., 0., 0., 0., 2., 0., 0., 0.,
          0., 25., 0., 0., 1., 0., 7., 0., 0., 0., 0., 0., 0., 0., 0.,
          0., 130., 0., 0., 0., 0., 0., 2., 0., 6., 0., 5., 0., 2., 0.,
          0., 48., 0., 0., 3., 1., 6., 3., 1., 10., 5., 10., 30., 41.,
          50., 87., 99., 35., 25., 22., 17., 17., 5., 13., 10., 6., 12.,
          7., 10., 11., 2., 8., 5., 7., 9., 7., 6., 7., 7., 7., 7., 1.,
          5., 5., 4., 6., 1., 4., 6., 7., 5., 3., 6., 5., 8., 5., 5., 3.,
          5., 4., 4., 4., 6., 2., 8., 5., 6., 3., 4., 3., 6., 6., 5., 5.,
          8., 3., 3., 3., 4., 2., 3., 5., 4., 6., 6., 10., 4., 4., 13.,
          3., 6., 6., 8., 4., 8., 3., 9., 6., 8., 3., 6., 6., 6., 8., 9.,
          8., 9., 9., 3., 10., 8., 9., 10., 7., 8., 10., 3., 4., 4., 3.,
          11., 4., 8., 6., 7., 4., 7., 13., 8., 6., 6., 9., 12., 12.,
          11., 7., 14., 14., 11., 10., 3., 18., 5., 15., 9., 12., 12.,
          17., 19., 4., 15., 16., 19., 10., 18., 17., 13., 14., 13., 18.,
          20., 20., 26., 16., 14., 22., 27., 25., 18., 29., 30., 33.,
          26., 21., 29., 35., 34., 42., 41., 38., 49., 54., 75., 57.,
          63., 65., 50., 55., 68., 60., 55., 70., 67., 57., 70., 76.,
          76., 60., 75., 96., 81., 97., 81., 84., 76., 79., 83., 79.,
          82., 50., 74., 75., 62., 68., 56., 65., 49., 46., 41., 49.,
          41., 40., 29., 29., 36., 27., 33., 30., 23., 20., 15., 19.,
          10., 16., 11., 6., 9., 7., 5., 3., 5., 3., 3., 2., 3., 0., 2.,
          1., 0., 0., 1., 0., 0., 0., 0., 0., 0., 0., 0., 0., 0., 0., 0.,
          0., 0., 0., 0. ]
      - [ 0., 5., 1., 4., 4., 19., 5., 6., 14., 27., 94., 111., 113.,
          182., 127., 245., 732., 2082., 354., 40., 14., 8., 5., 2., 3.,
          292., 1., 1., 9., 9., 13., 10., 1., 23., 7., 25., 3., 19., 2.,
          1., 59., 1., 2., 11., 2., 21., 1., 0., 4., 5., 4., 2., 1., 0.,
          0., 61., 0., 0., 1., 2., 0., 2., 0., 10., 0., 12., 0., 6., 2.,
          0., 30., 0., 1., 2., 0., 15., 0., 0., 17., 3., 0., 2., 0., 0.,
          0., 162., 0., 0., 1., 3., 2., 2., 0., 9., 0., 12., 0., 1., 0.,
          0., 23., 0., 1., 1., 0., 12., 0., 0., 0., 1., 0., 0., 0., 0.,
          0., 59., 0., 0., 0., 0., 0., 0., 0., 0., 0., 6., 0., 0., 0.,
          0., 30., 0., 1., 0., 0., 8., 0., 0., 6., 4., 1., 0., 0., 0.,
          0., 102., 0., 0., 0., 1., 0., 2., 0., 5., 0., 9., 0., 1., 2.,
          0., 40., 0., 0., 0., 0., 3., 0., 0., 3., 1., 1., 1., 0., 0.,
          0., 125., 64., 42., 26., 23., 15., 9., 8., 12., 5., 10., 4.,
          7., 8., 7., 4., 5., 1., 4., 6., 5., 8., 4., 1., 3., 5., 6., 4.,
          4., 1., 1., 3., 4., 0., 3., 5., 2., 3., 3., 4., 1., 0., 0., 6.,
          3., 7., 2., 3., 1., 4., 1., 2., 2., 2., 4., 1., 2., 3., 2., 1.,
          0., 2., 1., 0., 3., 1., 4., 3., 0., 3., 4., 2., 1., 3., 3., 2.,
          1., 2., 4., 1., 1., 5., 1., 1., 1., 4., 2., 4., 4., 2., 2., 3.,
          3., 1., 2., 3., 2., 1., 2., 4., 4., 2., 2., 1., 6., 2., 5., 5.,
          3., 3., 2., 4., 3., 5., 13., 7., 4., 5., 8., 10., 9., 10., 7.,
          7., 11., 4., 7., 10., 3., 8., 10., 3., 6., 8., 5., 4., 4., 10.,
          6., 5., 7., 2., 10., 10., 5., 7., 8., 14., 9., 14., 10., 9.,
          12., 11., 12., 12., 16., 15., 19., 16., 15., 27., 12., 20.,
          21., 38., 34., 38., 28., 28., 30., 36., 36., 37., 56., 56.,
          57., 77., 50., 46., 58., 31., 35., 39., 35., 35., 26., 37.,
          46., 27., 35., 41., 41., 40., 49., 60., 61., 68., 59., 68.,
          54., 50., 58., 37., 41., 32., 47., 30., 40., 40., 44., 51.,
          58., 50., 47., 44., 55., 49., 50., 36., 61., 50., 63., 53.,
          62., 43., 36., 39., 49., 50., 36., 37., 28., 44., 20., 24.,
          15., 17., 14., 9., 6., 3., 4., 1., 2., 2., 0., 2., 0., 0., 0. ]
      - [ 0., 2., 0., 1., 1., 1., 0., 0., 0., 0., 20., 1., 0., 3., 9.,
          36., 9., 17., 50., 83., 190., 585., 2180., 1288., 459., 422.,
          12., 6., 9., 9., 13., 19., 1., 27., 1., 12., 2., 14., 0., 0.,
          38., 0., 0., 1., 0., 16., 0., 0., 3., 1., 1., 0., 0., 0., 0.,
          54., 0., 0., 0., 0., 0., 0., 0., 2., 0., 1., 0., 0., 0., 0.,
          13., 0., 0., 0., 0., 6., 0., 0., 1., 1., 0., 0., 0., 0., 0.,
          84., 0., 0., 0., 0., 0., 2., 0., 0., 0., 4., 0., 0., 0., 0.,
          19., 0., 0., 0., 0., 2., 0., 0., 1., 0., 1., 0., 0., 0., 0.,
          58., 0., 0., 0., 0., 0., 0., 0., 1., 0., 2., 0., 0., 0., 0.,
          40., 0., 0., 1., 0., 9., 0., 0., 4., 0., 0., 0., 0., 0., 0.,
          54., 0., 0., 0., 0., 0., 1., 0., 0., 0., 3., 0., 0., 0., 0.,
          21., 0., 0., 0., 0., 2., 0., 0., 0., 0., 0., 0., 0., 0., 0.,
          66., 48., 16., 19., 23., 14., 5., 11., 7., 5., 5., 7., 9., 6.,
          2., 6., 7., 4., 7., 2., 3., 4., 7., 6., 5., 5., 5., 4., 3., 2.,
          3., 5., 6., 2., 2., 5., 2., 4., 5., 3., 3., 2., 4., 4., 4., 6.,
          1., 6., 6., 3., 7., 7., 3., 2., 3., 3., 4., 4., 2., 8., 5., 2.,
          3., 3., 0., 4., 7., 6., 8., 7., 6., 13., 17., 14., 17., 25.,
          20., 21., 20., 17., 16., 16., 20., 11., 28., 13., 22., 23.,
          21., 18., 29., 16., 17., 22., 29., 37., 25., 49., 33., 48.,
          47., 58., 64., 72., 83., 88., 79., 87., 99., 84., 97., 92.,
          100., 97., 78., 127., 104., 104., 101., 84., 76., 92., 67.,
          92., 76., 54., 65., 54., 55., 55., 47., 48., 48., 35., 42.,
          43., 45., 45., 45., 48., 34., 37., 42., 38., 42., 39., 32.,
          20., 31., 30., 30., 40., 33., 40., 34., 34., 29., 31., 32.,
          36., 31., 26., 22., 23., 40., 23., 33., 18., 25., 18., 23.,
          16., 19., 14., 15., 9., 14., 13., 4., 11., 7., 4., 9., 3., 2.,
          3., 8., 1., 2., 1., 1., 1., 3., 0., 2., 0., 0., 1., 1., 0., 0.,
          0., 0., 0., 0., 0., 0., 0., 0., 0., 0., 0., 1., 0., 1., 0., 0.,
          0., 0., 0., 0., 0., 0., 0., 0., 0., 0., 0., 0., 0., 0., 0., 0.,
          0., 0., 0., 0., 0., 0., 0., 0., 0., 0., 0., 0., 0., 0., 0., 0.,
          0., 0. ]
      - [ 0., 0., 0., 0., 0., 2., 2., 3., 2., 1., 16., 4., 8., 8., 10.,
          35., 21., 37., 72., 94., 90., 161., 133., 191., 380., 1074.,
          1346., 1154., 188., 31., 16., 28., 4., 8., 5., 9., 0., 8., 1.,
          0., 27., 0., 1., 1., 0., 2., 0., 0., 0., 0., 1., 1., 0., 0.,
          0., 16., 0., 0., 0., 0., 1., 0., 0., 0., 0., 1., 0., 0., 0.,
          0., 5., 0., 0., 0., 0., 6., 0., 0., 4., 1., 0., 1., 0., 0., 0.,
          42., 0., 0., 0., 0., 0., 0., 0., 2., 1., 3., 0., 1., 1., 0.,
          10., 0., 0., 0., 0., 0., 0., 0., 0., 0., 0., 0., 0., 0., 0.,
          53., 0., 0., 0., 0., 0., 2., 0., 2., 0., 7., 0., 0., 0., 0.,
          29., 0., 0., 0., 0., 5., 0., 0., 1., 0., 0., 0., 0., 0., 0.,
          44., 0., 0., 0., 0., 0., 0., 0., 1., 0., 3., 0., 0., 0., 0.,
          22., 0., 0., 0., 0., 5., 0., 0., 0., 0., 0., 0., 0., 0., 0.,
          75., 42., 30., 21., 18., 16., 7., 12., 4., 8., 11., 13., 6.,
          12., 10., 3., 5., 9., 13., 9., 2., 2., 10., 6., 3., 7., 5., 4.,
          6., 3., 5., 3., 4., 2., 6., 6., 6., 5., 2., 7., 3., 2., 4., 4.,
          4., 1., 1., 1., 3., 2., 6., 0., 2., 3., 1., 7., 6., 7., 3., 2.,
          3., 2., 5., 8., 11., 4., 13., 10., 14., 16., 9., 23., 17., 14.,
          13., 7., 9., 10., 14., 11., 26., 9., 22., 11., 29., 33., 26.,
          32., 19., 37., 29., 17., 29., 39., 30., 19., 25., 32., 33.,
          29., 39., 40., 42., 43., 32., 35., 30., 35., 37., 32., 32.,
          26., 45., 30., 56., 68., 53., 55., 61., 42., 33., 35., 39.,
          55., 41., 41., 36., 50., 33., 36., 44., 37., 32., 37., 31.,
          46., 38., 52., 48., 64., 74., 55., 59., 47., 37., 34., 33.,
          31., 34., 24., 35., 35., 25., 37., 38., 41., 30., 57., 32.,
          31., 42., 37., 41., 36., 34., 51., 36., 39., 28., 45., 26.,
          24., 34., 35., 30., 29., 44., 19., 46., 38., 40., 27., 31.,
          35., 30., 32., 33., 13., 20., 23., 23., 24., 18., 13., 6., 12.,
          4., 9., 3., 2., 2., 1., 0., 2., 0., 1., 0., 0., 0., 0., 0., 0.,
          0., 0., 0., 1., 0., 0., 0., 0., 0., 0., 0., 0., 0., 0., 0., 0.,
          0., 0., 0., 0., 0., 0., 0., 0., 0., 0., 0., 0., 0., 0., 0., 0.,
          0., 0., 0., 0., 0., 0., 0. ]
      - [ 0., 0., 0., 6., 0., 4., 1., 1., 2., 0., 21., 1., 2., 4., 5.,
          12., 11., 10., 31., 111., 271., 643., 1862., 1837., 187., 327.,
          4., 9., 7., 17., 14., 27., 0., 15., 1., 25., 1., 10., 5., 0.,
          34., 0., 2., 3., 2., 24., 0., 0., 3., 0., 0., 0., 0., 0., 0.,
          42., 0., 0., 0., 0., 0., 0., 0., 0., 0., 3., 0., 0., 0., 0.,
          14., 0., 0., 0., 0., 3., 0., 0., 1., 0., 1., 1., 0., 0., 0.,
          71., 0., 0., 0., 0., 0., 2., 0., 4., 0., 6., 0., 0., 1., 0.,
          19., 0., 0., 0., 0., 4., 0., 0., 1., 2., 0., 0., 0., 0., 0.,
          57., 0., 0., 0., 0., 0., 0., 0., 3., 0., 11., 0., 0., 0., 0.,
          20., 0., 0., 1., 0., 6., 0., 0., 1., 0., 0., 0., 0., 0., 0.,
          66., 0., 0., 0., 0., 0., 0., 0., 2., 0., 1., 0., 0., 0., 0.,
          17., 0., 0., 0., 0., 3., 0., 0., 0., 0., 0., 0., 0., 0., 0.,
          70., 40., 35., 16., 18., 19., 11., 8., 7., 13., 7., 9., 8., 6.,
          9., 4., 5., 5., 3., 4., 5., 7., 5., 2., 1., 6., 5., 4., 5., 3.,
          3., 2., 3., 4., 4., 5., 5., 4., 4., 1., 4., 5., 1., 6., 4., 5.,
          5., 5., 4., 4., 2., 3., 4., 6., 3., 2., 4., 3., 5., 3., 4., 7.,
          5., 3., 3., 6., 6., 2., 4., 4., 8., 10., 10., 13., 12., 12.,
          21., 19., 11., 20., 22., 26., 18., 25., 22., 21., 28., 35.,
          27., 32., 28., 23., 25., 33., 37., 27., 20., 45., 31., 41.,
          43., 69., 76., 64., 65., 54., 50., 64., 61., 68., 60., 65.,
          68., 83., 94., 82., 84., 88., 92., 78., 74., 81., 58., 79.,
          89., 54., 85., 61., 47., 57., 49., 52., 34., 48., 40., 34.,
          40., 31., 29., 53., 30., 45., 48., 40., 47., 56., 38., 40.,
          25., 47., 22., 33., 25., 25., 31., 27., 29., 37., 37., 32.,
          44., 38., 38., 31., 37., 17., 27., 26., 30., 25., 19., 29.,
          36., 16., 29., 35., 28., 23., 23., 25., 15., 17., 24., 17.,
          24., 13., 19., 18., 22., 10., 11., 10., 5., 6., 6., 3., 2., 3.,
          1., 0., 0., 0., 0., 0., 0., 0., 0., 0., 0., 0., 0., 0., 0., 0.,
          0., 0., 0., 0., 0., 0., 0., 0., 0., 0., 0., 0., 0., 0., 0., 0.,
          0., 0., 0., 0., 0., 0., 0., 0., 0., 0., 0., 0., 0., 0., 0., 0.,
          0., 0., 0., 0., 0. ]
      - [ 637., 780., 438., 241., 60., 30., 12., 22., 9., 7., 35., 2.,
          1., 6., 3., 28., 3., 0., 10., 6., 1., 2., 1., 0., 0., 87., 0.,
          0., 1., 2., 1., 1., 0., 4., 0., 9., 1., 5., 2., 0., 28., 0.,
          1., 2., 0., 21., 0., 0., 4., 2., 0., 1., 0., 0., 0., 64., 0.,
          0., 0., 0., 1., 1., 1., 6., 1., 11., 0., 5., 2., 0., 46., 0.,
          1., 9., 0., 32., 4., 0., 29., 8., 4., 2., 1., 0., 0., 215., 0.,
          0., 0., 2., 1., 4., 1., 3., 0., 12., 0., 2., 0., 0., 33., 0.,
          0., 0., 0., 5., 0., 0., 0., 0., 0., 0., 0., 0., 0., 38., 0.,
          0., 0., 0., 0., 0., 0., 1., 0., 0., 0., 0., 0., 0., 19., 0.,
          0., 0., 0., 9., 0., 0., 4., 0., 0., 0., 0., 0., 0., 103., 0.,
          0., 0., 0., 0., 1., 0., 2., 0., 5., 0., 5., 1., 0., 53., 0.,
          1., 1., 0., 11., 0., 0., 3., 1., 2., 3., 1., 44., 92., 72.,
          33., 37., 26., 17., 12., 6., 13., 4., 7., 5., 6., 7., 5., 13.,
          12., 5., 4., 5., 3., 6., 7., 2., 3., 6., 7., 6., 2., 4., 4.,
          2., 6., 1., 3., 3., 2., 2., 4., 4., 5., 4., 5., 2., 4., 3., 5.,
          3., 3., 7., 3., 0., 3., 5., 4., 9., 11., 11., 8., 6., 7., 4.,
          3., 3., 5., 6., 7., 7., 3., 4., 10., 5., 5., 6., 4., 4., 5.,
          4., 5., 4., 1., 5., 7., 5., 6., 7., 4., 4., 9., 7., 7., 3., 7.,
          5., 7., 4., 6., 2., 8., 7., 8., 9., 6., 10., 8., 9., 1., 8.,
          8., 9., 5., 7., 4., 6., 9., 7., 8., 3., 9., 6., 11., 6., 9.,
          12., 3., 6., 6., 10., 7., 10., 12., 5., 12., 12., 13., 12.,
          13., 10., 13., 7., 11., 9., 11., 12., 10., 17., 18., 16., 18.,
          11., 11., 13., 15., 10., 20., 18., 19., 24., 22., 37., 30.,
          30., 35., 28., 46., 44., 36., 49., 35., 45., 58., 37., 53.,
          45., 49., 71., 65., 61., 68., 62., 63., 91., 65., 75., 89.,
          78., 72., 68., 70., 50., 56., 70., 60., 58., 66., 71., 55.,
          62., 60., 70., 66., 47., 51., 41., 61., 59., 57., 60., 40.,
          56., 52., 45., 38., 60., 33., 34., 42., 28., 22., 29., 19.,
          12., 7., 10., 7., 9., 7., 12., 11., 8., 3., 4., 7., 0., 4., 0.,
          0., 0., 0., 0., 0., 0., 0., 0., 0., 0., 0., 0., 0., 0., 0., 0. ]
      - [ 885., 655., 440., 361., 174., 73., 21., 8., 5., 1., 38., 2.,
          5., 6., 1., 34., 5., 2., 4., 2., 1., 2., 1., 0., 0., 85., 0.,
          0., 0., 0., 2., 4., 0., 8., 0., 2., 1., 3., 1., 0., 18., 0.,
          0., 2., 0., 7., 0., 0., 1., 5., 1., 0., 0., 0., 0., 47., 0.,
          0., 0., 0., 0., 4., 0., 4., 0., 7., 1., 3., 3., 0., 22., 0.,
          0., 3., 1., 9., 2., 0., 12., 10., 0., 4., 1., 0., 0., 150., 0.,
          0., 0., 0., 0., 2., 0., 5., 0., 5., 0., 0., 0., 0., 25., 0.,
          0., 0., 0., 3., 0., 0., 1., 0., 0., 0., 0., 0., 0., 34., 0.,
          0., 0., 0., 0., 0., 0., 0., 0., 4., 0., 0., 0., 0., 13., 0.,
          0., 0., 0., 7., 0., 0., 1., 0., 0., 0., 0., 0., 0., 87., 0.,
          0., 0., 0., 0., 1., 0., 4., 0., 8., 0., 0., 0., 0., 31., 0.,
          0., 3., 0., 14., 1., 0., 8., 4., 4., 5., 8., 17., 30., 76.,
          35., 30., 24., 16., 10., 14., 10., 13., 8., 4., 6., 7., 6., 9.,
          6., 5., 5., 2., 7., 2., 2., 1., 6., 5., 4., 3., 4., 4., 3., 7.,
          1., 2., 2., 8., 7., 1., 5., 1., 4., 3., 5., 1., 8., 4., 3., 5.,
          4., 3., 2., 3., 4., 2., 2., 2., 3., 4., 1., 2., 3., 4., 6., 5.,
          6., 6., 2., 9., 6., 6., 5., 7., 5., 5., 5., 8., 5., 6., 6., 8.,
          6., 11., 10., 11., 10., 10., 13., 6., 5., 10., 8., 10., 5.,
          10., 7., 11., 4., 11., 7., 11., 11., 6., 10., 9., 11., 8., 7.,
          7., 4., 13., 8., 6., 9., 8., 10., 3., 9., 3., 16., 6., 13.,
          13., 10., 13., 14., 8., 16., 11., 14., 16., 10., 10., 9., 10.,
          17., 21., 21., 23., 15., 20., 15., 18., 19., 25., 23., 21.,
          26., 28., 25., 23., 24., 31., 32., 27., 34., 32., 28., 38.,
          25., 34., 41., 31., 24., 37., 35., 54., 23., 42., 36., 43.,
          48., 31., 51., 56., 43., 59., 59., 48., 60., 55., 62., 49.,
          66., 63., 64., 56., 86., 59., 87., 78., 77., 70., 90., 83.,
          88., 77., 97., 89., 89., 60., 87., 46., 74., 53., 67., 59.,
          59., 69., 54., 59., 35., 29., 39., 25., 31., 34., 20., 24.,
          20., 18., 14., 17., 15., 14., 8., 3., 6., 2., 5., 2., 2., 2.,
          3., 0., 1., 1., 0., 0., 0., 0., 0., 1., 0., 0., 0., 0., 0., 0.,
          0., 0., 0., 0. ]
      - [ 0., 0., 0., 1., 0., 4., 0., 1., 2., 0., 15., 1., 3., 10., 5.,
          25., 11., 17., 57., 90., 73., 162., 128., 165., 455., 2455.,
          1359., 171., 35., 10., 11., 22., 2., 21., 2., 23., 0., 5., 1.,
          0., 14., 0., 1., 1., 0., 10., 0., 0., 1., 0., 1., 0., 0., 0.,
          0., 33., 0., 0., 0., 0., 0., 0., 0., 0., 0., 0., 0., 0., 0.,
          0., 8., 0., 0., 0., 0., 1., 0., 0., 0., 0., 0., 0., 0., 0., 0.,
          31., 0., 0., 0., 1., 0., 0., 0., 1., 0., 1., 0., 0., 0., 0.,
          12., 0., 0., 0., 0., 2., 0., 0., 0., 0., 0., 0., 0., 0., 0.,
          71., 0., 0., 0., 0., 0., 0., 0., 1., 0., 5., 0., 0., 0., 0.,
          28., 0., 0., 0., 0., 11., 0., 0., 0., 1., 0., 0., 0., 0., 0.,
          70., 0., 0., 0., 0., 0., 0., 0., 0., 0., 1., 0., 0., 0., 0.,
          18., 1., 0., 0., 0., 2., 0., 0., 0., 0., 0., 0., 0., 0., 0.,
          56., 42., 26., 18., 12., 17., 14., 10., 9., 7., 8., 9., 8., 9.,
          4., 5., 6., 7., 8., 4., 8., 8., 3., 7., 2., 1., 6., 4., 5., 3.,
          2., 3., 5., 4., 4., 4., 2., 4., 5., 3., 5., 3., 2., 2., 3., 4.,
          2., 4., 4., 2., 5., 5., 8., 7., 1., 7., 3., 3., 5., 3., 1., 2.,
          6., 3., 4., 9., 2., 8., 1., 8., 14., 29., 24., 15., 19., 23.,
          22., 27., 35., 19., 35., 19., 37., 33., 41., 41., 39., 38.,
          47., 49., 41., 52., 46., 56., 57., 65., 48., 36., 60., 60.,
          51., 53., 40., 48., 41., 37., 43., 35., 40., 45., 43., 41.,
          51., 51., 53., 50., 55., 43., 51., 46., 41., 29., 32., 28.,
          27., 25., 25., 40., 29., 23., 35., 33., 34., 34., 37., 23.,
          39., 37., 27., 28., 33., 26., 33., 34., 24., 31., 28., 15.,
          31., 24., 28., 40., 30., 25., 26., 23., 19., 32., 22., 23.,
          18., 17., 30., 20., 34., 32., 20., 26., 40., 53., 35., 27.,
          44., 32., 56., 23., 41., 22., 25., 27., 29., 24., 30., 25.,
          31., 26., 34., 20., 36., 24., 17., 33., 35., 16., 21., 20.,
          18., 8., 6., 11., 8., 9., 10., 8., 9., 6., 5., 7., 5., 4., 3.,
          4., 2., 2., 6., 0., 1., 0., 0., 0., 2., 0., 0., 0., 1., 3., 0.,
          0., 0., 0., 0., 1., 0., 0., 0., 0., 0., 0., 0., 0., 0., 0., 0.,
          0., 0., 0., 0., 0., 0., 0., 0. ]
      - [ 72., 97., 110., 142., 141., 136., 146., 144., 174., 195., 253.,
          266., 299., 405., 483., 428., 264., 94., 54., 21., 9., 6., 1.,
          0., 0., 188., 0., 0., 1., 7., 4., 15., 1., 16., 1., 20., 1.,
          2., 1., 0., 35., 0., 2., 2., 2., 19., 1., 0., 8., 4., 0., 1.,
          0., 0., 0., 67., 0., 0., 0., 1., 1., 2., 0., 4., 0., 18., 0.,
          6., 1., 0., 35., 0., 0., 2., 0., 19., 0., 0., 18., 4., 3., 3.,
          0., 0., 0., 193., 0., 0., 0., 2., 2., 4., 0., 10., 0., 11., 2.,
          4., 1., 1., 25., 0., 3., 0., 3., 4., 0., 0., 1., 2., 3., 1.,
          1., 1., 0., 54., 0., 0., 2., 2., 2., 1., 1., 1., 3., 8., 0.,
          5., 3., 1., 19., 1., 1., 0., 0., 14., 2., 2., 2., 5., 0., 5.,
          1., 2., 0., 222., 0., 1., 5., 2., 2., 4., 2., 9., 6., 16., 3.,
          4., 4., 3., 33., 9., 2., 8., 6., 17., 5., 5., 14., 12., 13.,
          17., 24., 9., 18., 95., 64., 36., 26., 19., 13., 12., 9., 14.,
          2., 8., 3., 9., 5., 9., 3., 6., 5., 1., 2., 3., 4., 10., 4.,
          5., 3., 3., 5., 5., 5., 7., 6., 4., 3., 5., 2., 4., 2., 3., 6.,
          3., 5., 2., 4., 2., 4., 5., 4., 5., 5., 5., 3., 1., 3., 5., 2.,
          4., 1., 2., 5., 4., 2., 4., 2., 7., 4., 4., 1., 6., 3., 5., 1.,
          2., 6., 4., 4., 4., 6., 2., 0., 3., 6., 6., 7., 4., 6., 5., 4.,
          5., 5., 1., 8., 4., 5., 8., 6., 2., 2., 4., 6., 9., 8., 8., 4.,
          6., 4., 3., 9., 7., 7., 4., 3., 2., 4., 6., 6., 6., 4., 9., 6.,
          5., 7., 5., 6., 4., 3., 5., 6., 4., 7., 12., 4., 6., 7., 8.,
          7., 9., 6., 15., 10., 4., 8., 4., 6., 7., 5., 10., 12., 8.,
          10., 11., 9., 11., 9., 13., 11., 7., 14., 5., 10., 7., 11.,
          11., 10., 22., 9., 17., 17., 20., 13., 11., 17., 12., 13., 16.,
          21., 18., 17., 22., 23., 33., 25., 36., 53., 46., 35., 34.,
          69., 58., 59., 79., 98., 104., 112., 88., 116., 132., 116.,
          113., 134., 135., 143., 114., 115., 124., 117., 106., 90., 72.,
          90., 75., 67., 55., 40., 43., 33., 25., 20., 15., 14., 10., 7.,
          7., 2., 4., 1., 2., 0., 0., 0., 1., 0., 0., 0., 0., 0., 0., 0.,
          0., 0., 0., 0., 0., 0., 0., 0., 0., 0., 0., 0., 0. ]
      - [ 98., 126., 143., 161., 125., 147., 159., 130., 140., 196.,
          248., 285., 324., 414., 388., 398., 222., 85., 41., 19., 6.,
          5., 0., 1., 0., 220., 0., 1., 6., 5., 2., 7., 0., 24., 1., 28.,
          1., 2., 5., 0., 33., 0., 2., 0., 1., 18., 0., 0., 6., 8., 2.,
          0., 0., 0., 0., 50., 0., 0., 0., 0., 1., 3., 0., 2., 0., 10.,
          0., 0., 0., 0., 28., 0., 1., 2., 2., 15., 1., 0., 11., 8., 2.,
          3., 1., 0., 0., 232., 0., 1., 0., 3., 2., 5., 0., 7., 4., 9.,
          0., 2., 2., 1., 17., 0., 0., 2., 2., 3., 4., 1., 2., 1., 0.,
          2., 0., 1., 0., 55., 0., 0., 0., 1., 2., 0., 0., 3., 2., 4.,
          1., 5., 6., 0., 18., 1., 2., 2., 1., 8., 0., 1., 3., 3., 5.,
          4., 2., 0., 0., 325., 0., 0., 3., 2., 2., 5., 2., 9., 4., 9.,
          4., 5., 5., 5., 25., 6., 5., 11., 8., 23., 6., 6., 14., 11.,
          13., 14., 11., 17., 24., 99., 65., 46., 37., 16., 15., 16.,
          12., 12., 5., 5., 6., 4., 4., 8., 5., 3., 7., 10., 1., 3., 3.,
          6., 6., 3., 5., 6., 0., 2., 6., 4., 2., 2., 6., 4., 8., 1., 1.,
          3., 3., 3., 1., 5., 9., 3., 4., 10., 0., 5., 4., 0., 2., 2.,
          5., 1., 5., 6., 0., 1., 2., 5., 1., 2., 2., 3., 5., 3., 4., 2.,
          3., 4., 4., 3., 4., 4., 0., 3., 5., 4., 3., 9., 4., 5., 2., 1.,
          3., 2., 5., 9., 4., 5., 3., 5., 6., 9., 7., 3., 5., 5., 6., 4.,
          11., 4., 5., 9., 8., 5., 7., 4., 7., 8., 3., 4., 6., 7., 6.,
          4., 3., 8., 5., 6., 7., 4., 7., 1., 6., 3., 11., 4., 3., 11.,
          5., 11., 7., 7., 4., 8., 5., 4., 11., 5., 8., 9., 10., 8., 2.,
          10., 5., 4., 10., 8., 11., 7., 15., 12., 11., 12., 10., 12.,
          8., 19., 20., 16., 10., 16., 12., 12., 12., 17., 26., 25., 22.,
          24., 28., 32., 31., 33., 29., 40., 34., 37., 42., 48., 47.,
          56., 59., 61., 68., 58., 65., 78., 76., 91., 73., 98., 122.,
          120., 103., 109., 87., 109., 119., 129., 83., 110., 113., 104.,
          72., 84., 82., 79., 69., 59., 41., 36., 21., 11., 18., 11., 6.,
          6., 5., 5., 3., 1., 2., 4., 1., 0., 0., 0., 0., 0., 0., 0., 0.,
          0., 0., 0., 0., 0., 0., 0., 0., 0., 0., 0., 0., 0., 0., 0. ]
      - [ 71., 114., 92., 128., 116., 116., 114., 92., 113., 159., 318.,
          412., 525., 582., 500., 322., 116., 38., 25., 18., 11., 8., 6.,
          5., 1., 247., 0., 1., 4., 5., 6., 8., 4., 15., 0., 24., 1., 5.,
          1., 0., 34., 0., 0., 5., 0., 13., 0., 0., 7., 2., 2., 2., 0.,
          0., 0., 59., 0., 0., 1., 0., 2., 2., 0., 6., 1., 9., 0., 2.,
          0., 0., 29., 0., 2., 3., 1., 19., 0., 0., 7., 3., 5., 5., 0.,
          0., 0., 214., 0., 0., 0., 7., 3., 3., 2., 14., 2., 14., 1., 0.,
          2., 0., 23., 0., 1., 3., 0., 7., 3., 0., 5., 3., 1., 2., 1.,
          0., 1., 54., 1., 0., 3., 1., 3., 0., 1., 4., 1., 3., 3., 2.,
          4., 1., 20., 0., 1., 6., 0., 6., 3., 2., 4., 5., 2., 4., 1.,
          0., 0., 197., 0., 0., 2., 2., 2., 2., 0., 10., 4., 13., 1., 4.,
          4., 1., 32., 4., 4., 13., 7., 15., 9., 5., 17., 16., 16., 10.,
          16., 19., 19., 113., 78., 50., 47., 26., 16., 12., 8., 10., 7.,
          10., 5., 3., 6., 9., 3., 5., 3., 5., 12., 6., 8., 8., 5., 4.,
          3., 3., 6., 2., 1., 2., 4., 2., 2., 3., 3., 3., 1., 4., 7., 7.,
          4., 2., 4., 2., 3., 2., 5., 3., 0., 4., 2., 2., 1., 6., 4., 2.,
          4., 2., 2., 7., 3., 1., 1., 5., 3., 5., 1., 5., 6., 4., 4., 2.,
          3., 1., 2., 4., 1., 5., 2., 3., 3., 3., 7., 4., 7., 3., 2., 3.,
          4., 8., 5., 4., 8., 9., 8., 10., 2., 9., 2., 5., 8., 7., 8.,
          2., 8., 4., 8., 9., 7., 5., 3., 7., 3., 6., 7., 8., 3., 5., 8.,
          6., 4., 1., 4., 4., 5., 4., 12., 6., 9., 0., 2., 7., 6., 9.,
          10., 7., 7., 7., 5., 10., 4., 5., 6., 9., 6., 10., 7., 10.,
          13., 8., 7., 10., 9., 9., 8., 6., 13., 11., 9., 5., 10., 12.,
          15., 13., 12., 16., 10., 11., 19., 7., 10., 17., 14., 19., 22.,
          19., 19., 19., 34., 26., 20., 34., 30., 47., 46., 52., 66.,
          49., 57., 90., 83., 112., 125., 128., 137., 184., 160., 187.,
          148., 165., 154., 137., 123., 120., 107., 101., 76., 87., 64.,
          49., 31., 31., 23., 18., 20., 9., 9., 8., 6., 3., 1., 0., 2.,
          2., 0., 0., 0., 1., 0., 0., 0., 1., 0., 0., 0., 0., 0., 0., 0.,
          0., 0., 0., 0., 0., 0., 0., 0., 0., 0., 0. ]
      - [ 446., 375., 313., 340., 362., 232., 147., 58., 23., 11., 43.,
          4., 9., 9., 6., 23., 4., 0., 5., 4., 7., 6., 0., 4., 1., 88.,
          1., 1., 2., 0., 2., 4., 1., 6., 0., 12., 0., 6., 0., 0., 35.,
          1., 1., 1., 0., 11., 0., 0., 6., 7., 3., 1., 0., 0., 0., 61.,
          0., 0., 0., 0., 0., 4., 1., 15., 0., 15., 0., 8., 1., 0., 47.,
          0., 3., 8., 2., 27., 2., 0., 31., 16., 2., 4., 2., 0., 0.,
          179., 1., 2., 1., 2., 6., 4., 0., 9., 3., 9., 0., 3., 0., 0.,
          15., 0., 0., 0., 0., 7., 0., 0., 1., 0., 0., 0., 0., 0., 0.,
          35., 0., 0., 0., 0., 0., 0., 0., 4., 0., 5., 0., 1., 0., 0.,
          25., 0., 0., 0., 0., 9., 0., 0., 3., 1., 0., 0., 0., 0., 0.,
          120., 0., 0., 0., 0., 1., 1., 0., 9., 0., 9., 0., 4., 0., 0.,
          38., 0., 1., 1., 0., 8., 0., 1., 6., 5., 6., 38., 47., 65.,
          113., 102., 41., 27., 20., 20., 8., 8., 10., 9., 8., 7., 13.,
          7., 8., 4., 8., 6., 6., 7., 3., 9., 6., 4., 8., 5., 9., 7., 6.,
          5., 3., 5., 4., 0., 5., 8., 6., 5., 4., 2., 7., 3., 3., 1., 3.,
          5., 4., 1., 6., 4., 4., 3., 5., 4., 4., 4., 6., 3., 5., 4., 4.,
          3., 8., 5., 7., 8., 5., 1., 6., 6., 4., 5., 8., 8., 7., 5.,
          10., 7., 6., 11., 2., 5., 8., 2., 9., 1., 5., 8., 9., 3., 13.,
          6., 7., 11., 8., 6., 10., 9., 4., 4., 6., 8., 8., 9., 7., 11.,
          12., 9., 7., 3., 5., 12., 7., 9., 9., 13., 7., 13., 8., 9., 7.,
          14., 7., 14., 10., 5., 15., 10., 22., 11., 18., 16., 18., 14.,
          12., 16., 32., 21., 15., 17., 19., 17., 14., 15., 29., 18.,
          14., 25., 22., 18., 27., 32., 26., 38., 28., 30., 38., 43.,
          39., 37., 51., 41., 58., 48., 40., 49., 48., 60., 71., 65.,
          58., 57., 53., 48., 50., 71., 59., 61., 67., 80., 65., 90.,
          69., 85., 86., 66., 78., 64., 78., 82., 69., 75., 54., 64.,
          67., 68., 54., 46., 68., 40., 56., 39., 45., 41., 47., 40.,
          45., 34., 39., 44., 30., 25., 25., 19., 15., 20., 14., 12., 7.,
          7., 6., 7., 10., 7., 3., 5., 3., 0., 1., 1., 1., 1., 0., 0.,
          0., 0., 0., 0., 0., 1., 0., 0., 0., 0., 0., 0., 0., 0., 0., 0.,
          0., 0. ]
      - [ 473., 465., 397., 463., 369., 390., 391., 329., 175., 89., 44.,
          7., 10., 10., 1., 29., 7., 1., 10., 10., 2., 3., 2., 1., 1.,
          100., 0., 0., 0., 2., 0., 7., 0., 12., 1., 6., 0., 3., 1., 0.,
          21., 0., 1., 1., 1., 23., 0., 0., 2., 0., 1., 1., 0., 0., 0.,
          69., 0., 0., 0., 2., 0., 4., 1., 11., 0., 15., 1., 4., 0., 0.,
          21., 0., 0., 7., 0., 22., 3., 0., 10., 17., 3., 6., 0., 0., 0.,
          198., 0., 0., 2., 2., 2., 7., 0., 10., 1., 11., 1., 1., 0., 0.,
          26., 0., 0., 0., 0., 3., 0., 0., 1., 0., 0., 0., 0., 0., 0.,
          54., 0., 0., 0., 0., 0., 0., 0., 2., 0., 1., 0., 0., 0., 0.,
          20., 0., 0., 0., 0., 3., 1., 0., 1., 1., 0., 1., 0., 0., 0.,
          107., 0., 0., 0., 1., 1., 3., 0., 2., 0., 13., 0., 2., 0., 0.,
          46., 0., 0., 3., 0., 5., 1., 0., 8., 2., 2., 4., 7., 16., 25.,
          101., 40., 40., 30., 20., 12., 9., 7., 10., 12., 8., 9., 6.,
          10., 10., 10., 4., 6., 4., 7., 3., 4., 3., 7., 8., 5., 9., 4.,
          3., 8., 5., 4., 3., 4., 2., 0., 3., 8., 2., 4., 4., 4., 2., 5.,
          5., 0., 2., 5., 3., 2., 5., 4., 1., 3., 2., 7., 4., 6., 5., 2.,
          2., 2., 5., 3., 6., 4., 2., 2., 2., 2., 4., 4., 5., 5., 10.,
          6., 13., 10., 7., 11., 14., 15., 13., 18., 12., 8., 11., 9.,
          14., 13., 13., 13., 6., 13., 11., 11., 14., 11., 12., 8., 14.,
          12., 12., 11., 17., 8., 7., 16., 15., 10., 14., 13., 11., 12.,
          13., 13., 11., 21., 16., 10., 12., 16., 17., 20., 19., 10.,
          11., 16., 18., 11., 24., 12., 28., 29., 30., 31., 36., 29.,
          25., 22., 23., 26., 30., 21., 24., 27., 36., 33., 27., 34.,
          26., 39., 28., 35., 44., 50., 50., 48., 53., 54., 44., 42.,
          66., 59., 66., 62., 65., 62., 70., 76., 58., 63., 59., 66.,
          54., 79., 66., 64., 82., 75., 76., 76., 92., 60., 64., 69.,
          47., 62., 59., 62., 51., 51., 51., 35., 40., 51., 31., 30.,
          34., 32., 25., 16., 27., 22., 17., 13., 16., 12., 11., 8., 9.,
          7., 4., 5., 4., 1., 0., 0., 0., 0., 0., 1., 0., 0., 0., 0., 0.,
          0., 0., 0., 0., 0., 0., 0., 0., 0., 0., 0., 0., 0., 0., 0., 0.,
          0., 0., 0., 0., 0., 0., 0., 0. ]
      - [ 0., 3., 0., 3., 2., 10., 3., 6., 9., 16., 101., 93., 105.,
          179., 220., 488., 1261., 1328., 194., 28., 13., 14., 6., 0.,
          0., 294., 0., 1., 0., 4., 5., 22., 0., 21., 3., 22., 1., 10.,
          2., 0., 52., 0., 2., 3., 3., 13., 0., 0., 4., 8., 4., 1., 0.,
          1., 0., 86., 0., 0., 1., 1., 1., 2., 0., 10., 0., 16., 1., 6.,
          2., 0., 28., 0., 1., 1., 0., 14., 0., 0., 21., 3., 2., 2., 0.,
          0., 0., 141., 0., 0., 0., 1., 4., 10., 2., 13., 0., 8., 0., 5.,
          0., 0., 11., 0., 0., 1., 0., 5., 0., 0., 0., 1., 1., 0., 0.,
          0., 0., 48., 0., 0., 0., 0., 0., 0., 0., 1., 0., 1., 0., 0.,
          0., 0., 23., 0., 0., 1., 0., 7., 0., 0., 2., 1., 0., 1., 0.,
          0., 0., 88., 0., 0., 0., 0., 1., 1., 0., 2., 0., 8., 0., 1.,
          0., 0., 31., 0., 0., 0., 0., 6., 0., 0., 1., 2., 0., 0., 0.,
          0., 0., 119., 59., 38., 29., 18., 16., 6., 9., 8., 8., 5., 3.,
          6., 6., 5., 3., 6., 7., 7., 4., 10., 4., 3., 1., 6., 3., 4.,
          1., 3., 1., 2., 5., 2., 1., 3., 2., 3., 4., 3., 5., 0., 1., 1.,
          1., 0., 2., 4., 2., 1., 3., 1., 3., 1., 3., 0., 3., 1., 2., 5.,
          0., 3., 0., 3., 4., 4., 0., 1., 2., 2., 1., 3., 2., 2., 1., 1.,
          3., 1., 2., 2., 3., 4., 1., 2., 1., 1., 3., 4., 2., 0., 2., 3.,
          3., 4., 1., 1., 7., 2., 0., 1., 5., 4., 3., 2., 1., 4., 5., 2.,
          9., 3., 2., 4., 6., 1., 2., 5., 3., 3., 5., 4., 3., 1., 6., 3.,
          9., 3., 3., 6., 7., 4., 7., 5., 6., 5., 10., 5., 3., 5., 5.,
          7., 9., 9., 6., 11., 4., 11., 7., 10., 15., 5., 14., 8., 10.,
          8., 11., 9., 9., 10., 9., 16., 16., 16., 17., 10., 23., 19.,
          24., 26., 25., 18., 25., 27., 30., 30., 27., 31., 26., 22.,
          35., 33., 30., 48., 41., 44., 50., 47., 49., 56., 62., 64.,
          56., 68., 63., 84., 84., 66., 57., 58., 55., 55., 57., 56.,
          47., 40., 47., 50., 51., 68., 46., 57., 52., 56., 62., 48.,
          42., 58., 31., 46., 42., 49., 44., 49., 49., 60., 52., 42.,
          54., 50., 46., 34., 34., 33., 25., 23., 21., 11., 15., 6., 8.,
          4., 5., 5., 1., 1., 1., 1., 0., 0., 1., 0., 0., 0. ]
      - [ 0., 0., 0., 3., 0., 3., 1., 1., 0., 1., 31., 4., 12., 9., 12.,
          32., 28., 38., 67., 78., 81., 176., 184., 202., 335., 1009.,
          1381., 1197., 183., 10., 12., 25., 0., 21., 2., 13., 0., 7.,
          0., 0., 27., 0., 0., 0., 0., 7., 0., 0., 1., 0., 0., 0., 0.,
          0., 0., 17., 0., 0., 0., 0., 0., 0., 0., 0., 0., 0., 0., 0.,
          0., 0., 11., 0., 0., 1., 0., 1., 0., 0., 0., 1., 0., 0., 0.,
          0., 0., 42., 0., 0., 0., 1., 0., 1., 0., 0., 0., 0., 0., 0.,
          0., 0., 7., 0., 0., 0., 0., 4., 0., 0., 0., 0., 0., 0., 0., 0.,
          0., 58., 0., 0., 0., 0., 0., 0., 0., 2., 0., 6., 0., 0., 0.,
          0., 37., 0., 0., 1., 0., 13., 0., 0., 1., 0., 0., 0., 0., 0.,
          0., 70., 0., 0., 0., 0., 0., 1., 0., 0., 0., 1., 0., 0., 0.,
          0., 20., 0., 0., 0., 0., 3., 0., 0., 1., 0., 0., 0., 0., 0.,
          0., 69., 29., 39., 14., 17., 11., 11., 13., 8., 13., 9., 12.,
          8., 7., 3., 9., 8., 5., 5., 4., 6., 8., 5., 7., 2., 6., 3., 3.,
          5., 2., 3., 1., 6., 3., 4., 6., 6., 2., 6., 5., 5., 2., 3., 2.,
          1., 6., 8., 5., 3., 1., 6., 4., 3., 3., 1., 4., 1., 5., 5., 8.,
          5., 3., 5., 6., 14., 12., 10., 13., 13., 11., 11., 11., 10.,
          14., 9., 9., 13., 17., 16., 7., 18., 10., 19., 13., 25., 16.,
          23., 24., 20., 30., 26., 27., 32., 27., 38., 42., 52., 25.,
          45., 31., 43., 42., 41., 33., 30., 34., 36., 47., 42., 42.,
          37., 40., 38., 33., 35., 36., 40., 43., 55., 29., 42., 34.,
          44., 45., 30., 25., 31., 42., 32., 46., 32., 35., 45., 32.,
          34., 33., 36., 38., 32., 38., 35., 30., 27., 39., 35., 29.,
          37., 39., 71., 46., 47., 41., 28., 61., 52., 48., 42., 48.,
          45., 40., 40., 49., 41., 34., 34., 42., 25., 42., 42., 41.,
          38., 32., 42., 28., 37., 30., 27., 40., 38., 29., 28., 32.,
          30., 29., 36., 30., 28., 20., 29., 20., 20., 20., 19., 17.,
          17., 13., 10., 14., 4., 7., 4., 3., 2., 2., 1., 0., 1., 0., 1.,
          0., 1., 0., 0., 0., 0., 0., 0., 0., 0., 0., 0., 0., 0., 0., 0.,
          0., 0., 0., 0., 0., 0., 0., 0., 0., 0., 0., 0., 0., 0., 0., 0.,
          0., 0., 0., 0., 0., 0., 0., 0., 0., 0. ]
      - [ 465., 436., 368., 279., 107., 50., 29., 10., 10., 5., 27., 4.,
          6., 6., 6., 18., 2., 1., 11., 4., 2., 0., 6., 2., 0., 77., 0.,
          0., 3., 2., 0., 1., 2., 4., 0., 7., 1., 3., 0., 0., 29., 1.,
          1., 1., 1., 8., 1., 1., 4., 4., 0., 0., 1., 1., 1., 48., 1.,
          0., 0., 0., 2., 7., 0., 3., 4., 8., 1., 5., 3., 1., 29., 0.,
          5., 9., 1., 13., 6., 3., 23., 14., 6., 5., 2., 2., 2., 245.,
          0., 0., 0., 3., 3., 6., 5., 9., 4., 12., 0., 0., 1., 0., 14.,
          1., 0., 1., 0., 7., 0., 0., 1., 0., 0., 1., 0., 0., 0., 35.,
          0., 0., 0., 0., 0., 0., 0., 0., 0., 1., 0., 0., 0., 0., 24.,
          0., 0., 0., 0., 7., 0., 0., 0., 0., 0., 0., 0., 0., 0., 111.,
          0., 0., 0., 1., 0., 0., 0., 2., 0., 7., 0., 2., 1., 0., 70.,
          0., 1., 4., 1., 10., 2., 0., 7., 3., 2., 13., 24., 35., 113.,
          78., 38., 36., 28., 25., 25., 15., 10., 10., 11., 9., 12., 9.,
          6., 8., 14., 11., 2., 5., 10., 7., 9., 9., 5., 5., 2., 4., 7.,
          6., 5., 4., 9., 7., 5., 4., 6., 3., 1., 9., 5., 6., 4., 4., 5.,
          6., 3., 5., 4., 3., 4., 8., 7., 5., 5., 3., 9., 6., 4., 5., 7.,
          7., 5., 4., 10., 7., 13., 6., 7., 11., 12., 9., 6., 16., 13.,
          14., 15., 8., 12., 10., 14., 12., 4., 11., 13., 16., 7., 5.,
          9., 16., 10., 12., 12., 8., 14., 13., 12., 12., 13., 9., 16.,
          18., 16., 20., 20., 10., 20., 16., 14., 15., 17., 12., 21.,
          14., 13., 12., 15., 19., 13., 19., 18., 21., 18., 26., 18., 9.,
          25., 15., 20., 17., 20., 23., 19., 10., 22., 14., 23., 15.,
          22., 20., 17., 14., 21., 16., 27., 17., 24., 27., 32., 23.,
          32., 26., 26., 20., 32., 32., 24., 35., 29., 22., 30., 23.,
          30., 29., 25., 26., 21., 19., 41., 41., 49., 39., 47., 52.,
          40., 37., 27., 45., 56., 42., 55., 42., 54., 40., 40., 50.,
          54., 45., 45., 44., 57., 54., 60., 55., 58., 52., 58., 53.,
          53., 75., 53., 54., 60., 54., 66., 44., 42., 39., 51., 42.,
          34., 43., 52., 34., 33., 34., 33., 33., 37., 29., 19., 25.,
          17., 15., 17., 17., 18., 17., 13., 15., 8., 5., 7., 5., 1., 1.,
          1., 0., 1., 0., 0., 0., 1., 1., 0., 0., 1., 0., 0., 0., 0., 0. ]
      - [ 0., 1., 0., 4., 0., 7., 0., 2., 0., 0., 19., 0., 2., 6., 6.,
          22., 7., 7., 58., 97., 150., 468., 1646., 2040., 598., 325.,
          8., 12., 11., 6., 16., 27., 5., 22., 7., 17., 1., 5., 1., 0.,
          40., 0., 0., 2., 0., 9., 0., 0., 0., 2., 0., 0., 0., 0., 0.,
          38., 0., 0., 0., 0., 1., 0., 0., 1., 1., 1., 0., 0., 0., 0.,
          15., 0., 0., 1., 0., 2., 0., 0., 2., 2., 0., 2., 0., 0., 0.,
          47., 0., 0., 0., 0., 0., 2., 0., 3., 0., 2., 0., 1., 0., 0.,
          20., 0., 0., 0., 0., 4., 0., 0., 1., 0., 0., 0., 0., 0., 0.,
          52., 0., 0., 0., 0., 0., 1., 0., 5., 0., 9., 0., 1., 0., 0.,
          25., 0., 0., 0., 0., 1., 0., 0., 1., 0., 0., 0., 0., 0., 0.,
          53., 0., 0., 0., 0., 0., 0., 0., 0., 0., 1., 0., 0., 0., 0.,
          8., 0., 0., 0., 1., 2., 0., 0., 1., 1., 0., 0., 0., 0., 0.,
          79., 33., 17., 20., 22., 17., 9., 4., 6., 6., 7., 5., 9., 6.,
          9., 3., 7., 1., 5., 10., 3., 7., 3., 9., 2., 4., 2., 5., 9.,
          7., 5., 5., 4., 5., 6., 1., 3., 4., 4., 11., 2., 2., 4., 4.,
          5., 6., 6., 3., 5., 7., 3., 3., 4., 3., 5., 4., 3., 3., 10.,
          6., 5., 12., 9., 6., 4., 8., 3., 5., 4., 11., 8., 12., 12.,
          16., 18., 13., 7., 20., 12., 9., 12., 18., 6., 11., 14., 11.,
          17., 16., 19., 16., 13., 14., 18., 28., 26., 19., 26., 29.,
          31., 36., 40., 41., 42., 40., 33., 43., 34., 35., 41., 70.,
          65., 53., 53., 78., 93., 64., 70., 80., 94., 79., 64., 116.,
          61., 94., 96., 88., 134., 99., 94., 90., 85., 80., 57., 64.,
          63., 47., 55., 41., 45., 57., 45., 48., 50., 47., 67., 55.,
          64., 73., 52., 43., 46., 47., 53., 47., 36., 43., 44., 39.,
          32., 54., 43., 38., 39., 46., 36., 21., 34., 38., 28., 26.,
          24., 24., 24., 20., 27., 18., 16., 7., 19., 15., 19., 17., 9.,
          6., 10., 8., 6., 7., 6., 4., 5., 4., 3., 3., 1., 0., 1., 1.,
          0., 0., 0., 0., 0., 0., 0., 0., 0., 0., 0., 0., 0., 0., 0., 0.,
          0., 0., 0., 0., 0., 0., 0., 0., 0., 0., 0., 0., 0., 0., 0., 0.,
          0., 0., 0., 0., 0., 0., 0., 0., 0., 0., 0., 0., 0., 0., 0., 0.,
          0., 0., 0., 0., 0. ]
      - [ 0., 2., 0., 1., 1., 6., 0., 4., 0., 1., 16., 0., 4., 2., 5.,
          14., 9., 8., 83., 126., 182., 497., 1445., 2221., 532., 338.,
          6., 7., 19., 23., 30., 26., 5., 28., 8., 20., 1., 7., 0., 0.,
          24., 0., 0., 1., 0., 6., 0., 0., 0., 0., 0., 0., 0., 0., 0.,
          27., 0., 0., 0., 0., 0., 1., 0., 0., 0., 1., 0., 0., 0., 0.,
          12., 0., 0., 0., 0., 1., 0., 0., 2., 1., 1., 1., 0., 0., 0.,
          36., 0., 0., 0., 0., 0., 1., 0., 2., 0., 1., 0., 0., 0., 0.,
          17., 0., 0., 2., 0., 8., 0., 0., 0., 0., 0., 0., 0., 0., 0.,
          60., 0., 0., 0., 0., 0., 0., 0., 4., 0., 7., 0., 0., 0., 0.,
          33., 0., 0., 0., 0., 5., 0., 0., 0., 0., 0., 0., 0., 0., 0.,
          57., 0., 0., 0., 0., 0., 0., 0., 2., 0., 0., 0., 0., 0., 0.,
          13., 0., 0., 0., 0., 1., 0., 0., 1., 1., 0., 0., 0., 0., 0.,
          72., 37., 32., 16., 14., 14., 4., 12., 11., 8., 7., 7., 3., 3.,
          8., 7., 6., 3., 12., 11., 7., 3., 3., 9., 9., 6., 6., 3., 4.,
          4., 8., 4., 3., 13., 4., 0., 2., 2., 4., 7., 5., 4., 2., 4.,
          3., 5., 3., 2., 5., 4., 5., 8., 3., 5., 4., 5., 1., 6., 8., 1.,
          4., 4., 2., 10., 7., 8., 7., 10., 8., 9., 11., 6., 14., 10.,
          8., 13., 11., 21., 12., 12., 14., 9., 7., 16., 10., 17., 6.,
          13., 16., 24., 14., 14., 18., 19., 29., 20., 26., 36., 38.,
          29., 43., 31., 46., 45., 56., 44., 35., 41., 66., 43., 79.,
          94., 91., 116., 112., 88., 81., 83., 103., 78., 82., 72., 79.,
          75., 80., 60., 96., 80., 79., 71., 60., 66., 60., 38., 57.,
          60., 60., 63., 51., 66., 68., 82., 62., 59., 47., 40., 50.,
          53., 35., 40., 41., 41., 22., 36., 26., 33., 42., 46., 43.,
          43., 38., 38., 39., 46., 45., 17., 29., 40., 19., 30., 17.,
          25., 41., 29., 17., 24., 15., 28., 23., 17., 20., 8., 13., 18.,
          11., 10., 11., 12., 6., 4., 5., 2., 2., 7., 3., 0., 0., 0., 0.,
          0., 0., 0., 0., 0., 0., 0., 0., 0., 0., 0., 0., 0., 0., 0., 0.,
          0., 0., 0., 0., 0., 0., 0., 0., 0., 0., 0., 0., 0., 0., 0., 0.,
          0., 0., 0., 0., 0., 0., 0., 0., 0., 0., 0., 0., 0., 0., 0., 0.,
          0., 0., 0., 0. ]
      - [ 1., 0., 0., 1., 0., 3., 0., 5., 2., 1., 27., 6., 7., 11., 19.,
          33., 21., 23., 61., 104., 57., 124., 113., 166., 391., 1651.,
          1521., 664., 157., 16., 18., 17., 3., 16., 3., 11., 2., 6., 0.,
          0., 24., 0., 0., 0., 0., 3., 0., 0., 1., 2., 0., 0., 0., 0.,
          0., 23., 0., 0., 0., 0., 0., 0., 0., 2., 0., 2., 0., 0., 0.,
          0., 9., 0., 0., 1., 1., 4., 0., 0., 5., 0., 0., 0., 0., 0., 0.,
          55., 0., 0., 0., 0., 0., 1., 0., 1., 0., 3., 0., 1., 0., 0.,
          4., 0., 0., 0., 0., 1., 0., 0., 0., 0., 0., 0., 0., 0., 0.,
          41., 0., 0., 0., 0., 0., 0., 0., 1., 0., 6., 0., 1., 0., 0.,
          36., 0., 0., 0., 0., 7., 0., 0., 3., 0., 0., 0., 0., 0., 0.,
          63., 0., 0., 0., 0., 0., 1., 0., 1., 0., 3., 0., 0., 0., 0.,
          16., 0., 0., 0., 0., 3., 0., 0., 1., 0., 0., 0., 0., 0., 0.,
          75., 41., 27., 21., 13., 12., 11., 10., 12., 12., 6., 6., 6.,
          9., 12., 7., 7., 7., 4., 4., 7., 4., 5., 3., 6., 2., 8., 2.,
          6., 3., 4., 3., 1., 2., 3., 6., 5., 4., 2., 5., 4., 3., 3., 4.,
          2., 5., 4., 3., 2., 3., 1., 1., 2., 4., 4., 3., 1., 1., 4., 8.,
          3., 4., 5., 5., 3., 6., 7., 15., 24., 21., 10., 18., 13., 11.,
          15., 10., 15., 27., 14., 20., 29., 26., 16., 20., 24., 34.,
          16., 23., 20., 29., 40., 34., 18., 32., 32., 26., 37., 22.,
          29., 49., 37., 35., 48., 49., 45., 45., 39., 44., 67., 44.,
          48., 63., 29., 49., 44., 44., 49., 38., 41., 76., 48., 37.,
          72., 69., 45., 51., 72., 88., 64., 60., 55., 47., 44., 46.,
          45., 37., 31., 36., 33., 36., 33., 37., 45., 52., 50., 41.,
          39., 37., 40., 23., 25., 43., 21., 30., 32., 19., 25., 36.,
          45., 26., 37., 37., 41., 33., 23., 52., 10., 42., 23., 27.,
          33., 31., 33., 25., 36., 26., 19., 21., 31., 34., 27., 20.,
          19., 30., 21., 27., 22., 17., 20., 22., 18., 13., 13., 13.,
          10., 12., 7., 2., 0., 3., 3., 1., 1., 1., 1., 1., 0., 0., 0.,
          0., 0., 1., 0., 0., 0., 0., 0., 0., 0., 0., 0., 0., 0., 0., 0.,
          0., 0., 0., 0., 0., 0., 0., 0., 0., 0., 0., 0., 0., 0., 0., 0.,
          0., 0., 0., 0., 0., 0., 0., 0., 0., 0. ]
      - [ 0., 1., 0., 2., 0., 2., 0., 3., 1., 2., 23., 3., 5., 7., 7.,
          21., 18., 14., 47., 101., 82., 171., 126., 178., 546., 2508.,
          1068., 168., 28., 22., 18., 27., 1., 16., 6., 23., 0., 8., 0.,
          0., 15., 0., 0., 0., 0., 9., 0., 0., 0., 0., 1., 0., 0., 0.,
          0., 29., 0., 0., 0., 0., 0., 0., 0., 0., 0., 0., 0., 0., 0.,
          0., 3., 0., 0., 1., 0., 0., 0., 0., 1., 0., 0., 0., 0., 0., 0.,
          29., 0., 0., 0., 0., 0., 0., 0., 1., 0., 1., 0., 0., 0., 0.,
          7., 0., 0., 0., 0., 2., 0., 0., 0., 0., 0., 0., 0., 0., 0.,
          77., 0., 0., 0., 0., 0., 0., 0., 3., 0., 4., 0., 1., 0., 0.,
          40., 0., 0., 1., 0., 7., 0., 0., 2., 0., 0., 0., 0., 0., 0.,
          59., 0., 0., 0., 0., 0., 0., 0., 0., 0., 1., 0., 0., 0., 0.,
          23., 0., 0., 0., 0., 1., 1., 0., 0., 0., 0., 0., 0., 0., 0.,
          75., 41., 33., 30., 17., 9., 15., 8., 12., 8., 5., 13., 8., 8.,
          5., 9., 5., 4., 6., 6., 8., 5., 3., 5., 4., 8., 5., 3., 4., 3.,
          7., 4., 2., 5., 4., 2., 2., 5., 3., 5., 2., 6., 6., 3., 5., 3.,
          1., 2., 1., 5., 3., 3., 4., 2., 4., 5., 2., 4., 3., 7., 4., 4.,
          2., 4., 2., 4., 7., 6., 5., 15., 11., 13., 14., 17., 20., 17.,
          23., 31., 37., 21., 41., 27., 27., 33., 37., 35., 38., 39.,
          50., 47., 52., 54., 47., 59., 45., 41., 50., 36., 62., 64.,
          58., 67., 45., 62., 63., 51., 55., 41., 32., 39., 29., 39.,
          45., 40., 52., 50., 34., 34., 23., 58., 27., 32., 48., 42.,
          42., 27., 30., 41., 35., 43., 34., 31., 22., 34., 18., 29.,
          27., 32., 39., 22., 15., 22., 15., 17., 20., 25., 32., 24.,
          19., 16., 25., 31., 29., 31., 31., 21., 21., 28., 28., 18.,
          38., 33., 40., 36., 31., 36., 38., 27., 38., 29., 14., 32.,
          25., 29., 42., 37., 31., 24., 41., 38., 40., 36., 40., 53.,
          18., 22., 33., 13., 17., 13., 15., 19., 20., 21., 16., 15.,
          13., 18., 14., 12., 11., 8., 4., 8., 8., 7., 5., 4., 4., 4.,
          6., 4., 1., 1., 2., 3., 0., 1., 1., 2., 0., 0., 1., 1., 0., 2.,
          0., 0., 0., 0., 0., 0., 0., 0., 0., 0., 0., 0., 0., 0., 0., 0.,
          0., 0., 0., 0., 0., 0., 0., 0., 0. ]
      - [ 74., 138., 123., 131., 188., 226., 201., 222., 243., 238.,
          250., 307., 504., 408., 337., 213., 147., 75., 73., 42., 25.,
          15., 3., 3., 1., 165., 0., 0., 6., 9., 10., 13., 1., 16., 2.,
          15., 0., 4., 2., 0., 37., 0., 1., 3., 0., 13., 2., 0., 11., 1.,
          1., 0., 0., 0., 0., 49., 0., 0., 0., 0., 1., 2., 0., 7., 0.,
          16., 0., 3., 0., 0., 25., 0., 0., 3., 1., 22., 3., 0., 9., 4.,
          3., 1., 0., 0., 0., 121., 0., 0., 0., 2., 4., 5., 0., 12., 3.,
          10., 4., 1., 4., 1., 30., 2., 1., 2., 1., 7., 1., 2., 2., 2.,
          5., 5., 1., 2., 0., 51., 1., 2., 3., 3., 2., 1., 3., 4., 3.,
          8., 3., 7., 3., 2., 27., 0., 0., 5., 2., 8., 7., 2., 12., 7.,
          3., 2., 2., 1., 0., 163., 2., 1., 1., 0., 2., 2., 3., 10., 2.,
          9., 4., 4., 3., 1., 25., 3., 6., 9., 5., 13., 9., 5., 12., 11.,
          6., 9., 7., 12., 10., 93., 74., 48., 43., 16., 17., 16., 14.,
          6., 7., 5., 6., 9., 5., 10., 5., 6., 5., 4., 7., 1., 7., 7.,
          1., 8., 3., 4., 3., 4., 7., 6., 1., 8., 5., 4., 5., 6., 5., 4.,
          11., 2., 5., 2., 4., 2., 2., 1., 4., 2., 5., 5., 1., 3., 4.,
          2., 5., 3., 3., 2., 3., 3., 4., 6., 3., 4., 4., 1., 8., 2., 3.,
          1., 2., 3., 2., 4., 1., 5., 5., 3., 5., 3., 7., 3., 5., 1., 3.,
          7., 1., 3., 7., 5., 5., 2., 3., 4., 4., 4., 4., 7., 0., 2., 5.,
          4., 5., 5., 4., 6., 3., 7., 4., 1., 5., 5., 6., 5., 0., 4., 4.,
          5., 5., 3., 5., 4., 6., 5., 4., 7., 6., 6., 7., 10., 7., 5.,
          10., 6., 4., 1., 3., 7., 2., 10., 7., 3., 4., 11., 8., 8., 15.,
          10., 6., 7., 7., 7., 11., 7., 12., 9., 14., 12., 16., 18., 13.,
          18., 15., 14., 10., 24., 24., 19., 29., 21., 32., 29., 19.,
          33., 29., 25., 30., 36., 43., 44., 48., 42., 56., 53., 62.,
          69., 101., 84., 117., 89., 125., 151., 130., 131., 149., 161.,
          150., 153., 141., 133., 157., 112., 131., 97., 85., 76., 65.,
          55., 32., 33., 23., 21., 10., 11., 10., 9., 7., 10., 5., 5.,
          3., 0., 1., 0., 0., 0., 1., 0., 0., 0., 0., 0., 0., 0., 0., 0.,
          0., 0., 0., 0., 0., 0., 0., 0., 0., 0., 0., 0., 0., 0. ]
      - [ 0., 0., 0., 1., 0., 3., 0., 5., 2., 1., 17., 1., 10., 11., 7.,
          30., 41., 32., 71., 85., 63., 105., 59., 75., 197., 1526.,
          1548., 839., 169., 43., 32., 36., 0., 25., 0., 11., 0., 5., 0.,
          0., 18., 0., 0., 0., 0., 11., 0., 0., 1., 1., 0., 0., 0., 0.,
          0., 24., 0., 0., 0., 0., 0., 0., 0., 1., 0., 3., 0., 0., 0.,
          0., 4., 0., 0., 0., 0., 0., 0., 0., 0., 0., 1., 1., 0., 0., 0.,
          35., 0., 0., 0., 0., 0., 0., 0., 5., 0., 1., 0., 1., 0., 0.,
          3., 0., 0., 0., 0., 1., 0., 0., 0., 0., 0., 0., 0., 0., 0.,
          69., 0., 0., 0., 0., 0., 0., 0., 1., 0., 8., 0., 0., 0., 0.,
          40., 0., 0., 2., 0., 4., 0., 0., 0., 0., 0., 0., 0., 0., 0.,
          50., 0., 0., 0., 0., 0., 1., 0., 0., 0., 3., 0., 0., 0., 0.,
          11., 0., 0., 0., 0., 1., 0., 0., 0., 0., 0., 0., 0., 0., 0.,
          85., 45., 30., 20., 21., 22., 13., 5., 9., 6., 14., 9., 8., 7.,
          5., 5., 4., 7., 3., 3., 8., 7., 7., 4., 4., 5., 5., 4., 2., 2.,
          3., 3., 2., 4., 5., 5., 7., 4., 6., 3., 3., 2., 6., 6., 4., 2.,
          1., 3., 0., 5., 2., 4., 2., 1., 7., 3., 2., 8., 5., 5., 4., 7.,
          4., 4., 4., 4., 4., 9., 13., 12., 16., 16., 9., 17., 16., 18.,
          15., 11., 9., 16., 16., 12., 15., 16., 18., 26., 29., 25., 25.,
          30., 33., 32., 35., 59., 43., 47., 56., 53., 50., 36., 55.,
          56., 46., 37., 42., 37., 33., 43., 62., 34., 53., 32., 21.,
          38., 24., 51., 38., 45., 46., 40., 33., 36., 41., 37., 28.,
          29., 21., 38., 41., 35., 28., 28., 30., 21., 23., 22., 30.,
          23., 31., 26., 31., 24., 26., 27., 29., 23., 23., 18., 25.,
          19., 26., 23., 17., 23., 26., 19., 20., 30., 18., 22., 19.,
          41., 21., 19., 27., 36., 27., 22., 20., 34., 21., 24., 29.,
          19., 30., 24., 33., 26., 20., 33., 34., 25., 26., 33., 35.,
          35., 50., 13., 33., 20., 24., 35., 27., 41., 24., 27., 26.,
          25., 20., 27., 15., 17., 17., 17., 19., 9., 15., 4., 5., 3.,
          6., 3., 7., 1., 1., 1., 1., 1., 1., 0., 2., 0., 0., 0., 0., 0.,
          0., 0., 0., 0., 0., 0., 0., 0., 0., 0., 0., 0., 0., 0., 0., 0.,
          0., 0., 0., 0., 0., 0., 0., 0., 0. ]
      - [ 746., 707., 334., 134., 48., 50., 29., 19., 10., 4., 26., 2.,
          5., 12., 4., 16., 5., 1., 12., 7., 4., 1., 1., 0., 0., 111.,
          0., 0., 0., 3., 2., 4., 0., 9., 0., 7., 0., 5., 0., 0., 34.,
          0., 1., 0., 0., 17., 0., 0., 6., 1., 1., 0., 0., 0., 0., 58.,
          0., 0., 0., 1., 0., 2., 0., 10., 0., 13., 2., 4., 1., 0., 24.,
          0., 3., 6., 1., 25., 7., 0., 24., 18., 3., 6., 1., 0., 0.,
          180., 0., 0., 1., 1., 2., 4., 0., 9., 0., 8., 0., 1., 0., 0.,
          24., 0., 0., 0., 0., 5., 0., 0., 0., 0., 0., 0., 0., 0., 0.,
          48., 0., 0., 0., 0., 0., 0., 0., 1., 0., 3., 0., 1., 0., 0.,
          24., 0., 0., 0., 0., 6., 0., 0., 2., 0., 1., 0., 0., 0., 0.,
          102., 0., 0., 0., 1., 0., 1., 0., 4., 0., 5., 0., 0., 1., 0.,
          80., 0., 0., 0., 0., 11., 0., 0., 10., 3., 1., 3., 12., 39.,
          105., 82., 45., 42., 22., 23., 8., 7., 4., 9., 6., 8., 7., 8.,
          3., 6., 2., 16., 6., 3., 4., 8., 8., 7., 5., 2., 2., 6., 2.,
          3., 4., 7., 2., 4., 6., 1., 2., 3., 5., 1., 1., 5., 7., 3., 2.,
          4., 3., 1., 5., 5., 4., 2., 4., 3., 7., 4., 12., 7., 6., 8.,
          11., 2., 11., 5., 6., 2., 6., 6., 7., 6., 7., 7., 7., 7., 6.,
          7., 7., 2., 8., 8., 6., 7., 8., 10., 10., 7., 3., 6., 10., 5.,
          4., 11., 9., 7., 6., 6., 6., 10., 5., 3., 15., 11., 9., 15.,
          6., 12., 4., 10., 8., 10., 8., 16., 8., 17., 9., 5., 11., 10.,
          11., 23., 10., 15., 13., 18., 12., 12., 12., 12., 14., 10.,
          19., 9., 12., 17., 16., 13., 13., 14., 18., 16., 13., 12., 10.,
          15., 11., 15., 13., 17., 17., 16., 25., 20., 22., 17., 24.,
          24., 31., 25., 31., 33., 27., 33., 25., 31., 26., 47., 39.,
          49., 32., 42., 42., 46., 25., 60., 60., 55., 63., 56., 62.,
          65., 54., 63., 63., 60., 56., 70., 67., 61., 60., 54., 61.,
          67., 48., 52., 55., 54., 49., 51., 64., 50., 31., 44., 45.,
          64., 59., 42., 56., 43., 40., 40., 35., 35., 40., 49., 26.,
          53., 22., 29., 26., 34., 28., 30., 25., 21., 18., 16., 16., 9.,
          7., 9., 14., 6., 3., 2., 1., 4., 3., 0., 2., 1., 0., 0., 0.,
          0., 0., 0., 0., 0., 0., 0., 0., 0. ]
      - [ 0., 2., 0., 4., 0., 4., 0., 0., 2., 1., 24., 0., 3., 7., 8.,
          19., 10., 14., 39., 106., 285., 606., 1853., 1893., 158., 331.,
          10., 2., 14., 19., 6., 23., 2., 21., 1., 21., 0., 5., 2., 0.,
          39., 0., 4., 5., 0., 18., 0., 0., 2., 2., 0., 0., 0., 0., 0.,
          32., 0., 0., 0., 0., 0., 2., 0., 0., 0., 1., 0., 0., 0., 0.,
          10., 0., 0., 1., 0., 3., 0., 0., 1., 0., 0., 0., 0., 0., 0.,
          55., 0., 0., 0., 0., 0., 0., 0., 3., 1., 4., 0., 0., 0., 0.,
          21., 0., 0., 0., 0., 3., 0., 0., 0., 1., 0., 0., 0., 0., 0.,
          40., 0., 0., 0., 0., 0., 0., 0., 3., 0., 4., 0., 0., 0., 0.,
          35., 0., 0., 2., 0., 8., 0., 0., 2., 0., 0., 0., 0., 0., 0.,
          66., 0., 0., 0., 0., 0., 0., 0., 0., 0., 1., 0., 0., 0., 0.,
          17., 0., 0., 0., 0., 1., 0., 0., 0., 0., 0., 0., 0., 0., 0.,
          78., 32., 32., 20., 21., 18., 12., 8., 10., 8., 7., 14., 5.,
          7., 6., 2., 2., 5., 5., 5., 2., 3., 5., 4., 6., 3., 4., 3., 4.,
          7., 3., 4., 2., 6., 4., 3., 5., 5., 4., 0., 7., 3., 4., 2., 6.,
          3., 2., 6., 2., 4., 6., 4., 4., 3., 3., 9., 5., 3., 4., 4., 7.,
          4., 6., 5., 1., 5., 4., 3., 6., 1., 8., 6., 15., 8., 14., 15.,
          17., 18., 14., 12., 14., 22., 17., 22., 17., 22., 21., 28.,
          24., 27., 28., 27., 28., 35., 28., 38., 27., 52., 39., 50.,
          55., 45., 57., 75., 64., 67., 65., 76., 63., 88., 67., 68.,
          74., 63., 67., 72., 89., 86., 67., 62., 85., 102., 56., 85.,
          86., 44., 65., 50., 37., 44., 51., 47., 40., 39., 48., 40.,
          31., 47., 52., 44., 55., 42., 41., 35., 40., 33., 33., 48.,
          21., 38., 36., 31., 32., 27., 30., 34., 30., 28., 28., 29.,
          37., 39., 29., 39., 52., 26., 41., 35., 33., 31., 30., 24.,
          35., 26., 31., 28., 19., 19., 21., 21., 22., 23., 23., 24.,
          18., 21., 21., 16., 17., 15., 9., 6., 7., 6., 3., 3., 6., 0.,
          4., 4., 0., 0., 1., 0., 0., 0., 0., 0., 0., 0., 0., 0., 0., 0.,
          0., 0., 0., 0., 0., 0., 0., 0., 0., 0., 0., 0., 0., 0., 0., 0.,
          0., 0., 0., 0., 0., 0., 0., 0., 0., 0., 0., 0., 0., 0., 0., 0.,
          0., 0., 0., 0., 0. ]
      - [ 0., 0., 1., 0., 0., 7., 1., 5., 3., 6., 20., 3., 10., 9., 12.,
          38., 48., 74., 87., 155., 96., 147., 102., 95., 218., 919.,
          1390., 1142., 352., 26., 14., 26., 1., 25., 3., 27., 1., 8.,
          2., 0., 29., 0., 0., 0., 0., 20., 1., 0., 1., 0., 0., 0., 0.,
          0., 0., 32., 0., 0., 0., 0., 0., 0., 0., 1., 0., 1., 0., 0.,
          0., 0., 10., 0., 0., 0., 0., 3., 0., 0., 0., 2., 0., 0., 0.,
          0., 0., 51., 0., 0., 0., 0., 0., 0., 0., 1., 0., 2., 0., 0.,
          0., 0., 6., 0., 0., 0., 0., 0., 0., 0., 0., 0., 0., 0., 0., 0.,
          0., 66., 0., 0., 0., 0., 0., 0., 0., 2., 0., 5., 0., 0., 0.,
          0., 30., 0., 0., 0., 0., 3., 0., 0., 1., 0., 0., 0., 0., 0.,
          0., 62., 0., 0., 0., 0., 0., 0., 0., 1., 0., 3., 0., 0., 0.,
          0., 14., 0., 0., 0., 0., 1., 0., 0., 0., 0., 0., 0., 0., 0.,
          0., 87., 46., 36., 26., 13., 14., 13., 8., 10., 15., 11., 8.,
          12., 6., 9., 6., 6., 6., 4., 2., 8., 7., 6., 6., 5., 1., 5.,
          3., 5., 2., 4., 2., 2., 5., 3., 3., 5., 2., 2., 1., 5., 3., 4.,
          3., 8., 5., 2., 0., 5., 6., 2., 7., 4., 1., 4., 5., 7., 6., 3.,
          2., 4., 2., 6., 3., 4., 5., 11., 3., 10., 11., 10., 9., 12.,
          12., 6., 6., 16., 13., 19., 11., 14., 21., 16., 14., 12., 18.,
          16., 25., 21., 21., 27., 37., 30., 29., 28., 32., 44., 38.,
          41., 40., 39., 52., 50., 63., 39., 33., 42., 46., 44., 30.,
          27., 50., 33., 27., 35., 41., 33., 35., 45., 37., 38., 34.,
          51., 45., 26., 26., 30., 41., 26., 31., 37., 21., 28., 28.,
          28., 28., 42., 27., 23., 29., 27., 22., 25., 34., 26., 24.,
          28., 25., 28., 26., 37., 34., 30., 38., 27., 20., 24., 30.,
          25., 28., 36., 40., 30., 44., 54., 56., 56., 44., 44., 46.,
          50., 46., 54., 50., 45., 57., 63., 53., 53., 38., 52., 35.,
          38., 42., 39., 33., 45., 25., 34., 19., 18., 17., 20., 15.,
          19., 7., 3., 5., 8., 4., 3., 3., 4., 4., 1., 1., 2., 0., 0.,
          0., 1., 0., 0., 0., 1., 0., 0., 0., 0., 0., 0., 0., 0., 0., 0.,
          0., 0., 0., 0., 0., 0., 0., 0., 0., 0., 0., 0., 0., 0., 0., 0.,
          0., 0., 0., 0., 0., 0., 0., 0., 0., 0. ]
      - [ 1., 1., 0., 2., 0., 10., 1., 1., 1., 2., 22., 3., 5., 6., 4.,
          25., 17., 11., 51., 113., 208., 690., 1368., 2130., 476., 327.,
          12., 19., 14., 9., 17., 17., 1., 16., 2., 20., 2., 12., 0., 1.,
          33., 0., 2., 3., 0., 9., 0., 0., 3., 7., 1., 0., 0., 0., 0.,
          48., 0., 0., 0., 0., 0., 1., 0., 1., 1., 4., 0., 0., 0., 0.,
          17., 0., 0., 0., 0., 8., 0., 0., 7., 0., 0., 0., 0., 0., 0.,
          68., 0., 0., 0., 0., 0., 5., 0., 5., 0., 5., 0., 2., 0., 0.,
          18., 0., 0., 0., 0., 2., 0., 0., 3., 0., 0., 0., 0., 0., 0.,
          43., 0., 0., 0., 0., 0., 0., 0., 0., 0., 6., 0., 0., 0., 0.,
          17., 0., 0., 0., 0., 12., 0., 0., 3., 1., 0., 1., 0., 0., 0.,
          66., 0., 0., 0., 0., 0., 0., 0., 1., 0., 2., 0., 1., 0., 0.,
          22., 0., 0., 0., 0., 3., 0., 0., 1., 0., 0., 0., 0., 0., 0.,
          79., 43., 30., 19., 16., 14., 13., 8., 9., 9., 8., 12., 10.,
          6., 4., 9., 4., 11., 5., 7., 10., 2., 3., 3., 5., 3., 6., 4.,
          6., 1., 6., 2., 6., 4., 5., 5., 3., 4., 6., 2., 1., 3., 4., 4.,
          1., 14., 2., 6., 1., 4., 4., 6., 3., 2., 5., 10., 2., 2., 7.,
          3., 6., 3., 6., 8., 10., 8., 11., 10., 15., 13., 15., 8., 15.,
          18., 11., 16., 15., 22., 15., 13., 26., 19., 15., 22., 13.,
          23., 20., 24., 26., 27., 29., 32., 26., 33., 43., 29., 28.,
          39., 30., 37., 41., 35., 46., 31., 43., 45., 49., 56., 76.,
          73., 74., 74., 75., 88., 68., 79., 85., 60., 63., 59., 63.,
          81., 53., 60., 92., 81., 70., 67., 77., 82., 79., 65., 60.,
          69., 78., 55., 77., 52., 53., 46., 40., 45., 41., 34., 26.,
          46., 48., 40., 32., 52., 43., 51., 59., 44., 54., 52., 49.,
          49., 52., 35., 55., 42., 51., 36., 43., 30., 37., 40., 27.,
          27., 32., 17., 24., 17., 19., 19., 23., 17., 19., 11., 12.,
          10., 5., 9., 7., 6., 2., 7., 3., 2., 2., 1., 1., 0., 0., 0.,
          0., 0., 0., 0., 0., 0., 2., 0., 0., 0., 0., 0., 0., 0., 0., 0.,
          0., 0., 0., 0., 1., 0., 0., 0., 1., 0., 1., 0., 0., 0., 0., 1.,
          0., 0., 0., 0., 0., 0., 0., 0., 0., 0., 0., 0., 0., 0., 0., 0.,
          0., 0., 0., 0., 0., 0., 0. ]
      - [ 72., 111., 151., 135., 144., 168., 153., 234., 273., 309.,
          390., 387., 414., 348., 281., 149., 56., 53., 34., 18., 7., 2.,
          0., 1., 0., 192., 0., 0., 3., 8., 9., 14., 2., 22., 2., 20.,
          3., 10., 4., 0., 39., 0., 0., 3., 0., 10., 2., 0., 12., 2., 1.,
          0., 0., 0., 0., 61., 0., 0., 0., 0., 3., 2., 0., 5., 0., 16.,
          2., 5., 2., 0., 32., 0., 0., 6., 0., 24., 0., 0., 12., 3., 3.,
          6., 1., 0., 0., 205., 0., 0., 3., 0., 2., 5., 1., 10., 1., 19.,
          1., 4., 0., 0., 28., 1., 1., 1., 2., 3., 1., 0., 2., 3., 2.,
          3., 2., 4., 1., 50., 0., 0., 1., 2., 2., 1., 2., 3., 2., 7.,
          1., 2., 0., 0., 20., 2., 0., 3., 0., 14., 2., 0., 6., 4., 0.,
          3., 1., 0., 0., 265., 0., 2., 1., 1., 1., 2., 0., 6., 4., 14.,
          3., 5., 5., 4., 32., 5., 6., 4., 13., 13., 7., 10., 5., 19.,
          15., 16., 15., 13., 19., 108., 70., 46., 21., 18., 20., 9., 8.,
          7., 8., 6., 4., 8., 8., 5., 2., 7., 4., 5., 3., 3., 3., 7., 2.,
          2., 4., 4., 2., 1., 1., 3., 6., 1., 8., 2., 1., 3., 3., 2., 4.,
          7., 4., 4., 3., 3., 1., 4., 6., 2., 4., 5., 3., 3., 1., 4., 4.,
          3., 4., 4., 0., 4., 3., 3., 6., 3., 3., 7., 2., 3., 5., 3., 5.,
          8., 2., 0., 3., 1., 4., 5., 7., 4., 7., 1., 7., 5., 1., 2., 2.,
          4., 1., 5., 4., 6., 6., 2., 6., 8., 4., 8., 3., 4., 5., 3., 4.,
          6., 3., 7., 1., 9., 2., 4., 6., 4., 6., 7., 6., 3., 2., 3., 2.,
          4., 10., 2., 4., 7., 5., 6., 4., 4., 5., 10., 2., 6., 6., 8.,
          13., 11., 5., 4., 8., 10., 6., 4., 5., 4., 5., 6., 7., 7., 10.,
          14., 10., 6., 8., 4., 14., 8., 13., 15., 9., 11., 9., 10., 17.,
          11., 18., 9., 14., 14., 11., 13., 6., 13., 19., 22., 18., 18.,
          23., 30., 36., 37., 40., 33., 35., 46., 54., 55., 65., 72.,
          92., 110., 106., 135., 147., 164., 180., 180., 191., 161.,
          152., 164., 128., 106., 104., 81., 83., 84., 54., 47., 40.,
          42., 31., 26., 16., 17., 8., 11., 5., 10., 5., 4., 1., 3., 3.,
          1., 1., 0., 0., 0., 0., 0., 0., 0., 0., 0., 0., 0., 0., 0., 0.,
          0., 0., 0., 0., 0., 0., 0., 0., 0., 0., 0. ]
      - [ 154., 230., 138., 145., 163., 167., 143., 164., 259., 271.,
          386., 338., 351., 369., 282., 188., 80., 30., 28., 21., 14.,
          5., 8., 2., 1., 138., 0., 0., 1., 10., 5., 13., 1., 22., 2.,
          17., 1., 3., 3., 0., 32., 0., 1., 5., 2., 17., 0., 0., 5., 3.,
          3., 1., 0., 0., 0., 53., 0., 0., 0., 1., 2., 1., 0., 11., 1.,
          16., 0., 3., 1., 0., 33., 0., 0., 4., 0., 16., 1., 0., 14., 7.,
          5., 3., 1., 0., 0., 161., 0., 0., 0., 4., 4., 9., 1., 13., 3.,
          13., 2., 8., 0., 1., 19., 2., 1., 0., 1., 9., 3., 0., 5., 1.,
          2., 0., 2., 1., 0., 50., 0., 1., 1., 2., 1., 4., 2., 1., 1.,
          10., 4., 1., 5., 2., 29., 1., 1., 1., 3., 12., 1., 0., 9., 2.,
          3., 1., 0., 1., 1., 205., 1., 3., 1., 1., 7., 8., 3., 17., 3.,
          15., 7., 4., 2., 4., 27., 8., 6., 7., 4., 17., 9., 10., 7., 9.,
          14., 13., 11., 12., 13., 116., 64., 38., 33., 23., 13., 17.,
          5., 5., 14., 9., 7., 6., 6., 5., 5., 5., 7., 6., 3., 9., 4.,
          3., 1., 2., 4., 3., 6., 4., 6., 4., 5., 5., 6., 3., 3., 7., 2.,
          4., 4., 4., 4., 1., 1., 7., 7., 3., 4., 3., 2., 6., 5., 0., 2.,
          3., 6., 2., 1., 3., 4., 2., 7., 1., 4., 1., 4., 7., 5., 2., 2.,
          4., 4., 3., 4., 2., 2., 5., 6., 7., 3., 7., 2., 2., 1., 5., 1.,
          4., 4., 2., 1., 5., 5., 4., 3., 2., 4., 3., 3., 3., 4., 2., 3.,
          5., 8., 9., 4., 2., 4., 5., 3., 5., 2., 5., 6., 7., 7., 4., 1.,
          6., 8., 6., 4., 4., 6., 7., 8., 4., 1., 5., 2., 3., 6., 7.,
          10., 7., 9., 11., 5., 5., 13., 12., 8., 11., 9., 8., 9., 11.,
          9., 13., 15., 13., 16., 7., 17., 9., 16., 16., 17., 12., 10.,
          22., 15., 14., 20., 25., 17., 16., 19., 23., 31., 24., 22.,
          26., 24., 26., 25., 21., 34., 39., 30., 28., 39., 32., 53.,
          65., 66., 66., 90., 85., 103., 106., 119., 118., 125., 152.,
          158., 157., 153., 156., 125., 144., 121., 117., 85., 83., 66.,
          66., 45., 43., 34., 33., 22., 19., 20., 12., 10., 7., 2., 3.,
          3., 2., 0., 1., 3., 0., 1., 1., 0., 0., 0., 0., 0., 0., 0., 0.,
          0., 0., 0., 0., 0., 0., 0., 0., 0., 0., 0., 0., 0., 0., 0., 0. ]
      - [ 74., 145., 166., 109., 90., 128., 140., 136., 176., 206., 269.,
          317., 513., 509., 454., 475., 170., 52., 29., 22., 9., 10., 1.,
          1., 1., 117., 0., 1., 5., 5., 4., 8., 3., 16., 1., 19., 2., 6.,
          4., 0., 28., 0., 2., 4., 0., 15., 1., 0., 11., 4., 2., 1., 0.,
          0., 0., 50., 0., 0., 0., 0., 0., 6., 0., 8., 0., 16., 0., 2.,
          3., 1., 24., 0., 0., 3., 0., 15., 0., 0., 9., 3., 3., 3., 2.,
          0., 0., 151., 0., 0., 1., 5., 1., 10., 0., 6., 0., 10., 0., 1.,
          0., 0., 30., 0., 0., 2., 0., 5., 1., 1., 2., 0., 0., 1., 1.,
          0., 0., 56., 0., 0., 0., 0., 1., 1., 1., 3., 1., 6., 0., 1.,
          1., 2., 19., 0., 0., 2., 2., 9., 0., 1., 3., 5., 1., 1., 2.,
          3., 0., 178., 0., 5., 3., 2., 3., 3., 1., 11., 1., 10., 2., 5.,
          7., 2., 28., 4., 7., 5., 11., 18., 10., 2., 16., 17., 18., 18.,
          17., 15., 16., 101., 61., 41., 24., 19., 19., 14., 6., 6., 5.,
          7., 5., 7., 11., 4., 3., 4., 4., 7., 3., 5., 2., 3., 6., 2.,
          4., 3., 3., 1., 4., 6., 4., 5., 4., 3., 3., 6., 1., 2., 3., 0.,
          2., 6., 3., 4., 2., 6., 2., 2., 6., 4., 3., 3., 4., 0., 6., 5.,
          4., 5., 7., 2., 3., 5., 1., 5., 3., 3., 3., 3., 6., 3., 3., 3.,
          2., 3., 1., 6., 7., 4., 3., 5., 3., 2., 3., 3., 6., 0., 8., 5.,
          2., 7., 7., 9., 5., 5., 11., 8., 4., 7., 4., 3., 3., 7., 6.,
          4., 10., 2., 7., 8., 10., 4., 2., 8., 11., 7., 5., 6., 4., 7.,
          11., 8., 3., 6., 7., 9., 8., 6., 3., 7., 16., 5., 7., 11., 3.,
