%YAML:1.0
---
opencv_ml_svm:
   format: 3
   svmType: C_SVC
   kernel:
      type: RBF
      gamma: 1.0000000000000001e-05
   C: 1.0000000000000001e-01
   term_criteria: { epsilon:1.1920928955078125e-07, iterations:1000 }
   var_count: 426
   class_count: 5
   class_labels: !!opencv-matrix
      rows: 5
      cols: 1
      dt: i
      data: [ 0, 1, 2, 3, 4 ]
   sv_total: 725
   support_vectors:
      - [ 119., 256., 183., 179., 193., 148., 90., 93., 102., 133., 338.,
          400., 468., 515., 320., 157., 100., 36., 43., 16., 11., 3., 4.,
          2., 0., 176., 0., 0., 0., 2., 0., 2., 1., 20., 0., 19., 1., 2.,
          3., 0., 50., 0., 0., 2., 0., 12., 0., 0., 2., 0., 0., 0., 0.,
          0., 0., 146., 0., 0., 0., 0., 0., 0., 0., 5., 0., 12., 0., 1.,
          0., 0., 47., 0., 0., 2., 0., 10., 0., 0., 5., 0., 0., 0., 0.,
          0., 0., 91., 0., 0., 0., 0., 0., 2., 0., 3., 0., 10., 0., 0.,
          0., 1., 13., 1., 3., 2., 1., 5., 3., 0., 4., 3., 1., 1., 0.,
          1., 1., 35., 2., 0., 2., 1., 1., 4., 0., 4., 5., 5., 1., 1.,
          6., 2., 9., 4., 2., 2., 2., 5., 3., 0., 3., 1., 6., 5., 3., 1.,
          0., 104., 0., 1., 2., 1., 4., 2., 1., 6., 4., 8., 3., 8., 5.,
          9., 14., 5., 4., 17., 9., 10., 18., 14., 16., 15., 6., 11.,
          13., 13., 14., 30., 19., 10., 16., 11., 9., 10., 8., 5., 7.,
          7., 4., 7., 6., 12., 9., 7., 5., 4., 5., 2., 3., 4., 7., 4.,
          4., 8., 7., 2., 2., 1., 1., 5., 4., 1., 1., 3., 3., 4., 5., 4.,
          1., 2., 1., 3., 7., 5., 5., 1., 4., 0., 6., 1., 2., 2., 3., 4.,
          2., 2., 6., 9., 5., 3., 8., 3., 5., 7., 1., 4., 7., 5., 4., 4.,
          6., 3., 6., 6., 12., 7., 2., 6., 6., 3., 6., 2., 5., 2., 1.,
          3., 10., 4., 9., 4., 5., 2., 7., 1., 4., 10., 7., 6., 6., 6.,
          15., 10., 4., 6., 6., 4., 4., 7., 6., 2., 11., 7., 5., 2., 7.,
          6., 4., 10., 9., 3., 5., 5., 11., 6., 8., 12., 4., 13., 5., 2.,
          5., 7., 9., 10., 5., 10., 5., 10., 9., 10., 10., 10., 8., 13.,
          19., 13., 8., 15., 20., 14., 15., 20., 21., 21., 22., 18., 21.,
          14., 19., 13., 20., 13., 15., 16., 17., 14., 18., 19., 17.,
          24., 21., 36., 30., 28., 41., 43., 33., 37., 34., 30., 33.,
          41., 51., 34., 46., 55., 62., 72., 92., 113., 160., 161., 314.,
          343., 236., 324., 152., 147., 91., 66., 49., 39., 16., 12., 1.,
          0., 0., 0., 0., 0., 0., 0., 0., 0., 0., 0., 0., 0., 0., 0., 0.,
          0., 0., 0., 0., 0., 0., 0., 0., 0., 0., 0., 0., 0., 0., 0., 0.,
          0., 0., 0., 0., 0., 0., 0., 0., 0., 0., 0. ]
      - [ 0., 0., 0., 1., 0., 2., 0., 1., 1., 0., 50., 4., 4., 13., 8.,
          46., 60., 71., 111., 89., 63., 100., 82., 87., 252., 1304.,
          1558., 988., 189., 10., 11., 10., 1., 19., 0., 32., 1., 1., 0.,
          0., 49., 0., 0., 0., 0., 5., 0., 0., 0., 1., 0., 0., 0., 0.,
          0., 29., 0., 0., 0., 1., 0., 0., 0., 1., 0., 4., 0., 1., 0.,
          0., 9., 0., 3., 1., 0., 2., 0., 0., 1., 0., 0., 0., 0., 0., 0.,
          42., 0., 0., 0., 0., 0., 0., 0., 0., 0., 0., 0., 0., 0., 0.,
          5., 0., 0., 0., 0., 0., 0., 0., 0., 0., 0., 0., 0., 0., 0.,
          24., 0., 0., 0., 0., 0., 0., 0., 0., 0., 0., 0., 0., 0., 0.,
          2., 0., 0., 0., 0., 0., 0., 0., 0., 0., 0., 0., 0., 0., 0.,
          40., 0., 0., 0., 0., 0., 0., 0., 0., 0., 1., 0., 0., 0., 0.,
          11., 0., 0., 0., 0., 0., 0., 0., 0., 0., 0., 0., 0., 0., 0.,
          34., 27., 25., 14., 13., 16., 14., 11., 7., 12., 7., 8., 9.,
          14., 8., 6., 10., 3., 8., 10., 11., 4., 3., 4., 7., 4., 1., 0.,
          6., 1., 4., 6., 7., 7., 0., 3., 1., 3., 4., 1., 1., 1., 5., 5.,
          0., 3., 6., 2., 3., 0., 3., 1., 3., 1., 2., 3., 3., 3., 1., 4.,
          3., 2., 5., 1., 6., 2., 1., 7., 4., 0., 7., 7., 18., 25., 24.,
          13., 11., 15., 15., 17., 18., 9., 19., 30., 12., 19., 19., 21.,
          27., 33., 22., 23., 48., 26., 42., 31., 49., 32., 58., 56.,
          58., 57., 40., 35., 58., 43., 40., 48., 41., 51., 46., 55.,
          65., 37., 32., 25., 32., 21., 30., 27., 24., 24., 30., 35.,
          32., 20., 23., 20., 25., 27., 31., 24., 24., 28., 21., 32.,
          23., 23., 26., 23., 23., 32., 17., 30., 28., 27., 32., 27.,
          33., 21., 34., 27., 17., 33., 29., 21., 12., 48., 22., 37.,
          46., 38., 26., 34., 28., 41., 32., 36., 31., 26., 43., 42.,
          46., 45., 53., 56., 71., 59., 73., 28., 46., 34., 32., 49.,
          18., 36., 38., 17., 38., 34., 34., 48., 30., 49., 11., 31.,
          10., 3., 4., 2., 0., 0., 0., 0., 0., 0., 0., 0., 0., 0., 0.,
          0., 0., 0., 0., 0., 0., 0., 0., 0., 0., 0., 0., 0., 0., 0., 0.,
          0., 0., 0., 0., 0., 0., 0., 0., 0., 0., 0., 0., 0., 0., 0., 0.,
          0., 0., 0., 0., 0., 0., 0., 0. ]
      - [ 0., 0., 0., 1., 0., 2., 0., 1., 1., 0., 53., 6., 2., 8., 6.,
          43., 35., 32., 80., 96., 115., 140., 136., 269., 543., 2368.,
          1022., 305., 60., 10., 14., 12., 1., 25., 0., 22., 1., 1., 0.,
          0., 45., 0., 0., 0., 0., 12., 0., 0., 0., 0., 0., 0., 0., 0.,
          0., 57., 0., 0., 0., 0., 0., 0., 0., 1., 0., 0., 0., 0., 0.,
          0., 9., 0., 0., 1., 1., 1., 0., 0., 0., 0., 1., 0., 0., 0., 0.,
          44., 0., 0., 0., 0., 0., 0., 0., 0., 0., 0., 0., 0., 0., 0.,
          1., 0., 0., 0., 0., 0., 0., 0., 0., 0., 0., 0., 0., 0., 0.,
          17., 0., 0., 0., 0., 0., 0., 0., 0., 0., 0., 0., 0., 0., 0.,
          3., 0., 0., 0., 0., 0., 0., 0., 0., 0., 0., 0., 0., 0., 0.,
          27., 0., 0., 0., 0., 0., 0., 0., 0., 0., 2., 0., 0., 0., 0.,
          4., 0., 0., 0., 0., 0., 0., 0., 0., 0., 0., 0., 0., 0., 0.,
          25., 35., 17., 18., 12., 18., 7., 11., 15., 6., 10., 10., 9.,
          6., 7., 8., 7., 5., 6., 9., 4., 10., 4., 4., 2., 6., 2., 4.,
          1., 1., 5., 2., 7., 4., 9., 2., 2., 1., 3., 1., 2., 7., 2., 6.,
          11., 3., 1., 3., 4., 2., 1., 3., 1., 1., 3., 4., 11., 1., 5.,
          3., 2., 2., 0., 3., 3., 2., 8., 4., 8., 7., 10., 10., 13., 12.,
          12., 24., 30., 27., 17., 26., 31., 23., 42., 25., 27., 26.,
          24., 36., 27., 35., 37., 39., 42., 48., 39., 61., 67., 43.,
          76., 86., 71., 96., 79., 111., 69., 74., 64., 45., 65., 67.,
          58., 65., 55., 47., 61., 52., 38., 40., 39., 32., 25., 16.,
          31., 32., 31., 35., 33., 35., 36., 31., 30., 35., 36., 35.,
          33., 36., 42., 32., 28., 45., 40., 43., 27., 29., 46., 16.,
          30., 25., 30., 15., 36., 22., 21., 28., 26., 26., 20., 34.,
          29., 16., 29., 15., 38., 23., 29., 33., 28., 35., 35., 36.,
          34., 21., 26., 21., 22., 28., 45., 19., 32., 24., 31., 29.,
          35., 27., 24., 36., 25., 13., 17., 19., 11., 10., 6., 1., 2.,
          1., 2., 0., 0., 0., 0., 0., 0., 0., 0., 0., 0., 0., 0., 0., 0.,
          0., 0., 0., 0., 0., 0., 0., 0., 0., 0., 0., 0., 0., 0., 0., 0.,
          0., 0., 0., 0., 0., 0., 0., 0., 0., 0., 0., 0., 0., 0., 0., 0.,
          0., 0., 0., 0., 0., 0., 0., 0. ]
      - [ 80., 171., 98., 102., 149., 131., 210., 191., 217., 242., 453.,
          614., 458., 338., 284., 92., 54., 28., 36., 11., 1., 1., 4.,
          2., 0., 184., 0., 0., 0., 1., 0., 0., 1., 12., 0., 31., 0., 3.,
          0., 0., 82., 0., 0., 4., 0., 11., 1., 0., 9., 3., 0., 0., 0.,
          0., 0., 162., 0., 0., 0., 0., 1., 1., 0., 5., 0., 12., 0., 1.,
          0., 0., 36., 0., 1., 1., 0., 17., 0., 0., 4., 2., 1., 1., 0.,
          0., 0., 145., 0., 0., 0., 0., 0., 0., 1., 1., 1., 3., 0., 2.,
          0., 0., 15., 0., 0., 0., 0., 10., 1., 0., 3., 0., 0., 2., 0.,
          0., 0., 58., 0., 0., 0., 5., 0., 0., 1., 2., 0., 1., 2., 2.,
          0., 0., 15., 0., 1., 1., 1., 2., 0., 0., 2., 3., 3., 1., 0.,
          0., 0., 98., 0., 1., 1., 1., 3., 0., 0., 2., 0., 6., 1., 2.,
          2., 8., 18., 3., 7., 7., 1., 9., 10., 5., 12., 6., 13., 25.,
          7., 13., 18., 24., 19., 17., 14., 13., 6., 9., 8., 2., 3., 13.,
          4., 3., 5., 3., 4., 4., 5., 2., 6., 1., 4., 2., 4., 0., 7., 6.,
          2., 3., 2., 2., 9., 1., 2., 7., 0., 1., 1., 3., 2., 4., 2., 1.,
          4., 1., 6., 2., 4., 2., 3., 1., 3., 5., 1., 2., 5., 0., 0., 3.,
          3., 4., 4., 2., 2., 2., 1., 1., 3., 2., 6., 2., 2., 1., 3., 1.,
          1., 4., 5., 4., 3., 0., 3., 1., 2., 2., 2., 4., 3., 2., 4., 1.,
          5., 1., 4., 3., 6., 3., 3., 7., 1., 4., 4., 1., 7., 3., 6., 4.,
          3., 10., 3., 3., 6., 4., 5., 5., 6., 5., 3., 3., 2., 4., 6.,
          2., 3., 5., 5., 9., 3., 3., 3., 3., 6., 6., 4., 3., 3., 9., 9.,
          10., 11., 8., 7., 7., 18., 10., 7., 9., 8., 15., 14., 9., 7.,
          8., 14., 6., 4., 4., 10., 7., 23., 15., 10., 17., 8., 13., 14.,
          12., 16., 7., 17., 10., 8., 8., 11., 24., 16., 21., 21., 24.,
          25., 28., 22., 42., 19., 24., 36., 39., 61., 43., 65., 62.,
          91., 105., 83., 183., 330., 434., 319., 323., 193., 189., 167.,
          123., 96., 73., 43., 27., 6., 4., 1., 7., 0., 0., 0., 0., 0.,
          0., 0., 0., 0., 0., 0., 0., 0., 0., 0., 0., 0., 0., 0., 0., 0.,
          0., 0., 0., 0., 0., 0., 0., 0., 0., 0., 0., 0., 0., 0., 0., 0.,
          0., 0., 0. ]
      - [ 631., 510., 175., 46., 25., 20., 11., 6., 25., 4., 22., 5., 3.,
          4., 3., 16., 1., 0., 3., 5., 1., 2., 0., 0., 0., 101., 0., 0.,
          1., 1., 3., 0., 2., 10., 0., 12., 0., 2., 0., 0., 24., 0., 1.,
          1., 0., 2., 0., 0., 1., 0., 0., 0., 2., 0., 0., 137., 0., 2.,
          0., 0., 2., 1., 0., 2., 1., 18., 1., 1., 0., 0., 34., 0., 1.,
          3., 0., 18., 0., 0., 12., 1., 3., 1., 0., 1., 0., 164., 0., 0.,
          0., 1., 2., 1., 2., 8., 1., 6., 0., 0., 1., 0., 27., 0., 1.,
          0., 0., 2., 0., 0., 2., 1., 1., 0., 1., 0., 0., 75., 2., 0.,
          1., 0., 1., 0., 0., 1., 1., 1., 0., 0., 1., 0., 6., 0., 0., 0.,
          0., 3., 0., 1., 1., 0., 1., 1., 0., 0., 0., 40., 0., 0., 0.,
          0., 1., 0., 0., 0., 0., 0., 0., 1., 0., 0., 18., 0., 0., 0.,
          0., 5., 0., 0., 7., 6., 4., 16., 15., 37., 88., 28., 22., 17.,
          18., 12., 9., 11., 7., 8., 12., 14., 10., 14., 11., 9., 12.,
          9., 5., 11., 7., 5., 9., 8., 8., 9., 9., 7., 11., 3., 1., 2.,
          5., 6., 6., 4., 2., 9., 5., 11., 4., 5., 13., 6., 5., 9., 3.,
          3., 2., 4., 1., 5., 11., 4., 4., 4., 9., 2., 7., 8., 5., 9.,
          3., 5., 15., 9., 5., 6., 9., 3., 1., 5., 5., 3., 2., 8., 9.,
          5., 11., 10., 6., 5., 9., 4., 5., 3., 6., 6., 5., 5., 1., 9.,
          3., 5., 5., 14., 6., 5., 8., 4., 8., 5., 8., 8., 4., 11., 8.,
          9., 5., 9., 14., 5., 4., 7., 6., 9., 12., 8., 7., 9., 5., 11.,
          8., 12., 12., 11., 24., 7., 15., 10., 21., 25., 9., 13., 9.,
          13., 10., 23., 13., 11., 17., 9., 20., 26., 29., 29., 19., 15.,
          24., 31., 31., 38., 31., 41., 40., 30., 33., 35., 42., 37.,
          44., 34., 48., 33., 46., 24., 23., 39., 39., 40., 43., 46.,
          27., 52., 49., 52., 41., 48., 43., 65., 66., 55., 48., 44.,
          52., 47., 51., 42., 44., 50., 65., 71., 72., 74., 67., 75.,
          58., 76., 55., 71., 37., 55., 58., 60., 58., 62., 61., 58.,
          75., 80., 78., 66., 81., 47., 52., 61., 33., 34., 22., 14.,
          23., 17., 15., 2., 1., 1., 0., 0., 0., 0., 0., 0., 0., 0., 0.,
          0., 0., 0., 0., 0., 0., 0., 0., 0., 0., 0., 0., 0., 0., 0., 0.,
          0. ]
      - [ 315., 369., 280., 269., 363., 397., 408., 254., 231., 121.,
          85., 6., 7., 16., 5., 15., 9., 2., 5., 5., 2., 1., 3., 1., 0.,
          194., 0., 1., 0., 0., 2., 1., 0., 6., 1., 20., 0., 1., 0., 0.,
          77., 0., 0., 3., 0., 10., 1., 0., 2., 2., 0., 0., 0., 0., 0.,
          142., 0., 0., 0., 0., 0., 0., 0., 3., 0., 20., 0., 0., 0., 0.,
          69., 0., 2., 1., 0., 25., 0., 0., 9., 1., 1., 0., 0., 0., 0.,
          215., 0., 0., 1., 0., 1., 0., 0., 6., 0., 10., 0., 2., 0., 0.,
          23., 0., 0., 0., 0., 4., 0., 0., 1., 0., 0., 0., 0., 0., 0.,
          33., 0., 0., 0., 0., 0., 0., 0., 0., 0., 0., 0., 0., 0., 0.,
          4., 0., 0., 0., 0., 0., 0., 0., 0., 0., 0., 0., 0., 0., 0.,
          34., 0., 0., 0., 0., 0., 0., 0., 0., 0., 0., 0., 0., 0., 0.,
          9., 0., 0., 3., 1., 3., 0., 0., 2., 1., 4., 8., 7., 34., 30.,
          26., 27., 20., 12., 13., 6., 10., 7., 14., 4., 10., 3., 3., 8.,
          9., 3., 4., 13., 6., 6., 2., 9., 9., 2., 4., 5., 8., 3., 9.,
          4., 6., 6., 2., 3., 6., 1., 8., 1., 2., 17., 4., 5., 3., 1.,
          1., 4., 0., 1., 6., 1., 5., 1., 7., 2., 0., 2., 3., 7., 3., 4.,
          4., 0., 6., 5., 7., 4., 4., 7., 8., 7., 4., 8., 5., 10., 16.,
          10., 18., 13., 10., 6., 9., 12., 6., 10., 8., 10., 5., 14.,
          13., 6., 4., 8., 3., 10., 8., 12., 13., 14., 8., 12., 8., 10.,
          13., 7., 7., 12., 13., 6., 10., 16., 7., 10., 11., 8., 12.,
          15., 11., 13., 6., 21., 4., 11., 17., 8., 8., 13., 19., 15.,
          15., 15., 21., 16., 26., 21., 33., 28., 29., 42., 40., 29.,
          34., 40., 52., 48., 63., 69., 67., 80., 50., 81., 94., 79.,
          72., 54., 70., 46., 39., 54., 49., 48., 53., 38., 43., 34.,
          30., 48., 41., 29., 49., 49., 27., 48., 30., 36., 28., 23.,
          29., 20., 21., 23., 19., 13., 18., 30., 20., 31., 22., 18.,
          35., 27., 34., 33., 37., 32., 31., 36., 17., 22., 37., 16.,
          26., 23., 33., 23., 24., 28., 36., 33., 23., 45., 43., 33.,
          35., 36., 55., 36., 49., 37., 41., 21., 6., 9., 3., 5., 2., 3.,
          0., 0., 0., 0., 0., 0., 0., 0., 0., 0., 0., 0., 0., 0., 0., 0.,
          0., 0., 0., 0., 0., 0., 0., 0., 0. ]
      - [ 0., 0., 0., 1., 0., 14., 0., 1., 0., 0., 40., 4., 4., 9., 9.,
          23., 40., 29., 82., 118., 80., 141., 142., 160., 447., 2161.,
          1534., 394., 13., 15., 13., 13., 0., 13., 2., 13., 0., 1., 0.,
          0., 48., 0., 0., 0., 0., 1., 0., 0., 0., 0., 0., 0., 0., 0.,
          0., 46., 0., 0., 0., 0., 0., 0., 0., 1., 0., 4., 0., 0., 0.,
          0., 7., 0., 0., 1., 0., 3., 0., 0., 0., 2., 0., 0., 0., 0., 0.,
          30., 0., 0., 0., 0., 0., 0., 0., 1., 0., 0., 0., 0., 0., 0.,
          1., 0., 1., 0., 0., 0., 0., 0., 0., 0., 0., 0., 0., 0., 0.,
          27., 0., 0., 0., 0., 0., 0., 0., 0., 0., 0., 0., 0., 0., 0.,
          2., 0., 0., 0., 0., 0., 0., 0., 0., 0., 0., 0., 0., 0., 0.,
          32., 0., 0., 0., 0., 0., 0., 0., 0., 0., 0., 0., 0., 0., 0.,
          9., 0., 0., 0., 0., 2., 0., 0., 1., 0., 0., 0., 0., 0., 0.,
          36., 28., 17., 19., 14., 11., 9., 9., 5., 6., 13., 9., 10., 5.,
          11., 7., 5., 12., 4., 10., 2., 7., 5., 5., 1., 5., 12., 7., 2.,
          4., 5., 1., 2., 2., 3., 3., 0., 5., 1., 11., 1., 9., 4., 2.,
          7., 12., 10., 11., 12., 9., 5., 3., 4., 7., 4., 4., 8., 8., 5.,
          9., 7., 12., 8., 5., 7., 12., 2., 5., 13., 11., 13., 11., 15.,
          10., 13., 14., 16., 15., 19., 14., 31., 16., 24., 34., 29.,
          56., 42., 44., 54., 77., 77., 51., 55., 52., 43., 47., 58.,
          28., 39., 26., 43., 41., 34., 49., 41., 45., 51., 52., 52.,
          52., 46., 52., 51., 63., 42., 56., 58., 26., 50., 39., 37.,
          31., 38., 39., 22., 41., 38., 26., 28., 26., 21., 24., 23.,
          35., 37., 41., 35., 40., 21., 28., 32., 19., 28., 30., 30.,
          48., 29., 25., 20., 24., 17., 22., 21., 20., 35., 21., 24.,
          24., 27., 29., 32., 27., 49., 33., 32., 41., 25., 22., 35.,
          28., 43., 26., 35., 37., 46., 24., 38., 25., 48., 54., 49.,
          40., 53., 58., 50., 54., 50., 17., 29., 19., 31., 16., 30.,
          23., 15., 18., 12., 5., 5., 0., 0., 0., 0., 0., 0., 0., 0., 0.,
          0., 0., 0., 0., 0., 0., 0., 0., 0., 0., 0., 0., 0., 0., 0., 0.,
          0., 0., 0., 0., 0., 0., 0., 0., 0., 0., 0., 0., 0., 0., 0., 0.,
          0., 0., 0., 0., 0., 0., 0., 0., 0., 0., 0. ]
      - [ 0., 0., 0., 0., 0., 3., 0., 0., 0., 0., 33., 1., 2., 4., 4.,
          19., 2., 14., 48., 69., 130., 521., 1734., 2263., 156., 489.,
          1., 9., 15., 10., 12., 11., 0., 16., 0., 37., 0., 2., 0., 0.,
          94., 0., 0., 0., 0., 16., 0., 0., 0., 0., 0., 0., 0., 0., 0.,
          82., 0., 0., 0., 0., 0., 0., 0., 0., 0., 4., 0., 0., 0., 0.,
          8., 0., 0., 0., 0., 0., 0., 0., 0., 0., 0., 0., 0., 0., 0.,
          42., 0., 0., 0., 0., 0., 0., 0., 0., 0., 1., 0., 0., 0., 0.,
          4., 0., 0., 0., 0., 0., 0., 0., 0., 0., 0., 0., 0., 0., 0.,
          20., 0., 0., 0., 0., 0., 0., 0., 0., 0., 0., 0., 0., 0., 0.,
          2., 0., 0., 0., 0., 0., 0., 0., 0., 0., 0., 0., 0., 0., 0., 9.,
          0., 0., 0., 0., 0., 0., 0., 0., 0., 1., 0., 0., 0., 0., 4., 0.,
          0., 2., 0., 1., 0., 0., 0., 0., 0., 0., 0., 0., 0., 36., 22.,
          14., 13., 14., 11., 6., 10., 10., 6., 8., 10., 8., 2., 4., 3.,
          6., 5., 8., 2., 3., 7., 6., 3., 6., 4., 4., 6., 6., 12., 3.,
          5., 3., 3., 2., 6., 1., 2., 2., 2., 2., 0., 4., 0., 6., 2., 5.,
          4., 2., 2., 6., 1., 3., 5., 5., 2., 6., 9., 6., 10., 6., 7.,
          4., 7., 5., 8., 5., 7., 10., 12., 6., 12., 9., 15., 4., 11.,
          11., 14., 8., 15., 17., 4., 13., 10., 15., 20., 17., 20., 15.,
          21., 23., 25., 30., 35., 31., 38., 42., 55., 60., 40., 66.,
          69., 93., 87., 123., 92., 116., 104., 119., 99., 121., 101.,
          83., 80., 87., 79., 74., 60., 42., 57., 42., 75., 42., 72.,
          63., 42., 42., 62., 36., 52., 58., 65., 42., 42., 58., 69.,
          56., 41., 38., 40., 43., 42., 66., 38., 49., 45., 22., 30.,
          23., 46., 37., 33., 45., 42., 31., 33., 21., 36., 36., 32.,
          37., 45., 33., 28., 28., 17., 26., 21., 16., 17., 31., 14.,
          19., 23., 26., 23., 24., 27., 34., 16., 11., 9., 6., 5., 0.,
          1., 0., 0., 0., 0., 0., 0., 0., 0., 0., 0., 0., 0., 0., 0., 0.,
          0., 0., 0., 0., 0., 0., 0., 0., 0., 0., 0., 0., 0., 0., 0., 0.,
          0., 0., 0., 0., 0., 0., 0., 0., 0., 0., 0., 0., 0., 0., 0., 0.,
          0., 0., 0., 0., 0., 0., 0., 0., 0., 0., 0., 0., 0., 0., 0., 0.,
          0., 0. ]
      - [ 0., 1., 0., 2., 3., 4., 12., 23., 26., 45., 111., 140., 118.,
          122., 140., 251., 467., 2052., 342., 108., 6., 12., 5., 1., 0.,
          429., 0., 0., 2., 6., 0., 5., 0., 21., 0., 73., 0., 16., 3.,
          0., 183., 0., 0., 6., 0., 13., 0., 0., 2., 0., 0., 0., 0., 0.,
          0., 174., 0., 0., 0., 0., 0., 0., 0., 1., 0., 8., 0., 0., 0.,
          0., 33., 0., 0., 0., 0., 11., 0., 1., 1., 2., 0., 0., 0., 0.,
          0., 81., 0., 0., 0., 0., 0., 0., 0., 0., 0., 0., 0., 0., 0.,
          0., 5., 0., 1., 0., 0., 0., 0., 0., 0., 0., 0., 0., 0., 0., 0.,
          13., 0., 0., 0., 0., 0., 0., 0., 0., 0., 0., 0., 0., 0., 0.,
          5., 0., 0., 0., 0., 0., 0., 0., 1., 0., 0., 0., 0., 0., 0.,
          21., 0., 0., 0., 0., 0., 0., 0., 0., 0., 0., 0., 0., 0., 0.,
          8., 0., 0., 0., 0., 3., 0., 0., 1., 2., 1., 0., 0., 0., 0.,
          38., 14., 10., 9., 7., 7., 11., 13., 5., 8., 8., 2., 3., 3.,
          2., 3., 2., 4., 5., 1., 2., 4., 0., 4., 2., 3., 10., 3., 3.,
          4., 3., 2., 4., 2., 6., 3., 3., 0., 3., 3., 2., 1., 2., 6., 4.,
          0., 6., 1., 3., 6., 1., 2., 5., 1., 1., 1., 2., 0., 2., 1., 2.,
          1., 4., 6., 4., 3., 4., 1., 0., 3., 1., 4., 1., 1., 3., 1., 3.,
          0., 1., 6., 2., 2., 0., 1., 0., 2., 3., 2., 2., 2., 2., 0., 4.,
          1., 0., 1., 2., 5., 6., 8., 6., 1., 9., 8., 9., 3., 6., 4., 1.,
          1., 3., 7., 2., 6., 12., 2., 3., 7., 8., 8., 8., 8., 6., 4.,
          5., 11., 3., 5., 9., 4., 9., 12., 8., 10., 10., 7., 13., 8.,
          10., 10., 7., 16., 15., 9., 12., 8., 9., 8., 15., 13., 11.,
          15., 20., 12., 10., 17., 24., 40., 29., 21., 16., 25., 30.,
          27., 41., 28., 26., 26., 41., 32., 36., 34., 41., 21., 41.,
          48., 37., 42., 43., 61., 49., 38., 44., 46., 41., 38., 32.,
          58., 54., 42., 62., 55., 47., 68., 42., 64., 45., 50., 34.,
          41., 46., 49., 32., 35., 38., 51., 55., 46., 45., 47., 35.,
          43., 34., 47., 36., 34., 45., 42., 37., 36., 36., 57., 47.,
          61., 46., 50., 58., 61., 63., 54., 34., 15., 8., 9., 0., 0.,
          0., 0., 0., 0., 0., 0., 0., 0., 0., 0., 0., 0., 0., 0., 0. ]
      - [ 116., 159., 126., 164., 167., 129., 123., 154., 158., 180.,
          240., 333., 437., 520., 266., 339., 244., 97., 25., 2., 1., 0.,
          0., 0., 0., 291., 0., 0., 0., 0., 4., 1., 0., 5., 0., 25., 0.,
          2., 0., 0., 92., 0., 0., 1., 0., 14., 0., 0., 1., 0., 0., 0.,
          0., 0., 0., 136., 0., 0., 0., 0., 0., 1., 0., 1., 0., 6., 0.,
          0., 0., 0., 44., 0., 0., 1., 1., 7., 0., 0., 1., 3., 0., 0.,
          0., 0., 0., 121., 0., 0., 0., 0., 1., 1., 0., 2., 1., 3., 0.,
          1., 0., 1., 10., 0., 0., 0., 0., 10., 0., 0., 2., 0., 2., 2.,
          2., 0., 0., 45., 0., 0., 1., 0., 0., 1., 1., 2., 1., 1., 1.,
          1., 0., 0., 9., 0., 1., 3., 0., 5., 2., 0., 3., 1., 1., 0., 1.,
          0., 0., 107., 0., 1., 1., 1., 3., 1., 2., 2., 1., 3., 4., 4.,
          3., 4., 11., 3., 1., 10., 8., 8., 9., 5., 14., 14., 7., 19.,
          12., 11., 9., 31., 26., 10., 12., 6., 17., 11., 3., 3., 3., 4.,
          11., 6., 7., 5., 4., 1., 4., 3., 4., 3., 4., 4., 2., 2., 2.,
          1., 4., 3., 0., 1., 2., 1., 3., 3., 3., 5., 5., 4., 7., 2., 1.,
          3., 2., 4., 0., 2., 0., 0., 2., 1., 4., 2., 3., 0., 0., 1., 2.,
          0., 1., 2., 5., 1., 3., 1., 0., 2., 3., 1., 1., 2., 6., 5., 4.,
          0., 1., 3., 4., 2., 3., 4., 2., 4., 1., 2., 4., 2., 4., 4., 4.,
          9., 7., 5., 5., 9., 1., 6., 4., 5., 2., 2., 8., 4., 4., 1., 5.,
          5., 4., 6., 8., 1., 6., 5., 8., 3., 4., 9., 6., 6., 5., 5.,
          10., 4., 0., 6., 5., 6., 5., 4., 5., 7., 9., 7., 9., 10., 8.,
          3., 9., 11., 8., 8., 5., 10., 9., 15., 18., 3., 11., 13., 9.,
          14., 8., 6., 19., 21., 18., 14., 12., 9., 14., 14., 20., 6.,
          14., 16., 10., 11., 18., 22., 12., 21., 13., 14., 17., 19.,
          14., 36., 23., 27., 21., 18., 32., 38., 37., 47., 47., 46.,
          84., 85., 98., 83., 104., 153., 156., 150., 218., 169., 157.,
          182., 111., 125., 132., 111., 100., 112., 102., 79., 77., 100.,
          56., 47., 37., 11., 14., 5., 3., 0., 0., 0., 0., 0., 0., 0.,
          0., 0., 0., 0., 0., 0., 0., 0., 0., 0., 0., 0., 0., 0., 0., 0.,
          0., 0., 0., 0., 0., 0., 0., 0., 0., 0., 0., 0. ]
      - [ 0., 1., 0., 2., 0., 4., 1., 0., 3., 0., 25., 5., 1., 5., 5.,
          18., 14., 12., 39., 88., 392., 644., 1521., 2269., 108., 341.,
          0., 7., 2., 7., 4., 5., 0., 14., 2., 33., 0., 0., 0., 0., 74.,
          0., 0., 1., 0., 10., 0., 0., 3., 3., 0., 0., 0., 0., 0., 94.,
          0., 0., 0., 0., 0., 0., 0., 2., 0., 2., 0., 0., 0., 0., 7., 0.,
          0., 0., 0., 0., 0., 0., 0., 0., 0., 0., 0., 0., 0., 46., 0.,
          0., 0., 0., 0., 0., 0., 0., 0., 0., 0., 0., 0., 0., 2., 0., 0.,
          0., 0., 0., 0., 0., 0., 0., 0., 0., 0., 0., 0., 22., 0., 0.,
          0., 0., 0., 0., 0., 0., 0., 3., 0., 0., 0., 0., 4., 0., 0., 0.,
          0., 1., 0., 0., 0., 0., 0., 0., 0., 0., 0., 38., 0., 0., 0.,
          0., 0., 0., 0., 0., 0., 2., 0., 0., 0., 0., 1., 0., 0., 0., 0.,
          0., 0., 0., 1., 0., 0., 0., 0., 0., 0., 18., 14., 21., 8., 7.,
          6., 8., 15., 6., 8., 11., 11., 13., 8., 6., 1., 8., 3., 9., 5.,
          9., 7., 1., 6., 7., 1., 7., 3., 1., 5., 3., 7., 5., 5., 2., 1.,
          3., 4., 2., 3., 2., 0., 2., 1., 2., 2., 1., 0., 2., 3., 1., 3.,
          6., 3., 0., 4., 5., 2., 2., 2., 6., 7., 2., 2., 1., 3., 2., 3.,
          2., 6., 3., 3., 11., 7., 8., 16., 14., 9., 11., 8., 10., 14.,
          12., 12., 18., 14., 19., 14., 20., 32., 23., 27., 28., 24.,
          46., 42., 42., 47., 54., 75., 90., 100., 108., 97., 90., 74.,
          56., 76., 52., 69., 70., 77., 74., 61., 122., 90., 81., 96.,
          96., 41., 47., 86., 43., 58., 69., 49., 68., 47., 76., 47.,
          77., 62., 103., 67., 71., 57., 65., 46., 52., 32., 30., 38.,
          30., 31., 46., 30., 33., 28., 27., 26., 43., 33., 40., 25.,
          37., 27., 35., 33., 37., 37., 20., 46., 24., 40., 30., 16.,
          42., 31., 39., 20., 25., 22., 24., 33., 28., 23., 18., 20.,
          17., 16., 25., 25., 22., 22., 17., 10., 9., 3., 1., 1., 0., 0.,
          0., 0., 0., 0., 0., 0., 0., 0., 0., 0., 0., 0., 0., 0., 0., 0.,
          0., 0., 0., 0., 0., 0., 0., 0., 0., 0., 0., 0., 0., 0., 0., 0.,
          0., 0., 0., 0., 0., 0., 0., 0., 0., 0., 0., 0., 0., 0., 0., 0.,
          0., 0., 0., 0., 0., 0., 0., 0., 0., 0., 0. ]
      - [ 821., 894., 350., 109., 37., 23., 11., 7., 10., 3., 18., 1.,
          3., 2., 0., 9., 5., 0., 6., 2., 3., 0., 0., 3., 0., 111., 0.,
          0., 0., 0., 1., 4., 0., 3., 1., 15., 0., 2., 0., 0., 39., 0.,
          1., 4., 0., 8., 0., 0., 1., 0., 0., 0., 0., 0., 0., 134., 0.,
          0., 0., 0., 0., 0., 0., 1., 0., 11., 0., 3., 2., 0., 34., 0.,
          0., 1., 0., 17., 1., 0., 4., 1., 1., 0., 0., 0., 0., 202., 0.,
          0., 0., 1., 0., 2., 0., 3., 0., 9., 0., 0., 0., 0., 27., 0.,
          0., 0., 0., 9., 0., 0., 0., 1., 0., 0., 0., 0., 0., 62., 0.,
          0., 0., 0., 0., 0., 0., 1., 0., 0., 0., 0., 0., 0., 9., 0., 0.,
          0., 0., 2., 0., 0., 0., 0., 0., 0., 0., 0., 0., 42., 0., 0.,
          0., 0., 0., 0., 0., 1., 0., 1., 0., 0., 0., 0., 23., 0., 2.,
          2., 2., 3., 0., 0., 1., 1., 3., 10., 11., 15., 75., 26., 20.,
          15., 16., 16., 18., 5., 4., 11., 4., 6., 6., 5., 6., 7., 9.,
          8., 5., 5., 9., 4., 8., 5., 1., 2., 1., 4., 2., 3., 6., 2., 4.,
          4., 1., 1., 5., 5., 0., 5., 2., 5., 5., 3., 6., 4., 1., 7., 2.,
          3., 2., 2., 3., 3., 7., 4., 3., 3., 1., 9., 7., 10., 3., 9.,
          8., 5., 6., 5., 5., 8., 6., 10., 3., 2., 5., 3., 4., 4., 2.,
          1., 10., 11., 11., 7., 6., 3., 4., 3., 12., 5., 5., 9., 3., 5.,
          5., 5., 3., 7., 3., 0., 1., 2., 5., 9., 4., 6., 11., 13., 10.,
          10., 9., 7., 10., 3., 8., 5., 8., 8., 9., 8., 14., 9., 5., 12.,
          11., 8., 9., 4., 8., 8., 13., 17., 11., 10., 7., 8., 13., 9.,
          8., 16., 10., 14., 8., 11., 15., 27., 17., 18., 21., 13., 22.,
          27., 23., 16., 20., 24., 23., 16., 31., 36., 13., 25., 30.,
          40., 45., 34., 41., 55., 35., 60., 62., 62., 77., 77., 63.,
          53., 84., 74., 68., 89., 48., 96., 69., 80., 61., 67., 53.,
          37., 69., 54., 60., 60., 44., 56., 56., 69., 63., 59., 57.,
          63., 83., 56., 60., 42., 55., 50., 41., 54., 35., 49., 64.,
          59., 66., 57., 52., 53., 32., 39., 15., 23., 12., 12., 6., 2.,
          10., 12., 5., 13., 0., 0., 6., 0., 4., 0., 0., 0., 0., 0., 0.,
          0., 0., 0., 0., 0., 0., 0., 0., 0., 0., 0., 0., 0. ]
      - [ 0., 2., 0., 1., 0., 6., 0., 2., 0., 0., 27., 2., 0., 5., 5.,
          18., 6., 13., 36., 74., 199., 587., 1554., 2523., 108., 310.,
          1., 7., 11., 8., 6., 4., 1., 20., 3., 40., 0., 6., 1., 0., 88.,
          0., 1., 2., 1., 12., 0., 0., 2., 0., 1., 0., 0., 0., 0., 102.,
          0., 0., 0., 0., 0., 0., 0., 0., 0., 1., 0., 0., 0., 0., 9., 0.,
          0., 0., 0., 2., 0., 0., 0., 0., 0., 0., 0., 0., 0., 58., 0.,
          0., 0., 0., 0., 0., 0., 0., 0., 3., 0., 0., 0., 0., 1., 0., 0.,
          0., 0., 0., 0., 0., 0., 0., 0., 0., 0., 0., 0., 26., 0., 0.,
          0., 0., 0., 0., 0., 0., 0., 0., 0., 0., 0., 0., 4., 0., 0., 0.,
          0., 1., 0., 0., 0., 0., 0., 0., 0., 0., 0., 22., 0., 0., 0.,
          0., 0., 0., 0., 0., 0., 0., 0., 0., 0., 0., 1., 0., 0., 0., 0.,
          0., 0., 0., 0., 1., 0., 0., 0., 0., 0., 27., 25., 7., 23., 9.,
          7., 7., 8., 7., 9., 8., 4., 8., 10., 6., 6., 6., 3., 8., 5.,
          0., 4., 10., 4., 1., 5., 3., 3., 5., 4., 0., 2., 6., 0., 3.,
          7., 6., 2., 4., 4., 2., 5., 2., 3., 5., 3., 2., 1., 1., 3., 5.,
          4., 1., 1., 3., 2., 2., 5., 3., 3., 4., 8., 6., 4., 7., 9., 4.,
          7., 11., 6., 5., 5., 10., 13., 8., 25., 19., 27., 22., 13.,
          15., 12., 12., 13., 13., 26., 22., 19., 18., 18., 35., 20.,
          26., 31., 54., 52., 41., 64., 73., 86., 88., 111., 94., 101.,
          139., 122., 139., 110., 73., 54., 52., 50., 67., 68., 53., 69.,
          63., 64., 84., 74., 35., 50., 33., 59., 59., 35., 50., 47.,
          78., 35., 56., 69., 67., 77., 57., 33., 42., 54., 61., 56.,
          39., 42., 40., 33., 31., 50., 52., 44., 23., 45., 39., 35.,
          30., 39., 34., 27., 27., 29., 32., 33., 19., 40., 34., 30.,
          24., 18., 44., 19., 37., 26., 17., 19., 14., 29., 20., 15.,
          21., 19., 28., 9., 21., 29., 17., 12., 14., 6., 8., 1., 0., 0.,
          0., 0., 0., 0., 0., 0., 0., 0., 0., 0., 0., 0., 0., 0., 0., 0.,
          0., 0., 0., 0., 0., 0., 0., 0., 0., 0., 0., 0., 0., 0., 0., 0.,
          0., 0., 0., 0., 0., 0., 0., 0., 0., 0., 0., 0., 0., 0., 0., 0.,
          0., 0., 0., 0., 0., 0., 0., 0., 0., 0., 0., 0., 0. ]
      - [ 0., 0., 0., 0., 1., 7., 2., 0., 0., 0., 25., 1., 1., 2., 6.,
          18., 15., 13., 40., 97., 262., 486., 1309., 2281., 504., 429.,
          11., 7., 8., 15., 12., 20., 2., 15., 6., 43., 0., 8., 1., 0.,
          64., 0., 3., 1., 0., 22., 0., 0., 3., 1., 0., 0., 0., 0., 0.,
          108., 0., 0., 0., 0., 0., 1., 0., 1., 0., 9., 0., 0., 0., 0.,
          5., 0., 1., 0., 0., 2., 0., 0., 0., 0., 0., 0., 0., 0., 0.,
          34., 0., 0., 0., 0., 0., 0., 0., 0., 0., 2., 0., 0., 0., 0.,
          1., 0., 0., 0., 0., 1., 0., 0., 1., 0., 0., 0., 0., 0., 0.,
          28., 0., 0., 0., 0., 0., 0., 0., 0., 0., 0., 0., 0., 0., 0.,
          5., 0., 0., 0., 0., 7., 0., 0., 0., 0., 0., 0., 0., 0., 0.,
          28., 0., 0., 0., 0., 0., 0., 0., 0., 0., 1., 0., 0., 0., 0.,
          5., 0., 0., 0., 0., 0., 0., 0., 0., 0., 0., 0., 0., 0., 0.,
          35., 28., 26., 13., 8., 12., 8., 12., 9., 6., 6., 14., 6., 8.,
          6., 5., 7., 3., 3., 6., 4., 6., 5., 4., 6., 1., 5., 6., 4., 8.,
          5., 6., 3., 4., 2., 1., 6., 3., 8., 4., 3., 3., 4., 3., 3., 2.,
          1., 8., 1., 8., 5., 11., 6., 6., 4., 3., 12., 6., 5., 5., 6.,
          8., 7., 6., 8., 3., 11., 4., 9., 8., 7., 8., 7., 10., 8., 11.,
          9., 10., 6., 11., 6., 9., 15., 9., 13., 6., 9., 12., 20., 14.,
          14., 25., 17., 31., 27., 26., 29., 37., 32., 47., 44., 46.,
          75., 50., 61., 48., 57., 48., 47., 67., 72., 50., 62., 64.,
          75., 71., 55., 70., 67., 66., 72., 73., 44., 49., 64., 62.,
          80., 53., 75., 62., 56., 53., 52., 48., 50., 36., 42., 62.,
          55., 54., 56., 49., 35., 42., 26., 41., 43., 43., 30., 48.,
          39., 53., 34., 31., 41., 39., 29., 28., 39., 34., 25., 45.,
          26., 32., 34., 29., 49., 43., 39., 40., 25., 37., 44., 41.,
          21., 32., 25., 37., 25., 26., 21., 8., 22., 25., 21., 21., 41.,
          49., 43., 29., 26., 27., 24., 32., 29., 14., 10., 3., 1., 1.,
          0., 0., 0., 0., 0., 0., 0., 0., 0., 0., 0., 0., 0., 0., 0., 0.,
          0., 0., 0., 0., 0., 0., 0., 0., 0., 0., 0., 0., 0., 0., 0., 0.,
          0., 0., 0., 0., 0., 0., 0., 0., 0., 0., 0., 0., 0., 0., 0., 0.,
          0., 0., 0. ]
      - [ 129., 230., 182., 114., 73., 67., 73., 118., 177., 189., 350.,
          549., 498., 371., 305., 224., 140., 52., 54., 29., 9., 5., 0.,
          0., 0., 228., 0., 0., 0., 1., 0., 5., 0., 6., 0., 22., 0., 2.,
          2., 0., 59., 0., 0., 1., 0., 9., 1., 0., 3., 1., 0., 0., 0.,
          0., 0., 93., 0., 0., 0., 0., 0., 0., 0., 5., 1., 4., 0., 1.,
          0., 0., 20., 0., 0., 0., 0., 8., 0., 0., 3., 2., 0., 1., 0.,
          0., 0., 95., 0., 0., 0., 1., 0., 0., 2., 2., 1., 6., 0., 1.,
          0., 0., 19., 0., 0., 4., 2., 2., 2., 0., 2., 2., 0., 3., 0.,
          1., 0., 61., 0., 1., 3., 3., 2., 0., 3., 6., 5., 3., 2., 2.,
          2., 2., 10., 2., 3., 2., 5., 7., 2., 1., 2., 2., 1., 3., 5.,
          6., 2., 100., 0., 4., 6., 5., 3., 2., 2., 7., 3., 8., 1., 2.,
          2., 3., 15., 4., 7., 6., 3., 10., 13., 14., 10., 11., 11., 5.,
          18., 10., 24., 25., 13., 20., 15., 8., 8., 8., 6., 5., 4., 8.,
          5., 3., 3., 4., 6., 6., 5., 5., 3., 2., 5., 5., 4., 9., 3., 8.,
          6., 2., 7., 0., 4., 5., 5., 6., 1., 3., 7., 9., 3., 5., 4., 3.,
          4., 3., 5., 2., 4., 5., 7., 2., 3., 2., 4., 5., 6., 3., 3., 2.,
          1., 2., 5., 4., 4., 1., 3., 4., 2., 7., 3., 3., 5., 4., 3., 2.,
          3., 7., 2., 4., 3., 3., 5., 2., 5., 2., 4., 3., 3., 2., 5., 2.,
          4., 7., 5., 4., 6., 4., 3., 13., 6., 7., 5., 3., 7., 5., 8.,
          12., 9., 6., 9., 3., 3., 3., 4., 1., 5., 6., 1., 2., 7., 1.,
          5., 5., 5., 3., 3., 10., 4., 4., 4., 6., 5., 3., 8., 6., 4.,
          6., 4., 5., 8., 9., 4., 11., 7., 1., 10., 9., 5., 7., 6., 9.,
          9., 17., 14., 20., 17., 25., 31., 16., 19., 11., 11., 23., 18.,
          15., 22., 33., 22., 21., 17., 25., 31., 18., 38., 25., 25.,
          23., 33., 33., 38., 38., 33., 48., 53., 69., 45., 69., 80.,
          92., 99., 118., 104., 131., 184., 164., 255., 253., 225., 298.,
          135., 146., 87., 52., 82., 46., 24., 14., 11., 5., 0., 0., 0.,
          0., 0., 0., 0., 0., 0., 0., 0., 0., 0., 0., 0., 0., 0., 0., 0.,
          0., 0., 0., 0., 0., 0., 0., 0., 0., 0., 0., 0., 0., 0., 0., 0.,
          0., 0., 0., 0., 0., 0., 0. ]
      - [ 0., 2., 0., 1., 0., 3., 0., 2., 0., 0., 36., 2., 4., 6., 2.,
          13., 11., 8., 28., 64., 155., 438., 2338., 1765., 367., 323.,
          0., 4., 10., 10., 8., 9., 1., 25., 0., 61., 0., 2., 0., 0.,
          83., 0., 1., 2., 0., 8., 0., 0., 2., 1., 2., 0., 0., 0., 0.,
          80., 0., 0., 0., 0., 0., 0., 0., 0., 2., 6., 0., 2., 0., 0.,
          5., 0., 0., 0., 0., 8., 0., 0., 3., 0., 0., 0., 0., 0., 0.,
          34., 0., 0., 0., 0., 0., 2., 0., 1., 0., 2., 0., 0., 0., 0.,
          3., 0., 0., 0., 0., 1., 0., 0., 0., 0., 0., 0., 0., 0., 0.,
          20., 0., 0., 0., 0., 0., 0., 0., 3., 0., 0., 0., 1., 0., 0.,
          8., 0., 0., 0., 0., 2., 0., 0., 0., 0., 0., 0., 0., 0., 0.,
          31., 0., 0., 0., 0., 0., 0., 0., 1., 0., 0., 0., 0., 0., 0.,
          12., 0., 0., 0., 0., 2., 0., 0., 0., 0., 0., 0., 0., 0., 0.,
          37., 18., 13., 12., 12., 13., 4., 5., 5., 6., 7., 10., 1., 12.,
          6., 6., 9., 12., 2., 7., 11., 4., 5., 5., 5., 5., 8., 3., 2.,
          6., 4., 3., 4., 3., 7., 10., 8., 1., 0., 6., 2., 2., 1., 1.,
          1., 0., 2., 4., 3., 1., 3., 2., 2., 6., 2., 2., 2., 5., 10.,
          6., 9., 15., 7., 10., 8., 9., 10., 7., 5., 11., 7., 13., 9.,
          5., 5., 12., 12., 7., 12., 7., 15., 15., 9., 8., 14., 15., 17.,
          12., 9., 13., 17., 15., 21., 20., 19., 13., 22., 20., 27., 27.,
          28., 27., 41., 40., 54., 43., 51., 62., 64., 81., 74., 59.,
          64., 64., 65., 49., 54., 54., 50., 64., 70., 80., 46., 90.,
          71., 60., 68., 55., 81., 72., 53., 98., 74., 101., 100., 69.,
          46., 28., 56., 45., 37., 66., 45., 64., 63., 39., 52., 42.,
          42., 65., 59., 34., 48., 20., 36., 31., 30., 40., 34., 30.,
          40., 41., 43., 41., 36., 32., 41., 31., 50., 44., 53., 49.,
          42., 38., 45., 50., 47., 39., 35., 26., 23., 24., 18., 26.,
          27., 19., 21., 19., 29., 28., 15., 27., 20., 6., 5., 0., 1.,
          0., 0., 0., 0., 0., 0., 0., 0., 0., 0., 0., 0., 0., 0., 0., 0.,
          0., 0., 0., 0., 0., 0., 0., 0., 0., 0., 0., 0., 0., 0., 0., 0.,
          0., 0., 0., 0., 0., 0., 0., 0., 0., 0., 0., 0., 0., 0., 0., 0.,
          0., 0., 0., 0., 0., 0. ]
      - [ 0., 2., 0., 2., 0., 1., 7., 16., 29., 28., 58., 82., 166.,
          185., 246., 297., 1448., 1255., 123., 13., 7., 11., 2., 1., 0.,
          329., 0., 0., 1., 1., 1., 4., 2., 9., 1., 45., 0., 4., 2., 0.,
          152., 0., 0., 5., 0., 24., 0., 0., 11., 3., 0., 0., 0., 0., 0.,
          259., 0., 0., 0., 1., 0., 3., 0., 5., 0., 10., 0., 1., 2., 0.,
          40., 0., 0., 1., 0., 12., 0., 0., 0., 0., 0., 0., 0., 0., 0.,
          103., 0., 0., 0., 0., 0., 1., 0., 2., 0., 4., 0., 0., 0., 0.,
          4., 0., 0., 0., 0., 0., 0., 0., 0., 0., 0., 0., 0., 0., 0.,
          31., 0., 0., 0., 0., 0., 0., 0., 0., 0., 0., 0., 0., 0., 0.,
          3., 0., 0., 0., 0., 0., 0., 0., 0., 0., 0., 0., 0., 0., 0.,
          15., 0., 0., 0., 0., 0., 0., 0., 0., 0., 0., 0., 0., 0., 0.,
          1., 0., 0., 0., 0., 0., 0., 0., 1., 0., 0., 0., 1., 0., 0.,
          29., 29., 16., 10., 15., 8., 4., 7., 7., 6., 7., 6., 4., 2.,
          4., 3., 3., 8., 7., 6., 2., 5., 7., 6., 1., 6., 3., 4., 0., 0.,
          2., 9., 4., 3., 5., 1., 1., 4., 1., 3., 0., 0., 0., 0., 1., 1.,
          1., 1., 1., 1., 0., 2., 1., 1., 2., 3., 5., 2., 5., 5., 1., 4.,
          0., 0., 3., 0., 0., 3., 2., 1., 0., 0., 2., 0., 0., 1., 0., 0.,
          2., 0., 1., 0., 1., 1., 3., 1., 1., 4., 4., 3., 0., 3., 0., 1.,
          2., 1., 3., 3., 1., 2., 1., 0., 4., 4., 1., 1., 5., 0., 3., 1.,
          2., 4., 3., 1., 2., 6., 4., 2., 6., 5., 4., 2., 2., 4., 6., 4.,
          11., 6., 4., 2., 6., 1., 1., 8., 2., 4., 6., 6., 4., 2., 1.,
          8., 14., 9., 11., 6., 10., 10., 17., 12., 20., 3., 19., 15.,
          16., 16., 18., 17., 18., 12., 14., 19., 13., 13., 15., 21.,
          17., 18., 27., 25., 18., 14., 26., 25., 24., 36., 35., 40.,
          63., 44., 51., 42., 48., 46., 40., 43., 41., 53., 49., 55.,
          34., 59., 72., 78., 84., 67., 45., 53., 68., 80., 72., 74.,
          63., 41., 67., 70., 83., 42., 41., 47., 71., 57., 50., 56.,
          60., 70., 46., 44., 43., 51., 47., 62., 42., 33., 37., 36.,
          56., 73., 72., 43., 21., 9., 3., 0., 0., 0., 0., 0., 0., 0.,
          0., 0., 0., 0., 0., 0., 0., 0., 0., 0., 0. ]
      - [ 0., 1., 0., 2., 0., 0., 1., 1., 0., 1., 25., 0., 0., 5., 5.,
          24., 17., 12., 52., 50., 67., 88., 74., 111., 111., 1723.,
          1807., 582., 186., 45., 24., 25., 4., 14., 5., 25., 0., 1., 0.,
          0., 21., 0., 0., 0., 0., 1., 0., 0., 0., 0., 0., 0., 0., 0.,
          0., 37., 0., 0., 0., 0., 0., 0., 0., 0., 0., 0., 0., 0., 0.,
          0., 4., 0., 0., 0., 0., 0., 0., 0., 0., 0., 0., 0., 0., 0., 0.,
          33., 0., 0., 0., 0., 0., 0., 0., 0., 0., 0., 0., 0., 0., 0.,
          0., 0., 0., 0., 0., 0., 0., 0., 0., 0., 0., 0., 0., 0., 0.,
          22., 0., 0., 0., 0., 0., 0., 0., 0., 0., 0., 0., 0., 0., 0.,
          0., 0., 0., 0., 0., 0., 0., 0., 0., 0., 0., 0., 0., 0., 0.,
          25., 0., 0., 0., 0., 0., 0., 0., 0., 0., 0., 0., 0., 0., 0.,
          1., 0., 0., 0., 0., 0., 0., 0., 0., 0., 0., 0., 0., 0., 0.,
          29., 23., 26., 22., 13., 15., 11., 12., 14., 12., 3., 9., 11.,
          9., 5., 7., 3., 6., 10., 6., 3., 7., 2., 4., 5., 0., 4., 5.,
          7., 0., 3., 2., 0., 5., 5., 3., 4., 10., 3., 6., 11., 3., 2.,
          1., 2., 4., 4., 2., 4., 6., 4., 5., 0., 2., 1., 2., 5., 3., 1.,
          1., 2., 7., 4., 2., 2., 3., 2., 6., 6., 2., 9., 10., 18., 21.,
          23., 13., 10., 13., 15., 22., 33., 16., 25., 22., 20., 22.,
          28., 26., 39., 44., 34., 53., 21., 45., 59., 65., 61., 52.,
          53., 45., 47., 52., 54., 47., 42., 50., 43., 35., 32., 36.,
          19., 32., 36., 43., 39., 57., 36., 35., 29., 26., 33., 27.,
          51., 37., 17., 30., 40., 49., 41., 41., 24., 24., 42., 23.,
          35., 39., 29., 24., 30., 16., 23., 26., 23., 12., 23., 26.,
          19., 27., 22., 23., 28., 23., 14., 24., 31., 22., 25., 35.,
          21., 21., 24., 23., 17., 24., 24., 37., 22., 25., 23., 36., 6.,
          17., 29., 23., 39., 31., 35., 33., 27., 29., 31., 24., 19.,
          37., 28., 24., 34., 12., 45., 34., 12., 22., 39., 35., 29.,
          36., 22., 29., 18., 29., 17., 25., 10., 14., 9., 3., 3., 1.,
          2., 4., 0., 3., 0., 0., 0., 0., 0., 0., 0., 0., 0., 0., 0., 0.,
          0., 0., 0., 0., 0., 0., 0., 0., 0., 0., 0., 0., 0., 0., 0., 0.,
          0., 0., 0., 0., 0., 0., 0., 0., 0., 0., 0. ]
      - [ 0., 0., 0., 2., 0., 1., 0., 1., 2., 0., 25., 0., 1., 6., 3.,
          24., 17., 6., 38., 109., 399., 556., 1661., 2118., 106., 399.,
          0., 8., 14., 23., 8., 13., 2., 16., 7., 36., 2., 0., 0., 0.,
          97., 0., 0., 0., 0., 4., 0., 0., 0., 0., 0., 0., 0., 0., 0.,
          92., 0., 0., 0., 0., 0., 0., 0., 0., 0., 3., 0., 0., 0., 0.,
          7., 0., 0., 0., 0., 4., 0., 0., 1., 0., 0., 0., 0., 0., 0.,
          43., 0., 0., 0., 0., 0., 0., 0., 0., 0., 0., 0., 0., 0., 0.,
          2., 0., 0., 0., 0., 0., 0., 0., 0., 0., 0., 0., 0., 0., 0.,
          16., 0., 0., 0., 0., 0., 0., 0., 0., 0., 0., 0., 0., 0., 0.,
          2., 0., 0., 0., 0., 0., 0., 0., 0., 0., 0., 0., 0., 0., 0.,
          23., 0., 0., 0., 0., 0., 0., 0., 0., 0., 1., 0., 0., 0., 0.,
          1., 0., 0., 0., 0., 0., 0., 0., 1., 0., 0., 0., 0., 0., 0.,
          36., 31., 21., 26., 16., 14., 13., 18., 9., 8., 11., 9., 4.,
          3., 5., 18., 6., 5., 2., 3., 9., 4., 1., 4., 3., 1., 2., 1.,
          5., 0., 5., 4., 6., 5., 8., 0., 1., 2., 2., 3., 0., 3., 5., 3.,
          3., 4., 4., 1., 0., 2., 6., 4., 3., 2., 1., 3., 5., 6., 7., 6.,
          10., 2., 6., 5., 3., 1., 2., 1., 3., 1., 3., 1., 4., 6., 5.,
          7., 5., 7., 22., 32., 17., 19., 7., 32., 16., 34., 35., 34.,
          31., 28., 27., 47., 18., 34., 37., 39., 27., 38., 35., 50.,
          58., 77., 80., 67., 75., 40., 56., 52., 85., 69., 54., 60.,
          72., 96., 52., 67., 94., 84., 95., 58., 70., 86., 48., 109.,
          120., 51., 81., 63., 89., 53., 47., 64., 35., 37., 51., 49.,
          45., 37., 43., 31., 45., 38., 33., 38., 45., 38., 37., 43.,
          32., 33., 35., 37., 33., 46., 43., 35., 29., 25., 34., 40.,
          33., 35., 44., 38., 42., 14., 39., 25., 36., 21., 15., 17.,
          27., 27., 24., 21., 27., 19., 22., 25., 22., 17., 18., 18.,
          18., 22., 19., 15., 8., 4., 0., 0., 0., 0., 0., 0., 0., 0., 0.,
          0., 0., 0., 0., 0., 0., 0., 0., 0., 0., 0., 0., 0., 0., 0., 0.,
          0., 0., 0., 0., 0., 0., 0., 0., 0., 0., 0., 0., 0., 0., 0., 0.,
          0., 0., 0., 0., 0., 0., 0., 0., 0., 0., 0., 0., 0., 0., 0., 0.,
          0., 0., 0., 0. ]
      - [ 0., 1., 0., 3., 0., 5., 0., 2., 1., 0., 38., 0., 2., 10., 1.,
          31., 10., 9., 56., 121., 323., 685., 1771., 1972., 55., 423.,
          2., 3., 10., 15., 6., 15., 4., 23., 2., 50., 0., 3., 0., 0.,
          102., 0., 0., 0., 0., 11., 0., 0., 1., 0., 0., 0., 0., 0., 0.,
          72., 0., 0., 0., 0., 0., 0., 0., 0., 0., 3., 0., 0., 0., 0.,
          9., 0., 0., 0., 0., 2., 0., 0., 0., 0., 0., 0., 0., 0., 0.,
          24., 0., 0., 0., 0., 0., 0., 0., 0., 0., 2., 0., 0., 0., 0.,
          3., 0., 0., 0., 0., 0., 0., 0., 0., 0., 0., 0., 0., 0., 0.,
          15., 0., 0., 0., 0., 0., 0., 0., 0., 0., 0., 0., 0., 0., 0.,
          0., 0., 0., 0., 0., 1., 0., 0., 1., 0., 0., 0., 0., 0., 0.,
          16., 0., 0., 0., 0., 0., 0., 0., 0., 0., 1., 0., 0., 0., 0.,
          5., 0., 0., 0., 0., 0., 0., 0., 0., 0., 0., 0., 0., 0., 0.,
          37., 19., 12., 15., 13., 27., 9., 8., 11., 7., 7., 14., 19.,
          0., 6., 4., 1., 8., 2., 6., 4., 2., 3., 4., 3., 3., 9., 1., 3.,
          3., 6., 3., 8., 4., 5., 1., 5., 2., 4., 2., 1., 3., 1., 3., 7.,
          2., 1., 2., 0., 8., 2., 1., 8., 2., 5., 8., 6., 2., 7., 2., 7.,
          6., 2., 5., 1., 4., 0., 5., 3., 5., 3., 4., 8., 7., 12., 9.,
          10., 15., 12., 13., 20., 17., 14., 14., 16., 26., 16., 22.,
          24., 37., 12., 27., 25., 30., 38., 33., 42., 52., 40., 45.,
          64., 51., 62., 74., 83., 76., 49., 81., 78., 81., 71., 54.,
          77., 55., 77., 91., 97., 92., 86., 57., 60., 96., 57., 54.,
          83., 49., 60., 53., 54., 56., 41., 24., 34., 54., 49., 39.,
          58., 38., 52., 51., 44., 36., 35., 27., 50., 34., 35., 28.,
          38., 35., 35., 45., 56., 27., 29., 42., 35., 25., 41., 26.,
          43., 32., 37., 33., 47., 25., 54., 35., 48., 31., 30., 37.,
          34., 26., 23., 26., 22., 19., 25., 14., 20., 34., 21., 22.,
          21., 18., 32., 18., 13., 4., 4., 1., 2., 0., 0., 0., 0., 0.,
          0., 0., 0., 0., 0., 0., 0., 0., 0., 0., 0., 0., 0., 0., 0., 0.,
          0., 0., 0., 0., 0., 0., 0., 0., 0., 0., 0., 0., 0., 0., 0., 0.,
          0., 0., 0., 0., 0., 0., 0., 0., 0., 0., 0., 0., 0., 0., 0., 0.,
          0., 0., 0., 0., 0. ]
      - [ 551., 471., 430., 414., 376., 341., 365., 387., 242., 42., 39.,
          3., 8., 2., 7., 17., 8., 0., 7., 2., 3., 3., 2., 0., 0., 140.,
          0., 0., 0., 1., 0., 0., 0., 2., 0., 10., 0., 0., 0., 0., 51.,
          0., 0., 0., 0., 14., 0., 0., 0., 0., 0., 0., 0., 0., 0., 134.,
          0., 0., 0., 0., 0., 0., 0., 0., 1., 9., 0., 0., 0., 0., 52.,
          0., 0., 1., 0., 34., 0., 0., 11., 11., 2., 1., 0., 0., 0.,
          177., 0., 0., 0., 1., 1., 0., 0., 5., 0., 8., 0., 1., 0., 0.,
          11., 0., 0., 1., 0., 1., 0., 0., 1., 0., 0., 0., 0., 0., 0.,
          68., 0., 0., 0., 0., 0., 0., 0., 0., 0., 0., 0., 0., 0., 0.,
          8., 0., 0., 0., 0., 1., 0., 0., 1., 0., 0., 0., 0., 0., 0.,
          41., 0., 0., 0., 0., 0., 0., 0., 0., 0., 2., 0., 0., 0., 0.,
          17., 0., 0., 1., 3., 8., 1., 0., 5., 3., 2., 7., 10., 12., 22.,
          37., 22., 13., 10., 11., 25., 8., 7., 14., 10., 8., 5., 5., 5.,
          11., 4., 6., 5., 1., 4., 4., 5., 5., 8., 5., 1., 0., 5., 2.,
          7., 7., 7., 5., 3., 1., 7., 0., 1., 2., 2., 6., 1., 3., 3., 2.,
          4., 7., 4., 0., 2., 1., 8., 4., 2., 4., 4., 5., 3., 2., 3., 3.,
          6., 7., 3., 7., 4., 4., 3., 0., 0., 4., 4., 3., 2., 3., 1., 8.,
          13., 18., 13., 13., 6., 9., 11., 10., 18., 5., 10., 7., 11.,
          10., 12., 18., 11., 6., 11., 13., 19., 11., 9., 9., 6., 11.,
          12., 11., 6., 19., 12., 17., 10., 6., 11., 14., 12., 15., 19.,
          13., 24., 11., 18., 18., 18., 18., 8., 13., 29., 17., 14., 17.,
          17., 33., 25., 25., 38., 22., 24., 23., 27., 30., 24., 25.,
          29., 24., 20., 23., 22., 25., 37., 28., 25., 34., 43., 38.,
          49., 34., 30., 40., 61., 72., 84., 61., 66., 67., 77., 72.,
          55., 73., 65., 73., 63., 51., 73., 87., 73., 72., 70., 85.,
          88., 98., 68., 64., 73., 71., 85., 64., 79., 70., 51., 47.,
          42., 45., 42., 38., 33., 26., 22., 34., 37., 29., 30., 25.,
          27., 18., 11., 15., 5., 3., 0., 0., 0., 0., 0., 0., 0., 0., 0.,
          0., 0., 0., 0., 0., 0., 0., 0., 0., 0., 0., 0., 0., 0., 0., 0.,
          0., 0., 0., 0., 0., 0., 0., 0., 0., 0., 0., 0., 0., 0., 0., 0.,
          0., 0., 0. ]
      - [ 61., 113., 89., 97., 113., 115., 143., 225., 295., 318., 447.,
          228., 464., 421., 332., 230., 108., 93., 43., 19., 6., 0., 0.,
          0., 0., 192., 0., 1., 1., 0., 1., 0., 0., 5., 0., 22., 1., 1.,
          1., 0., 101., 0., 0., 1., 0., 16., 0., 0., 3., 2., 1., 0., 0.,
          0., 0., 134., 0., 0., 0., 0., 0., 1., 0., 5., 0., 9., 0., 1.,
          0., 0., 34., 0., 0., 0., 0., 7., 0., 0., 7., 4., 1., 0., 0.,
          0., 0., 73., 0., 0., 0., 4., 1., 1., 0., 3., 0., 10., 0., 2.,
          2., 1., 18., 0., 1., 1., 0., 6., 2., 0., 2., 0., 0., 3., 0.,
          1., 0., 48., 0., 1., 0., 5., 1., 0., 3., 7., 2., 6., 1., 2.,
          2., 2., 15., 0., 1., 4., 2., 13., 1., 0., 3., 2., 2., 4., 1.,
          2., 0., 67., 1., 1., 0., 4., 2., 3., 2., 1., 3., 7., 4., 6.,
          10., 2., 10., 7., 7., 9., 11., 8., 13., 7., 15., 17., 5., 17.,
          12., 17., 24., 27., 22., 14., 14., 10., 10., 5., 3., 5., 8.,
          6., 3., 6., 8., 2., 6., 5., 10., 5., 5., 3., 3., 1., 6., 4.,
          1., 1., 3., 2., 1., 2., 3., 1., 2., 2., 5., 2., 3., 4., 7., 1.,
          5., 6., 5., 3., 5., 4., 2., 4., 2., 0., 4., 2., 5., 2., 2., 4.,
          4., 1., 2., 2., 2., 6., 7., 2., 3., 2., 7., 6., 4., 5., 2., 2.,
          8., 4., 8., 9., 5., 8., 5., 5., 4., 8., 6., 1., 5., 6., 5., 6.,
          1., 3., 6., 10., 10., 4., 10., 2., 7., 4., 6., 4., 8., 1., 4.,
          6., 1., 9., 6., 3., 5., 3., 5., 6., 5., 3., 9., 8., 4., 3.,
          10., 5., 1., 6., 2., 7., 7., 7., 2., 1., 4., 3., 4., 4., 6.,
          5., 5., 9., 2., 5., 11., 5., 2., 3., 7., 8., 2., 5., 5., 5.,
          5., 2., 2., 3., 9., 14., 3., 14., 6., 11., 10., 11., 11., 6.,
          8., 15., 13., 15., 10., 21., 21., 33., 21., 29., 26., 26., 28.,
          28., 37., 32., 33., 41., 42., 36., 39., 52., 56., 59., 81.,
          45., 113., 101., 152., 157., 171., 295., 337., 362., 272.,
          240., 114., 145., 93., 76., 59., 25., 28., 13., 1., 0., 0., 0.,
          0., 0., 0., 0., 0., 0., 0., 0., 0., 0., 0., 0., 0., 0., 0., 0.,
          0., 0., 0., 0., 0., 0., 0., 0., 0., 0., 0., 0., 0., 0., 0., 0.,
          0., 0., 0., 0., 0., 0., 0., 0. ]
      - [ 125., 119., 172., 130., 173., 176., 127., 99., 202., 151.,
          276., 356., 444., 487., 287., 339., 223., 107., 29., 3., 3.,
          1., 0., 0., 0., 274., 0., 0., 0., 0., 1., 6., 0., 13., 0., 38.,
          0., 4., 0., 0., 80., 0., 1., 6., 0., 14., 0., 0., 4., 3., 0.,
          0., 0., 0., 0., 175., 0., 0., 0., 1., 0., 1., 0., 2., 0., 7.,
          0., 1., 0., 0., 27., 0., 0., 0., 0., 7., 0., 0., 2., 0., 0.,
          0., 0., 0., 0., 101., 0., 0., 0., 0., 0., 2., 0., 3., 1., 12.,
          2., 1., 0., 0., 8., 0., 1., 1., 0., 2., 2., 0., 4., 0., 2., 0.,
          1., 0., 0., 31., 0., 0., 2., 0., 2., 1., 0., 4., 1., 2., 0.,
          3., 2., 3., 3., 0., 1., 4., 0., 4., 0., 0., 2., 2., 3., 1., 3.,
          0., 1., 88., 0., 0., 0., 1., 2., 1., 1., 1., 4., 10., 2., 3.,
          2., 3., 15., 1., 7., 10., 1., 4., 4., 2., 15., 11., 7., 17.,
          8., 7., 10., 36., 17., 17., 11., 3., 10., 7., 10., 5., 3., 2.,
          5., 8., 0., 2., 4., 5., 10., 2., 4., 5., 3., 2., 3., 3., 5.,
          5., 0., 2., 6., 7., 1., 3., 2., 2., 0., 1., 5., 7., 4., 1., 1.,
          3., 2., 6., 1., 2., 1., 2., 1., 3., 4., 3., 1., 2., 3., 0., 3.,
          6., 0., 2., 0., 2., 0., 2., 1., 3., 0., 7., 5., 2., 4., 0., 4.,
          2., 3., 2., 2., 5., 3., 1., 2., 1., 2., 1., 1., 3., 4., 5., 3.,
          4., 4., 2., 3., 1., 2., 1., 5., 2., 2., 5., 3., 4., 2., 3., 4.,
          5., 6., 1., 4., 2., 4., 7., 3., 2., 5., 3., 7., 10., 2., 11.,
          6., 8., 6., 9., 9., 4., 13., 7., 7., 4., 2., 3., 10., 13., 10.,
          6., 4., 6., 8., 10., 4., 10., 9., 11., 12., 12., 13., 15., 8.,
          12., 15., 10., 16., 10., 11., 10., 11., 23., 15., 19., 7., 11.,
          16., 18., 8., 12., 17., 19., 12., 15., 11., 20., 16., 12., 29.,
          19., 21., 25., 23., 48., 53., 59., 50., 55., 72., 69., 83.,
          57., 111., 74., 103., 145., 126., 167., 186., 181., 168., 172.,
          112., 151., 102., 97., 102., 140., 103., 75., 88., 87., 53.,
          40., 30., 7., 1., 1., 1., 0., 0., 0., 0., 0., 0., 0., 0., 0.,
          0., 0., 0., 0., 0., 0., 0., 0., 0., 0., 0., 0., 0., 0., 0., 0.,
          0., 0., 0., 0., 0., 0., 0., 0., 0., 0. ]
      - [ 0., 1., 0., 1., 2., 4., 6., 20., 19., 52., 166., 146., 142.,
          151., 203., 407., 2359., 447., 18., 11., 14., 2., 1., 4., 0.,
          337., 0., 1., 1., 1., 6., 9., 0., 18., 1., 71., 1., 3., 3., 0.,
          142., 0., 0., 3., 0., 33., 1., 0., 9., 0., 1., 0., 0., 0., 0.,
          180., 0., 0., 0., 1., 0., 0., 0., 1., 0., 8., 0., 1., 0., 0.,
          45., 0., 0., 0., 0., 6., 0., 0., 0., 0., 0., 0., 0., 0., 0.,
          101., 0., 0., 0., 0., 0., 3., 0., 0., 0., 7., 0., 0., 0., 0.,
          9., 0., 0., 1., 0., 3., 0., 0., 0., 0., 0., 0., 0., 0., 0.,
          29., 0., 0., 0., 0., 0., 0., 0., 0., 0., 0., 0., 0., 0., 0.,
          12., 0., 0., 0., 0., 0., 0., 0., 0., 0., 0., 0., 0., 0., 0.,
          33., 0., 0., 0., 0., 0., 0., 0., 0., 0., 2., 0., 0., 0., 0.,
          5., 0., 0., 0., 0., 1., 0., 0., 0., 0., 0., 0., 1., 0., 0.,
          32., 23., 9., 8., 5., 6., 7., 7., 8., 3., 5., 6., 7., 6., 3.,
          5., 5., 1., 3., 6., 4., 6., 4., 7., 1., 6., 1., 2., 3., 2., 2.,
          2., 1., 2., 4., 6., 2., 5., 1., 3., 2., 6., 1., 0., 1., 1., 2.,
          1., 1., 0., 0., 5., 1., 2., 2., 6., 2., 2., 2., 0., 1., 2., 0.,
          2., 2., 0., 1., 2., 1., 3., 1., 2., 1., 2., 1., 0., 4., 2., 1.,
          0., 7., 2., 1., 1., 4., 4., 3., 1., 2., 1., 3., 1., 2., 1., 1.,
          1., 0., 0., 2., 1., 2., 3., 3., 1., 0., 2., 1., 1., 1., 1., 1.,
          2., 1., 1., 1., 0., 1., 2., 2., 0., 2., 11., 5., 15., 16., 11.,
          23., 21., 19., 11., 14., 9., 8., 12., 10., 15., 23., 13., 9.,
          9., 3., 11., 10., 8., 7., 5., 18., 12., 9., 11., 16., 22., 12.,
          16., 16., 13., 24., 19., 20., 6., 14., 23., 19., 23., 36., 40.,
          32., 47., 31., 34., 34., 24., 29., 28., 52., 26., 32., 43.,
          22., 24., 54., 27., 31., 30., 33., 32., 21., 32., 26., 30.,
          43., 76., 76., 34., 40., 37., 53., 53., 31., 67., 57., 57.,
          66., 49., 38., 43., 41., 36., 34., 57., 48., 37., 34., 50.,
          49., 40., 46., 56., 44., 71., 79., 86., 51., 70., 86., 112.,
          94., 56., 36., 37., 36., 30., 32., 45., 26., 17., 10., 4., 0.,
          0., 0., 0., 0., 0., 0., 0., 0., 0., 0., 0., 0. ]
      - [ 0., 1., 0., 3., 0., 5., 1., 1., 4., 0., 39., 0., 1., 3., 9.,
          26., 11., 18., 37., 90., 354., 623., 1147., 2460., 365., 410.,
          1., 13., 6., 5., 4., 8., 4., 14., 1., 48., 0., 2., 5., 0., 62.,
          0., 0., 1., 0., 9., 0., 0., 0., 4., 1., 0., 0., 0., 0., 39.,
          0., 0., 0., 0., 0., 0., 0., 1., 0., 0., 0., 0., 0., 0., 5., 0.,
          0., 0., 0., 5., 0., 0., 1., 0., 0., 0., 0., 0., 0., 23., 0.,
          0., 0., 0., 0., 0., 0., 0., 0., 1., 0., 0., 0., 0., 10., 0.,
          0., 0., 0., 0., 0., 0., 0., 0., 0., 0., 0., 0., 0., 27., 0.,
          0., 0., 0., 0., 0., 0., 0., 0., 0., 0., 0., 0., 0., 6., 0., 0.,
          2., 0., 5., 0., 0., 0., 0., 0., 0., 0., 0., 0., 20., 0., 0.,
          0., 0., 0., 0., 0., 1., 0., 1., 0., 0., 0., 0., 12., 0., 0.,
          0., 0., 2., 0., 0., 0., 0., 0., 0., 0., 0., 0., 26., 18., 14.,
          13., 11., 13., 8., 8., 10., 10., 9., 5., 13., 4., 7., 2., 2.,
          4., 7., 7., 3., 7., 6., 2., 5., 17., 8., 2., 1., 1., 3., 5.,
          6., 7., 2., 3., 3., 2., 4., 1., 3., 4., 1., 5., 0., 1., 2., 0.,
          11., 2., 2., 3., 0., 2., 4., 2., 2., 0., 4., 2., 1., 2., 10.,
          10., 8., 14., 9., 19., 18., 26., 15., 7., 21., 19., 10., 17.,
          23., 17., 22., 13., 23., 12., 23., 15., 26., 32., 32., 25.,
          25., 58., 26., 50., 55., 42., 67., 67., 67., 90., 56., 89.,
          66., 64., 49., 50., 50., 55., 63., 65., 41., 57., 58., 47.,
          54., 59., 61., 64., 62., 68., 46., 65., 65., 72., 59., 57.,
          72., 42., 62., 39., 45., 36., 73., 57., 42., 74., 66., 76.,
          62., 68., 68., 70., 51., 49., 47., 42., 45., 41., 45., 59.,
          32., 31., 34., 40., 39., 43., 30., 32., 35., 32., 36., 22.,
          30., 18., 25., 37., 34., 22., 31., 26., 25., 42., 36., 30.,
          33., 26., 23., 20., 19., 23., 26., 15., 17., 14., 13., 19.,
          12., 10., 9., 4., 1., 3., 1., 0., 0., 0., 0., 0., 0., 0., 0.,
          0., 0., 0., 0., 0., 0., 0., 0., 0., 0., 0., 0., 0., 0., 0., 0.,
          0., 0., 0., 0., 0., 0., 0., 0., 0., 0., 0., 0., 0., 0., 0., 0.,
          0., 0., 0., 0., 0., 0., 0., 0., 0., 0., 0., 0., 0., 0., 0., 0.,
          0., 0., 0., 0. ]
      - [ 55., 132., 110., 106., 118., 167., 215., 281., 326., 248.,
          241., 227., 525., 535., 309., 225., 118., 66., 41., 15., 18.,
          7., 0., 0., 0., 247., 0., 0., 1., 3., 2., 2., 0., 6., 1., 37.,
          0., 1., 0., 0., 80., 0., 1., 3., 0., 16., 0., 0., 4., 3., 0.,
          0., 0., 0., 0., 157., 0., 0., 0., 0., 0., 3., 0., 9., 0., 9.,
          0., 4., 0., 0., 37., 0., 0., 3., 0., 12., 0., 0., 10., 3., 0.,
          0., 0., 0., 0., 107., 0., 0., 0., 0., 0., 6., 0., 6., 1., 6.,
          0., 5., 2., 0., 15., 0., 1., 2., 0., 4., 1., 0., 2., 0., 2.,
          2., 2., 0., 0., 47., 0., 0., 3., 0., 0., 3., 1., 1., 4., 5.,
          6., 3., 2., 2., 10., 0., 2., 2., 1., 3., 2., 1., 6., 6., 4.,
          3., 0., 3., 0., 65., 0., 0., 3., 0., 4., 2., 2., 6., 6., 4.,
          5., 3., 4., 6., 13., 8., 5., 5., 9., 5., 13., 14., 5., 13.,
          11., 10., 14., 15., 20., 53., 33., 20., 13., 16., 8., 12., 5.,
          4., 4., 8., 0., 8., 10., 3., 2., 4., 1., 5., 1., 3., 7., 1.,
          9., 1., 2., 3., 2., 4., 2., 7., 2., 4., 3., 3., 1., 2., 4., 1.,
          2., 4., 1., 3., 9., 4., 3., 2., 2., 3., 3., 4., 2., 1., 5., 3.,
          1., 5., 2., 3., 1., 2., 6., 2., 5., 0., 4., 3., 2., 5., 0., 4.,
          5., 7., 1., 5., 1., 4., 3., 8., 3., 4., 2., 3., 3., 5., 3., 1.,
          11., 4., 6., 4., 7., 5., 5., 4., 4., 10., 8., 1., 9., 3., 4.,
          4., 3., 5., 6., 3., 3., 6., 4., 6., 3., 3., 4., 2., 0., 2., 1.,
          3., 4., 8., 5., 3., 3., 5., 2., 4., 4., 5., 3., 10., 6., 5.,
          3., 8., 10., 3., 3., 1., 9., 5., 10., 7., 7., 4., 4., 2., 2.,
          6., 3., 4., 2., 3., 6., 3., 8., 12., 9., 8., 9., 13., 9., 22.,
          21., 13., 10., 10., 12., 14., 6., 5., 19., 22., 13., 13., 19.,
          18., 32., 34., 33., 36., 37., 39., 45., 62., 55., 47., 94.,
          88., 131., 129., 178., 227., 257., 247., 357., 310., 219.,
          263., 149., 152., 88., 42., 34., 48., 28., 9., 1., 0., 0., 0.,
          0., 0., 0., 0., 0., 0., 0., 0., 0., 0., 0., 0., 0., 0., 0., 0.,
          0., 0., 0., 0., 0., 0., 0., 0., 0., 0., 0., 0., 0., 0., 0., 0.,
          0., 0., 0., 0., 0., 0., 0., 0. ]
      - [ 0., 0., 0., 0., 0., 4., 0., 2., 3., 0., 16., 1., 1., 8., 6.,
          17., 12., 16., 49., 150., 225., 469., 1192., 2382., 384., 391.,
          3., 7., 6., 9., 13., 9., 0., 23., 3., 45., 1., 1., 2., 0., 93.,
          0., 0., 1., 0., 18., 0., 0., 3., 1., 0., 0., 0., 0., 0., 153.,
          0., 0., 0., 0., 0., 0., 0., 1., 0., 3., 0., 0., 0., 0., 7., 0.,
          0., 0., 0., 3., 0., 0., 1., 0., 0., 0., 0., 0., 0., 57., 0.,
          0., 0., 0., 0., 0., 0., 0., 0., 1., 0., 0., 0., 0., 9., 0., 0.,
          0., 0., 0., 0., 0., 0., 0., 0., 0., 0., 0., 0., 32., 0., 0.,
          0., 0., 0., 0., 0., 0., 0., 0., 0., 0., 0., 0., 10., 0., 0.,
          0., 0., 0., 0., 0., 0., 0., 0., 0., 0., 0., 0., 46., 0., 0.,
          0., 0., 0., 0., 0., 0., 0., 0., 0., 0., 0., 0., 1., 0., 0., 0.,
          0., 0., 0., 0., 0., 0., 0., 0., 0., 0., 0., 37., 39., 23., 14.,
          6., 7., 10., 11., 10., 7., 7., 4., 12., 8., 3., 12., 6., 2.,
          8., 2., 6., 2., 12., 5., 11., 3., 4., 3., 5., 7., 0., 6., 1.,
          1., 3., 2., 5., 6., 2., 2., 10., 6., 7., 4., 8., 3., 2., 2.,
          6., 4., 2., 4., 4., 2., 1., 8., 1., 1., 6., 4., 11., 4., 4.,
          7., 4., 6., 2., 8., 15., 9., 5., 5., 6., 11., 11., 8., 6., 17.,
          9., 13., 18., 10., 12., 9., 18., 22., 8., 16., 27., 22., 15.,
          23., 25., 24., 27., 21., 24., 25., 41., 24., 55., 27., 65.,
          53., 71., 50., 42., 53., 54., 62., 53., 74., 55., 73., 70.,
          72., 75., 98., 110., 73., 93., 94., 45., 65., 43., 36., 65.,
          63., 38., 39., 39., 38., 33., 34., 42., 42., 33., 42., 50.,
          42., 32., 50., 37., 35., 50., 32., 42., 46., 26., 44., 55.,
          51., 36., 33., 40., 25., 48., 51., 43., 25., 46., 47., 44.,
          45., 45., 25., 50., 45., 54., 45., 33., 43., 40., 44., 32.,
          43., 28., 36., 30., 23., 32., 17., 22., 27., 22., 19., 20.,
          17., 15., 10., 10., 6., 4., 2., 2., 1., 1., 0., 0., 0., 0., 0.,
          0., 0., 0., 0., 0., 0., 0., 0., 0., 0., 0., 0., 0., 0., 0., 0.,
          0., 0., 0., 0., 0., 0., 0., 0., 0., 0., 0., 0., 0., 0., 0., 0.,
          0., 0., 0., 0., 0., 0., 0., 0., 0., 0., 0., 0., 0., 0., 0., 0.,
          0. ]
      - [ 988., 653., 278., 130., 74., 78., 58., 53., 38., 33., 56., 3.,
          5., 14., 11., 18., 1., 1., 13., 5., 6., 4., 0., 0., 0., 188.,
          0., 3., 0., 1., 0., 1., 0., 4., 0., 22., 0., 3., 0., 0., 34.,
          0., 0., 0., 0., 12., 0., 0., 3., 0., 0., 0., 0., 0., 0., 114.,
          0., 0., 0., 0., 1., 0., 0., 1., 0., 9., 0., 0., 0., 0., 26.,
          0., 0., 6., 0., 17., 0., 0., 3., 0., 2., 0., 0., 0., 0., 187.,
          0., 0., 0., 0., 1., 1., 0., 1., 0., 5., 0., 0., 0., 0., 13.,
          0., 0., 0., 0., 3., 0., 0., 0., 0., 0., 0., 0., 0., 0., 66.,
          0., 0., 0., 0., 0., 0., 0., 0., 0., 2., 0., 0., 0., 0., 3., 0.,
          0., 0., 0., 2., 0., 0., 0., 0., 0., 0., 0., 0., 0., 61., 0.,
          0., 0., 0., 0., 0., 0., 0., 0., 1., 0., 0., 0., 0., 8., 0., 0.,
          1., 0., 0., 0., 0., 1., 0., 0., 5., 5., 10., 47., 25., 20.,
          15., 12., 5., 3., 11., 8., 17., 9., 8., 7., 10., 7., 9., 8.,
          8., 8., 6., 4., 5., 6., 18., 5., 8., 1., 6., 1., 5., 4., 5.,
          0., 3., 1., 9., 2., 1., 4., 3., 0., 4., 2., 5., 4., 4., 1., 3.,
          0., 3., 4., 1., 3., 0., 4., 2., 1., 0., 4., 5., 0., 0., 3., 1.,
          1., 1., 2., 0., 2., 1., 2., 1., 4., 6., 4., 3., 3., 7., 5., 5.,
          6., 6., 2., 6., 6., 5., 5., 8., 6., 5., 7., 5., 4., 5., 10.,
          6., 5., 11., 2., 3., 5., 8., 8., 3., 9., 8., 9., 7., 3., 1.,
          5., 6., 10., 5., 2., 8., 6., 5., 6., 7., 13., 12., 8., 13., 9.,
          8., 17., 7., 20., 5., 6., 16., 8., 9., 12., 12., 21., 14., 17.,
          16., 30., 28., 17., 17., 21., 29., 17., 27., 19., 20., 18.,
          16., 17., 26., 26., 34., 18., 16., 25., 29., 26., 15., 35.,
          29., 36., 37., 34., 41., 36., 52., 44., 39., 41., 56., 47.,
          44., 42., 41., 37., 50., 37., 35., 60., 42., 60., 48., 76.,
          66., 58., 68., 72., 60., 41., 70., 53., 92., 65., 43., 66.,
          43., 70., 71., 40., 55., 53., 51., 49., 40., 62., 49., 75.,
          90., 90., 85., 63., 71., 74., 55., 40., 24., 22., 7., 1., 1.,
          2., 0., 0., 0., 0., 0., 0., 0., 0., 0., 0., 0., 0., 0., 0., 0.,
          0., 0., 0., 0., 0., 0., 0., 0., 0., 0., 0., 0. ]
      - [ 148., 225., 131., 89., 105., 100., 101., 146., 156., 107.,
          177., 168., 243., 479., 661., 774., 243., 19., 15., 2., 0., 1.,
          0., 0., 0., 270., 0., 0., 0., 0., 0., 2., 0., 10., 0., 30., 1.,
          1., 5., 0., 54., 0., 0., 2., 0., 11., 0., 0., 5., 0., 1., 0.,
          0., 0., 0., 122., 0., 0., 0., 0., 0., 1., 0., 0., 0., 4., 0.,
          2., 0., 0., 19., 0., 0., 2., 0., 6., 0., 0., 1., 1., 1., 0.,
          0., 0., 0., 95., 0., 0., 0., 0., 0., 3., 1., 1., 1., 5., 2.,
          1., 0., 0., 24., 1., 0., 1., 0., 2., 3., 0., 2., 2., 0., 0.,
          1., 0., 2., 27., 0., 2., 1., 3., 6., 4., 0., 0., 2., 1., 1.,
          1., 0., 1., 5., 0., 2., 2., 1., 3., 1., 0., 3., 1., 2., 3., 5.,
          1., 0., 103., 1., 1., 4., 3., 4., 3., 3., 5., 3., 5., 6., 7.,
          3., 1., 11., 2., 3., 9., 1., 1., 7., 4., 7., 8., 14., 12., 23.,
          15., 16., 30., 21., 17., 17., 12., 6., 10., 3., 19., 7., 2.,
          8., 9., 3., 2., 8., 2., 2., 3., 4., 5., 6., 2., 2., 1., 9., 4.,
          3., 2., 1., 5., 1., 0., 2., 3., 3., 1., 1., 5., 5., 3., 8., 8.,
          4., 4., 5., 5., 1., 4., 4., 6., 5., 5., 5., 4., 3., 2., 3., 6.,
          1., 2., 6., 0., 6., 3., 3., 7., 5., 7., 3., 6., 7., 5., 4., 6.,
          4., 1., 4., 4., 5., 3., 8., 4., 5., 1., 3., 3., 2., 3., 8., 4.,
          2., 6., 5., 3., 6., 7., 0., 4., 4., 2., 3., 4., 3., 3., 3., 3.,
          3., 12., 2., 8., 3., 4., 3., 2., 5., 1., 2., 5., 3., 6., 2.,
          1., 4., 7., 5., 7., 5., 7., 4., 5., 4., 4., 10., 2., 9., 7.,
          4., 6., 4., 7., 14., 7., 4., 5., 4., 8., 4., 6., 7., 4., 9.,
          5., 14., 7., 11., 3., 10., 7., 10., 8., 5., 7., 8., 10., 10.,
          15., 11., 15., 11., 13., 14., 8., 12., 5., 19., 18., 21., 13.,
          23., 19., 19., 23., 17., 24., 28., 20., 27., 33., 35., 45.,
          32., 76., 128., 164., 256., 261., 188., 213., 184., 198., 179.,
          205., 245., 195., 132., 125., 59., 61., 59., 57., 41., 21., 8.,
          1., 0., 0., 0., 0., 0., 0., 0., 0., 0., 0., 0., 0., 0., 0., 0.,
          0., 0., 0., 0., 0., 0., 0., 0., 0., 0., 0., 0., 0., 0., 0., 0.,
          0., 0., 0., 0., 0. ]
      - [ 70., 122., 107., 193., 208., 251., 250., 253., 211., 191.,
          176., 215., 568., 562., 340., 253., 161., 59., 51., 18., 15.,
          1., 0., 1., 0., 282., 0., 1., 2., 0., 3., 1., 0., 5., 1., 18.,
          0., 2., 1., 0., 73., 0., 0., 1., 0., 16., 0., 0., 6., 0., 0.,
          0., 0., 0., 0., 119., 0., 0., 0., 0., 1., 1., 0., 7., 0., 8.,
          0., 0., 0., 0., 24., 0., 1., 3., 0., 10., 1., 0., 3., 1., 0.,
          1., 0., 0., 0., 75., 0., 0., 0., 4., 1., 2., 0., 2., 1., 3.,
          0., 0., 1., 0., 5., 0., 1., 0., 0., 8., 0., 0., 7., 2., 2., 1.,
          5., 0., 0., 43., 0., 0., 1., 2., 1., 2., 2., 0., 0., 2., 0.,
          1., 5., 1., 5., 1., 1., 4., 0., 1., 2., 2., 4., 2., 1., 2., 3.,
          1., 0., 89., 1., 2., 1., 4., 1., 2., 2., 4., 2., 1., 1., 5.,
          4., 2., 11., 1., 4., 8., 3., 8., 5., 2., 12., 11., 7., 8., 11.,
          11., 14., 26., 20., 27., 13., 12., 14., 7., 7., 9., 6., 4., 5.,
          3., 3., 4., 4., 4., 3., 2., 6., 4., 3., 6., 5., 4., 2., 2., 3.,
          3., 3., 4., 7., 3., 3., 3., 1., 2., 3., 2., 3., 5., 4., 6., 3.,
          2., 2., 2., 2., 4., 3., 0., 1., 2., 4., 2., 3., 6., 6., 7., 2.,
          2., 2., 6., 6., 1., 3., 2., 1., 1., 4., 5., 3., 8., 9., 5., 3.,
          5., 4., 3., 2., 3., 9., 2., 4., 9., 6., 6., 5., 0., 2., 2., 5.,
          4., 1., 3., 1., 2., 3., 4., 4., 7., 7., 5., 4., 4., 5., 5., 2.,
          2., 6., 3., 8., 3., 2., 2., 4., 7., 6., 4., 7., 1., 6., 3., 2.,
          6., 1., 2., 1., 4., 3., 8., 4., 5., 2., 8., 3., 8., 4., 6., 6.,
          4., 8., 0., 9., 4., 5., 5., 5., 6., 2., 6., 6., 9., 4., 11.,
          7., 4., 8., 6., 10., 10., 11., 8., 6., 12., 19., 16., 11., 16.,
          18., 11., 12., 17., 25., 31., 29., 34., 29., 32., 44., 65.,
          39., 75., 77., 63., 90., 74., 133., 92., 148., 133., 148.,
          190., 202., 222., 321., 334., 298., 240., 113., 85., 89., 63.,
          35., 45., 9., 5., 1., 0., 0., 0., 0., 0., 0., 0., 0., 0., 0.,
          0., 0., 0., 0., 0., 0., 0., 0., 0., 0., 0., 0., 0., 0., 0., 0.,
          0., 0., 0., 0., 0., 0., 0., 0., 0., 0., 0., 0., 0., 0., 0., 0.,
          0. ]
      - [ 0., 0., 0., 2., 0., 4., 0., 0., 1., 0., 32., 1., 1., 2., 4.,
          25., 9., 9., 32., 55., 108., 322., 2097., 1986., 469., 453.,
          4., 8., 7., 3., 6., 5., 4., 8., 4., 37., 1., 5., 3., 0., 88.,
          0., 1., 5., 0., 13., 1., 0., 3., 0., 0., 1., 0., 0., 0., 52.,
          0., 0., 0., 0., 0., 0., 0., 0., 0., 5., 0., 0., 0., 0., 9., 0.,
          0., 0., 0., 6., 0., 0., 6., 1., 0., 0., 0., 0., 0., 20., 0.,
          0., 0., 0., 0., 0., 0., 0., 0., 1., 0., 0., 0., 0., 2., 0., 0.,
          0., 0., 0., 0., 0., 0., 0., 0., 0., 0., 0., 0., 17., 0., 0.,
          0., 0., 0., 0., 0., 1., 0., 0., 0., 0., 0., 0., 5., 0., 0., 5.,
          0., 3., 0., 0., 2., 0., 0., 0., 0., 0., 0., 36., 0., 0., 0.,
          0., 0., 0., 0., 0., 0., 1., 0., 0., 0., 0., 3., 0., 0., 0., 0.,
          1., 0., 0., 0., 0., 0., 0., 0., 0., 0., 26., 15., 18., 20.,
          14., 22., 9., 8., 9., 7., 6., 7., 8., 2., 4., 1., 4., 3., 16.,
          4., 8., 12., 9., 8., 7., 6., 10., 1., 4., 6., 4., 6., 1., 0.,
          2., 7., 4., 6., 1., 6., 6., 4., 2., 3., 3., 2., 3., 2., 3., 8.,
          1., 3., 2., 5., 0., 2., 6., 0., 2., 4., 4., 5., 4., 0., 7.,
          10., 10., 5., 3., 4., 4., 8., 6., 11., 9., 7., 7., 9., 14., 6.,
          12., 5., 11., 6., 12., 6., 13., 9., 19., 28., 13., 14., 11.,
          29., 30., 23., 30., 30., 34., 38., 37., 22., 32., 44., 34.,
          52., 55., 63., 52., 68., 74., 69., 73., 76., 76., 101., 75.,
          74., 68., 73., 78., 76., 63., 76., 94., 87., 63., 73., 73.,
          60., 84., 87., 61., 84., 45., 65., 54., 51., 44., 48., 42.,
          51., 29., 52., 52., 68., 72., 76., 37., 57., 41., 45., 50.,
          40., 44., 40., 37., 30., 46., 41., 42., 53., 60., 62., 58.,
          42., 59., 46., 58., 43., 39., 35., 39., 38., 29., 37., 22.,
          12., 13., 21., 10., 16., 6., 16., 3., 1., 0., 0., 0., 0., 0.,
          0., 0., 0., 0., 0., 0., 0., 0., 0., 0., 0., 0., 0., 0., 0., 0.,
          0., 0., 0., 0., 0., 0., 0., 0., 0., 0., 0., 0., 0., 0., 0., 0.,
          0., 0., 0., 0., 0., 0., 0., 0., 0., 0., 0., 0., 0., 0., 0., 0.,
          0., 0., 0., 0., 0., 0., 0., 0., 0., 0., 0., 0. ]
      - [ 2., 0., 1., 3., 3., 5., 8., 13., 25., 42., 92., 171., 129.,
          132., 143., 227., 542., 1962., 356., 104., 7., 4., 5., 1., 3.,
          306., 0., 0., 0., 0., 2., 6., 0., 41., 1., 85., 0., 7., 0., 0.,
          175., 0., 0., 5., 0., 29., 1., 0., 12., 0., 1., 0., 0., 0., 0.,
          199., 0., 0., 0., 0., 0., 1., 0., 7., 0., 25., 0., 1., 0., 0.,
          33., 0., 0., 1., 0., 13., 0., 0., 1., 0., 0., 0., 0., 0., 0.,
          97., 0., 0., 0., 0., 0., 1., 0., 1., 0., 0., 0., 0., 0., 0.,
          8., 0., 0., 0., 0., 0., 0., 0., 0., 0., 0., 0., 0., 0., 0.,
          18., 0., 0., 0., 0., 0., 0., 0., 0., 0., 0., 0., 0., 0., 0.,
          2., 0., 0., 0., 0., 0., 0., 0., 0., 0., 0., 0., 0., 0., 0.,
          20., 0., 0., 0., 0., 0., 0., 0., 0., 0., 0., 0., 0., 0., 0.,
          5., 0., 0., 0., 0., 0., 0., 0., 0., 0., 0., 0., 0., 0., 0.,
          30., 13., 6., 14., 4., 6., 10., 9., 5., 5., 3., 4., 4., 1., 7.,
          6., 1., 4., 11., 4., 4., 7., 5., 1., 4., 5., 3., 0., 2., 1.,
          2., 2., 3., 6., 4., 2., 2., 0., 5., 5., 2., 3., 8., 1., 2., 4.,
          2., 3., 1., 2., 1., 1., 1., 4., 5., 0., 5., 1., 2., 3., 3., 2.,
          1., 2., 3., 5., 1., 1., 2., 3., 1., 3., 1., 2., 1., 5., 0., 0.,
          0., 1., 1., 0., 1., 0., 0., 0., 2., 0., 1., 4., 2., 1., 2., 3.,
          2., 1., 8., 8., 6., 2., 7., 4., 8., 6., 1., 3., 9., 2., 8., 5.,
          3., 7., 5., 1., 1., 8., 2., 4., 5., 10., 2., 10., 3., 3., 4.,
          12., 12., 18., 7., 3., 12., 11., 9., 11., 12., 14., 13., 10.,
          11., 3., 12., 12., 11., 9., 13., 8., 4., 11., 11., 13., 18.,
          8., 23., 29., 25., 25., 24., 18., 16., 18., 28., 23., 28., 24.,
          27., 26., 33., 34., 41., 34., 22., 45., 45., 44., 30., 22.,
          40., 46., 33., 44., 67., 39., 47., 66., 33., 36., 42., 52.,
          45., 48., 61., 45., 55., 47., 47., 38., 43., 47., 44., 50.,
          38., 43., 46., 32., 27., 38., 56., 73., 53., 38., 42., 38.,
          32., 37., 44., 41., 46., 44., 43., 49., 37., 56., 41., 67.,
          30., 46., 46., 57., 49., 50., 34., 37., 28., 13., 5., 0., 0.,
          0., 0., 0., 0., 0., 0., 0., 0., 0., 0., 0., 0., 0., 0. ]
      - [ 46., 88., 203., 132., 89., 114., 99., 144., 181., 154., 231.,
          227., 359., 811., 826., 381., 78., 62., 41., 11., 5., 0., 2.,
          1., 0., 267., 0., 0., 0., 0., 2., 0., 0., 4., 1., 16., 0., 2.,
          0., 0., 54., 0., 1., 1., 0., 17., 0., 0., 8., 0., 2., 0., 0.,
          0., 0., 110., 0., 0., 0., 1., 1., 0., 0., 2., 0., 6., 0., 2.,
          0., 0., 27., 0., 1., 1., 0., 9., 0., 0., 1., 2., 1., 1., 0.,
          0., 0., 91., 0., 0., 0., 3., 0., 0., 0., 3., 0., 4., 1., 1.,
          0., 1., 12., 1., 0., 1., 2., 2., 3., 0., 2., 0., 1., 2., 1.,
          0., 0., 73., 0., 0., 1., 1., 6., 2., 1., 3., 2., 1., 2., 0.,
          0., 1., 3., 0., 1., 1., 3., 5., 0., 1., 2., 1., 2., 2., 2., 0.,
          0., 62., 0., 0., 1., 4., 2., 0., 4., 4., 3., 8., 5., 3., 3.,
          4., 14., 1., 3., 1., 5., 10., 8., 9., 14., 10., 13., 18., 5.,
          19., 17., 20., 30., 9., 14., 10., 11., 11., 3., 9., 4., 10.,
          7., 3., 4., 5., 3., 4., 2., 0., 2., 4., 4., 2., 2., 2., 5., 3.,
          4., 8., 1., 1., 5., 6., 2., 4., 4., 5., 3., 4., 5., 4., 7., 0.,
          1., 7., 3., 4., 3., 6., 4., 9., 3., 7., 4., 5., 7., 3., 6., 4.,
          1., 3., 2., 1., 0., 1., 7., 4., 3., 5., 7., 2., 7., 6., 2., 4.,
          1., 4., 2., 5., 2., 2., 1., 3., 2., 2., 0., 3., 2., 4., 1., 3.,
          1., 3., 2., 5., 5., 8., 4., 3., 4., 2., 8., 2., 5., 5., 2., 3.,
          4., 7., 2., 2., 8., 6., 8., 2., 4., 8., 6., 6., 8., 2., 4., 3.,
          5., 2., 3., 5., 5., 3., 4., 5., 2., 1., 2., 5., 7., 6., 6., 9.,
          6., 5., 5., 8., 4., 6., 11., 9., 7., 6., 7., 0., 5., 8., 7.,
          7., 8., 5., 10., 9., 9., 6., 11., 10., 8., 14., 17., 6., 8.,
          20., 7., 8., 9., 10., 8., 22., 13., 18., 12., 20., 14., 23.,
          26., 27., 18., 39., 25., 35., 46., 42., 69., 68., 79., 137.,
          131., 203., 264., 234., 216., 164., 130., 183., 127., 180.,
          162., 210., 197., 155., 109., 104., 70., 54., 43., 12., 2., 0.,
          0., 0., 0., 0., 0., 0., 0., 0., 0., 0., 0., 0., 0., 0., 0., 0.,
          0., 0., 0., 0., 0., 0., 0., 0., 0., 0., 0., 0., 0., 0., 0., 0.,
          0., 0., 0., 0. ]
      - [ 0., 0., 0., 4., 0., 6., 1., 1., 0., 1., 31., 0., 2., 8., 3.,
          13., 12., 7., 42., 92., 327., 575., 1856., 2030., 69., 414.,
          3., 2., 6., 3., 5., 14., 0., 26., 0., 46., 0., 9., 0., 0.,
          107., 0., 1., 0., 0., 17., 0., 0., 4., 1., 0., 0., 0., 0., 0.,
          83., 0., 0., 0., 0., 0., 0., 0., 2., 0., 3., 0., 0., 0., 0.,
          3., 0., 0., 0., 0., 3., 0., 0., 2., 0., 0., 0., 0., 0., 0.,
          35., 0., 0., 0., 0., 0., 1., 0., 1., 0., 5., 0., 0., 0., 0.,
          4., 0., 0., 0., 0., 2., 0., 0., 0., 0., 0., 0., 0., 0., 0.,
          10., 0., 0., 0., 0., 0., 0., 0., 0., 0., 0., 0., 0., 0., 0.,
          0., 0., 0., 0., 0., 0., 0., 0., 0., 0., 0., 0., 0., 0., 0.,
          17., 0., 0., 0., 0., 0., 0., 0., 0., 0., 0., 0., 0., 0., 0.,
          2., 0., 0., 0., 0., 1., 0., 0., 0., 0., 0., 0., 0., 0., 0.,
          46., 13., 8., 9., 11., 8., 11., 14., 8., 8., 13., 10., 2., 8.,
          2., 6., 2., 3., 3., 5., 4., 3., 7., 7., 8., 7., 3., 3., 4., 4.,
          4., 3., 2., 1., 5., 4., 4., 4., 3., 3., 1., 4., 4., 4., 1., 3.,
          3., 2., 6., 3., 1., 4., 4., 6., 3., 0., 7., 1., 3., 3., 3., 3.,
          4., 4., 0., 2., 1., 2., 3., 4., 3., 2., 11., 11., 12., 24.,
          14., 17., 11., 17., 23., 22., 16., 24., 14., 30., 23., 29.,
          35., 35., 27., 23., 19., 20., 35., 39., 29., 41., 43., 33.,
          54., 59., 54., 58., 67., 50., 56., 74., 69., 67., 89., 63.,
          84., 98., 85., 82., 71., 97., 101., 59., 85., 80., 61., 84.,
          108., 44., 85., 62., 52., 48., 41., 38., 33., 35., 43., 41.,
          36., 54., 32., 30., 36., 29., 56., 41., 51., 42., 34., 52.,
          34., 27., 38., 37., 31., 33., 32., 30., 29., 33., 34., 45.,
          39., 38., 35., 38., 34., 27., 30., 29., 34., 34., 35., 21.,
          41., 33., 26., 29., 19., 28., 18., 14., 17., 20., 14., 24.,
          21., 21., 18., 22., 15., 18., 7., 4., 2., 1., 0., 0., 0., 0.,
          0., 0., 0., 0., 0., 0., 0., 0., 0., 0., 0., 0., 0., 0., 0., 0.,
          0., 0., 0., 0., 0., 0., 0., 0., 0., 0., 0., 0., 0., 0., 0., 0.,
          0., 0., 0., 0., 0., 0., 0., 0., 0., 0., 0., 0., 0., 0., 0., 0.,
          0., 0., 0., 0., 0. ]
      - [ 95., 141., 106., 104., 123., 177., 148., 121., 135., 153.,
          305., 301., 499., 720., 552., 431., 108., 54., 44., 16., 5.,
          0., 2., 0., 0., 364., 0., 0., 0., 1., 1., 7., 0., 9., 1., 12.,
          3., 2., 1., 0., 52., 0., 1., 1., 1., 13., 2., 0., 4., 0., 0.,
          0., 0., 0., 0., 111., 0., 0., 0., 0., 0., 1., 0., 5., 0., 10.,
          0., 0., 0., 0., 28., 0., 0., 7., 0., 8., 1., 0., 2., 1., 1.,
          0., 0., 0., 0., 51., 0., 0., 0., 0., 1., 2., 0., 3., 0., 5.,
          1., 1., 0., 0., 12., 0., 0., 2., 0., 9., 3., 0., 1., 2., 0.,
          1., 0., 0., 0., 17., 1., 0., 2., 1., 0., 1., 0., 2., 0., 3.,
          2., 0., 2., 1., 5., 0., 0., 7., 0., 2., 0., 0., 1., 2., 0., 0.,
          2., 0., 0., 46., 0., 1., 3., 2., 0., 3., 1., 5., 1., 2., 1.,
          1., 8., 3., 6., 2., 4., 7., 4., 6., 6., 5., 8., 6., 8., 5., 8.,
          14., 13., 30., 27., 10., 11., 11., 10., 11., 6., 13., 6., 4.,
          4., 4., 4., 4., 3., 4., 10., 2., 2., 0., 4., 3., 4., 0., 3.,
          0., 1., 1., 4., 2., 4., 3., 2., 2., 1., 3., 4., 7., 3., 4., 5.,
          5., 2., 3., 2., 0., 6., 8., 4., 2., 3., 9., 4., 6., 2., 5., 4.,
          2., 1., 0., 4., 1., 1., 1., 4., 2., 2., 1., 2., 5., 2., 0., 2.,
          2., 1., 6., 0., 3., 5., 4., 5., 3., 5., 6., 0., 6., 7., 3., 3.,
          1., 1., 2., 3., 3., 3., 6., 4., 3., 1., 5., 4., 2., 3., 7., 2.,
          7., 9., 7., 6., 15., 7., 8., 5., 6., 5., 5., 5., 5., 11., 10.,
          7., 5., 7., 4., 5., 3., 6., 6., 9., 5., 17., 8., 10., 6., 3.,
          4., 6., 8., 4., 4., 6., 3., 7., 10., 6., 9., 13., 12., 15.,
          28., 20., 12., 18., 11., 17., 13., 17., 17., 16., 14., 12.,
          24., 17., 22., 9., 14., 12., 25., 14., 25., 19., 13., 14., 26.,
          11., 34., 16., 11., 24., 25., 24., 34., 25., 21., 29., 24.,
          45., 33., 37., 54., 49., 62., 107., 140., 221., 202., 211.,
          253., 163., 176., 136., 205., 149., 166., 159., 140., 141.,
          127., 87., 44., 20., 9., 2., 1., 0., 0., 0., 0., 0., 0., 0.,
          0., 0., 0., 0., 0., 0., 0., 0., 0., 0., 0., 0., 0., 0., 0., 0.,
          0., 0., 0., 0., 0., 0., 0., 0., 0., 0., 0., 0., 0. ]
      - [ 0., 0., 0., 0., 1., 4., 6., 10., 32., 36., 108., 153., 150.,
          128., 151., 361., 1644., 1201., 107., 9., 6., 6., 2., 7., 0.,
          410., 0., 0., 1., 12., 9., 9., 1., 29., 1., 42., 1., 5., 1.,
          0., 127., 0., 0., 0., 0., 21., 0., 0., 2., 0., 1., 1., 0., 0.,
          0., 199., 0., 0., 0., 0., 0., 1., 0., 2., 0., 18., 0., 0., 0.,
          0., 34., 0., 0., 0., 0., 16., 0., 0., 3., 1., 0., 0., 0., 0.,
          0., 93., 0., 0., 0., 0., 0., 0., 0., 0., 0., 1., 0., 1., 0.,
          0., 2., 0., 0., 0., 0., 1., 0., 0., 0., 0., 0., 0., 0., 0., 0.,
          29., 0., 0., 0., 0., 0., 0., 0., 0., 0., 0., 0., 1., 0., 0.,
          10., 0., 0., 0., 0., 0., 0., 0., 0., 0., 0., 0., 0., 0., 0.,
          20., 0., 0., 0., 0., 0., 0., 0., 0., 0., 0., 0., 1., 0., 0.,
          9., 0., 0., 0., 0., 0., 0., 0., 0., 0., 0., 0., 0., 0., 0.,
          40., 32., 20., 19., 11., 7., 6., 6., 6., 8., 8., 4., 0., 3.,
          2., 2., 8., 10., 2., 2., 3., 3., 2., 1., 3., 4., 4., 3., 4.,
          0., 2., 1., 0., 6., 2., 0., 4., 1., 0., 1., 1., 4., 2., 3., 2.,
          1., 1., 1., 1., 3., 0., 2., 2., 3., 6., 1., 1., 3., 3., 1., 3.,
          5., 0., 1., 2., 2., 1., 3., 0., 2., 1., 1., 1., 3., 6., 1., 3.,
          1., 2., 2., 3., 1., 2., 3., 3., 2., 3., 3., 3., 1., 2., 6., 0.,
          0., 0., 1., 2., 0., 3., 1., 1., 2., 1., 0., 5., 1., 2., 1., 2.,
          1., 2., 4., 4., 6., 6., 5., 7., 6., 3., 3., 6., 4., 4., 2., 6.,
          3., 8., 3., 2., 8., 10., 6., 4., 8., 6., 6., 4., 14., 5., 7.,
          9., 11., 7., 6., 3., 7., 8., 7., 7., 13., 8., 9., 14., 18., 8.,
          14., 11., 10., 6., 9., 10., 12., 12., 12., 11., 23., 15., 13.,
          25., 24., 22., 33., 20., 33., 36., 24., 31., 65., 32., 37.,
          67., 34., 37., 44., 41., 54., 41., 56., 50., 18., 35., 44.,
          57., 65., 46., 80., 54., 49., 40., 36., 33., 55., 50., 69.,
          97., 98., 106., 72., 64., 95., 72., 50., 73., 87., 89., 75.,
          61., 72., 78., 78., 75., 58., 64., 46., 49., 47., 37., 36.,
          31., 25., 14., 15., 7., 2., 0., 0., 0., 0., 0., 0., 0., 0., 0.,
          0., 0., 0., 0., 0., 0., 0., 0. ]
      - [ 315., 421., 328., 316., 310., 389., 396., 397., 235., 133.,
          72., 13., 7., 6., 11., 15., 3., 3., 8., 2., 1., 4., 1., 4., 0.,
          150., 0., 0., 0., 0., 2., 4., 0., 2., 0., 9., 0., 2., 0., 0.,
          44., 0., 0., 0., 0., 9., 0., 0., 1., 2., 0., 0., 0., 0., 0.,
          148., 0., 0., 0., 0., 1., 0., 0., 1., 0., 7., 0., 2., 0., 0.,
          48., 0., 0., 0., 0., 26., 1., 0., 11., 2., 0., 0., 0., 0., 0.,
          216., 0., 0., 2., 1., 0., 1., 0., 1., 0., 5., 0., 1., 0., 0.,
          29., 0., 0., 0., 0., 2., 0., 0., 0., 0., 0., 0., 0., 0., 0.,
          74., 0., 0., 0., 0., 0., 0., 0., 0., 0., 0., 0., 0., 0., 0.,
          11., 0., 0., 0., 0., 0., 0., 0., 0., 0., 0., 0., 0., 0., 0.,
          34., 0., 0., 0., 0., 0., 0., 0., 0., 0., 2., 0., 0., 0., 0.,
          8., 0., 0., 0., 0., 6., 0., 0., 3., 0., 0., 2., 12., 32., 66.,
          32., 11., 9., 15., 22., 17., 10., 13., 10., 6., 11., 3., 8.,
          5., 8., 8., 7., 4., 6., 3., 7., 9., 6., 4., 1., 2., 2., 2., 8.,
          1., 6., 10., 3., 6., 3., 10., 6., 3., 7., 4., 5., 8., 2., 1.,
          2., 5., 6., 2., 5., 1., 3., 5., 3., 0., 4., 5., 3., 0., 3., 2.,
          4., 4., 2., 1., 3., 2., 1., 9., 2., 6., 6., 7., 4., 12., 17.,
          14., 9., 9., 4., 9., 5., 7., 10., 10., 10., 11., 5., 13., 12.,
          5., 12., 12., 15., 7., 5., 5., 12., 11., 6., 13., 7., 7., 10.,
          9., 16., 12., 13., 9., 11., 11., 10., 9., 17., 26., 23., 15.,
          20., 18., 31., 19., 14., 20., 24., 20., 23., 15., 27., 13.,
          27., 17., 23., 16., 33., 21., 30., 30., 20., 32., 55., 52.,
          39., 54., 45., 40., 54., 44., 42., 50., 30., 40., 40., 53.,
          52., 59., 79., 102., 100., 83., 71., 61., 70., 67., 89., 63.,
          43., 46., 46., 53., 38., 34., 30., 27., 43., 48., 41., 42.,
          48., 54., 28., 33., 42., 33., 37., 26., 51., 40., 37., 26.,
          29., 25., 28., 22., 23., 16., 34., 27., 22., 24., 24., 14.,
          20., 21., 18., 22., 18., 17., 25., 19., 37., 51., 38., 21.,
          29., 6., 22., 11., 10., 14., 9., 4., 7., 4., 0., 0., 0., 0.,
          0., 0., 0., 0., 0., 0., 0., 0., 0., 0., 0., 0., 0., 0., 0., 0.,
          0., 0., 0., 0., 0., 0., 0., 0., 0. ]
      - [ 1., 3., 0., 2., 4., 11., 18., 21., 37., 70., 195., 122., 142.,
          135., 197., 343., 1812., 701., 336., 21., 12., 0., 2., 2., 0.,
          288., 0., 1., 1., 2., 6., 12., 0., 26., 0., 60., 1., 16., 0.,
          0., 124., 0., 0., 5., 0., 27., 0., 0., 8., 2., 0., 0., 0., 0.,
          0., 198., 0., 0., 0., 0., 0., 0., 0., 5., 0., 12., 0., 0., 0.,
          0., 39., 0., 1., 1., 0., 10., 0., 0., 4., 0., 0., 0., 0., 0.,
          0., 82., 0., 0., 0., 0., 0., 0., 0., 0., 0., 1., 0., 0., 0.,
          0., 5., 0., 0., 0., 0., 1., 0., 0., 0., 0., 0., 0., 0., 0., 0.,
          17., 0., 0., 0., 0., 0., 0., 0., 1., 0., 1., 0., 0., 0., 0.,
          2., 0., 0., 0., 0., 0., 0., 0., 2., 0., 0., 0., 0., 0., 0.,
          19., 0., 0., 0., 0., 0., 0., 0., 0., 0., 0., 0., 0., 0., 0.,
          2., 0., 0., 0., 0., 0., 0., 0., 0., 0., 0., 0., 1., 0., 0.,
          53., 32., 5., 4., 4., 4., 7., 3., 7., 8., 6., 6., 11., 1., 1.,
          4., 3., 5., 2., 6., 1., 4., 8., 3., 7., 5., 2., 2., 7., 1., 3.,
          1., 1., 1., 3., 2., 2., 1., 3., 0., 2., 1., 1., 5., 3., 0., 2.,
          1., 4., 0., 0., 1., 0., 5., 3., 1., 1., 8., 1., 0., 2., 0., 1.,
          1., 1., 0., 3., 1., 1., 1., 5., 1., 0., 0., 1., 0., 1., 2., 0.,
          1., 1., 2., 3., 3., 1., 0., 2., 2., 3., 2., 1., 1., 1., 1., 1.,
          0., 1., 3., 0., 3., 0., 1., 3., 1., 0., 3., 5., 3., 2., 3., 8.,
          5., 5., 5., 11., 10., 9., 15., 9., 12., 14., 17., 4., 13., 9.,
          5., 10., 8., 6., 9., 19., 10., 11., 12., 15., 21., 18., 22.,
          11., 11., 6., 10., 14., 13., 13., 17., 10., 21., 22., 23., 22.,
          23., 23., 23., 17., 24., 25., 39., 38., 48., 34., 32., 36.,
          30., 33., 21., 21., 24., 19., 23., 24., 31., 38., 33., 34.,
          22., 18., 36., 30., 27., 28., 24., 28., 24., 33., 42., 23.,
          30., 29., 35., 32., 36., 59., 51., 56., 56., 29., 37., 36.,
          61., 36., 51., 41., 35., 37., 52., 46., 51., 39., 70., 53.,
          48., 51., 51., 41., 46., 53., 53., 52., 68., 67., 73., 55.,
          75., 47., 41., 33., 35., 31., 34., 46., 53., 36., 50., 53.,
          29., 15., 5., 2., 0., 0., 0., 0., 0., 0., 0., 0., 0., 0., 0.,
          0. ]
      - [ 0., 4., 0., 0., 1., 1., 0., 0., 2., 0., 46., 2., 3., 4., 9.,
          42., 16., 8., 37., 37., 62., 89., 103., 237., 481., 2098.,
          1699., 115., 34., 19., 6., 13., 1., 28., 2., 39., 0., 3., 0.,
          0., 69., 0., 0., 0., 0., 1., 0., 0., 0., 0., 0., 0., 0., 0.,
          0., 39., 0., 0., 0., 0., 0., 0., 0., 0., 0., 1., 0., 0., 0.,
          0., 1., 0., 0., 0., 0., 0., 0., 0., 0., 0., 0., 0., 0., 0., 0.,
          22., 0., 0., 0., 0., 0., 0., 0., 0., 0., 0., 0., 0., 0., 0.,
          0., 0., 0., 0., 0., 0., 0., 0., 0., 0., 0., 0., 0., 0., 0.,
          29., 0., 0., 0., 0., 0., 0., 0., 0., 0., 3., 0., 0., 0., 0.,
          6., 0., 0., 0., 0., 1., 0., 0., 0., 0., 0., 0., 0., 0., 0.,
          24., 0., 0., 0., 0., 0., 0., 0., 0., 0., 0., 0., 0., 0., 0.,
          2., 0., 0., 0., 0., 0., 0., 0., 0., 0., 0., 0., 0., 0., 0.,
          23., 24., 23., 12., 17., 16., 13., 9., 9., 1., 13., 11., 8.,
          2., 7., 8., 6., 3., 8., 7., 5., 6., 5., 4., 3., 3., 10., 7.,
          2., 6., 3., 5., 0., 6., 4., 4., 0., 2., 0., 3., 4., 8., 3., 5.,
          9., 4., 3., 1., 2., 2., 1., 1., 2., 2., 1., 3., 3., 3., 1., 2.,
          4., 5., 2., 2., 6., 1., 1., 7., 6., 4., 8., 16., 13., 15., 9.,
          9., 10., 18., 13., 11., 18., 30., 49., 22., 45., 27., 48., 45.,
          53., 44., 37., 59., 69., 50., 49., 50., 50., 42., 49., 48.,
          60., 58., 50., 67., 62., 49., 80., 42., 40., 32., 40., 40.,
          40., 46., 59., 35., 44., 27., 27., 40., 26., 28., 43., 46.,
          25., 38., 36., 47., 33., 28., 21., 31., 35., 27., 36., 27.,
          40., 39., 23., 44., 28., 36., 34., 33., 35., 38., 31., 32.,
          23., 33., 26., 28., 21., 28., 32., 22., 31., 28., 33., 21.,
          27., 20., 30., 20., 26., 39., 30., 12., 29., 17., 34., 19.,
          19., 16., 24., 15., 23., 22., 26., 27., 35., 34., 30., 38.,
          21., 35., 51., 18., 36., 34., 20., 38., 21., 32., 23., 15.,
          14., 14., 17., 9., 7., 5., 1., 7., 5., 1., 1., 1., 0., 0., 0.,
          0., 0., 0., 0., 0., 0., 0., 0., 0., 0., 0., 0., 0., 0., 0., 0.,
          0., 0., 0., 0., 0., 0., 0., 0., 0., 0., 0., 0., 0., 0., 0., 0.,
          0., 0., 0., 0., 0., 0., 0., 0. ]
      - [ 4., 0., 1., 3., 4., 8., 14., 9., 25., 38., 73., 87., 134.,
          160., 173., 223., 588., 2423., 145., 6., 8., 7., 3., 0., 2.,
          418., 1., 0., 1., 5., 10., 11., 0., 23., 0., 53., 1., 12., 1.,
          0., 148., 0., 0., 3., 0., 27., 0., 0., 4., 0., 0., 0., 0., 0.,
          0., 166., 0., 0., 0., 0., 0., 0., 0., 6., 0., 4., 0., 0., 0.,
          0., 40., 0., 0., 0., 0., 6., 0., 0., 3., 0., 0., 0., 0., 0.,
          0., 71., 0., 0., 0., 0., 0., 0., 0., 0., 0., 3., 0., 0., 0.,
          0., 11., 0., 0., 0., 0., 1., 0., 0., 0., 0., 0., 0., 0., 0.,
          0., 17., 0., 0., 0., 0., 0., 1., 0., 0., 0., 0., 0., 0., 0.,
          0., 3., 0., 0., 1., 0., 0., 0., 0., 1., 1., 0., 0., 0., 0., 0.,
          42., 0., 0., 0., 0., 0., 0., 0., 0., 0., 1., 0., 0., 0., 0.,
          1., 0., 1., 0., 0., 0., 0., 0., 0., 0., 0., 0., 1., 0., 0.,
          41., 22., 11., 12., 5., 6., 8., 14., 5., 3., 4., 6., 2., 4.,
          5., 3., 7., 9., 4., 8., 5., 3., 1., 2., 4., 3., 4., 4., 7., 1.,
          4., 2., 3., 1., 8., 2., 3., 3., 0., 3., 3., 2., 2., 3., 3., 2.,
          3., 2., 4., 2., 0., 1., 1., 1., 1., 3., 4., 4., 0., 3., 2., 5.,
          5., 2., 1., 1., 2., 0., 1., 2., 2., 4., 3., 1., 2., 2., 0., 2.,
          3., 2., 0., 0., 1., 8., 1., 1., 1., 0., 1., 0., 0., 0., 0., 5.,
          3., 4., 5., 2., 2., 0., 4., 3., 3., 1., 0., 1., 2., 4., 2., 2.,
          2., 2., 3., 3., 2., 0., 1., 0., 2., 5., 5., 2., 8., 16., 19.,
          14., 14., 9., 11., 5., 9., 4., 4., 2., 3., 6., 4., 9., 7., 7.,
          4., 9., 12., 8., 9., 16., 5., 19., 12., 18., 15., 16., 7., 4.,
          13., 8., 13., 15., 12., 15., 16., 10., 16., 20., 29., 26., 31.,
          30., 28., 34., 32., 62., 32., 44., 52., 60., 79., 90., 57.,
          60., 46., 42., 39., 32., 44., 46., 35., 47., 44., 33., 36.,
          36., 41., 27., 49., 37., 38., 43., 54., 81., 79., 64., 79.,
          57., 35., 41., 59., 30., 40., 42., 58., 51., 65., 61., 50.,
          42., 45., 43., 62., 56., 48., 43., 35., 34., 50., 55., 56.,
          73., 60., 39., 51., 42., 29., 33., 9., 4., 0., 0., 0., 0., 0.,
          0., 0., 0., 0., 0., 0., 0., 0., 0., 0. ]
      - [ 75., 119., 111., 85., 114., 192., 136., 102., 96., 114., 235.,
          413., 573., 733., 586., 345., 58., 29., 7., 5., 0., 0., 0., 1.,
          0., 235., 0., 0., 3., 0., 1., 1., 0., 6., 0., 14., 1., 2., 0.,
          0., 68., 0., 0., 4., 0., 14., 1., 0., 8., 2., 0., 0., 0., 0.,
          0., 136., 0., 0., 0., 0., 0., 0., 0., 1., 0., 5., 0., 0., 0.,
          0., 20., 0., 1., 0., 0., 7., 1., 0., 3., 1., 0., 0., 0., 0.,
          0., 104., 0., 0., 0., 0., 2., 2., 1., 2., 0., 6., 0., 1., 1.,
          0., 17., 0., 1., 0., 2., 2., 0., 0., 1., 1., 4., 0., 1., 0.,
          0., 65., 0., 0., 0., 2., 1., 1., 0., 4., 0., 3., 0., 2., 0.,
          0., 11., 0., 4., 0., 2., 5., 0., 4., 3., 5., 2., 0., 1., 0.,
          0., 75., 0., 1., 3., 1., 3., 1., 1., 6., 2., 6., 6., 3., 8.,
          4., 11., 5., 1., 12., 5., 9., 7., 9., 11., 16., 9., 17., 13.,
          14., 17., 33., 20., 18., 13., 12., 12., 5., 13., 9., 10., 4.,
          9., 9., 4., 3., 1., 4., 4., 1., 0., 5., 3., 1., 1., 5., 3., 1.,
          3., 3., 2., 2., 9., 9., 2., 3., 2., 4., 4., 2., 3., 6., 2., 1.,
          2., 3., 3., 0., 6., 2., 1., 4., 4., 6., 3., 2., 1., 4., 4., 7.,
          9., 2., 1., 6., 1., 1., 5., 3., 3., 7., 6., 3., 3., 4., 5., 7.,
          5., 7., 1., 2., 6., 3., 5., 8., 5., 3., 4., 4., 6., 3., 5., 4.,
          3., 4., 5., 4., 3., 6., 6., 8., 5., 6., 7., 7., 6., 5., 4.,
          10., 8., 9., 9., 5., 5., 7., 9., 9., 6., 3., 5., 1., 9., 7.,
          4., 3., 7., 7., 4., 6., 10., 7., 5., 6., 4., 5., 7., 8., 6.,
          8., 8., 6., 7., 6., 8., 3., 5., 5., 8., 10., 9., 12., 6., 11.,
          10., 2., 10., 8., 7., 14., 11., 13., 7., 12., 10., 10., 6.,
          14., 18., 11., 16., 8., 11., 12., 9., 13., 13., 21., 15., 17.,
          12., 16., 20., 20., 30., 22., 30., 23., 32., 47., 47., 32.,
          55., 62., 76., 98., 120., 153., 228., 277., 254., 244., 163.,
          229., 201., 222., 216., 182., 117., 48., 44., 29., 22., 10.,
          6., 0., 0., 0., 0., 0., 0., 0., 0., 0., 0., 0., 0., 0., 0., 0.,
          0., 0., 0., 0., 0., 0., 0., 0., 0., 0., 0., 0., 0., 0., 0., 0.,
          0., 0., 0., 0., 0., 0., 0., 0. ]
      - [ 184., 235., 102., 82., 62., 56., 109., 134., 161., 172., 438.,
          489., 500., 351., 324., 210., 141., 92., 57., 31., 4., 0., 1.,
          2., 0., 197., 0., 0., 0., 0., 0., 0., 1., 0., 0., 16., 0., 0.,
          4., 0., 74., 0., 0., 2., 0., 19., 0., 0., 3., 1., 0., 0., 0.,
          0., 0., 141., 0., 0., 0., 0., 0., 0., 0., 2., 0., 19., 0., 2.,
          0., 0., 24., 0., 0., 1., 0., 9., 0., 0., 1., 1., 2., 0., 0.,
          0., 0., 67., 0., 0., 1., 0., 0., 0., 0., 3., 0., 9., 0., 1.,
          3., 1., 12., 0., 1., 3., 2., 6., 0., 0., 3., 1., 1., 3., 0.,
          3., 0., 54., 0., 3., 4., 3., 3., 4., 2., 1., 2., 5., 5., 6.,
          1., 2., 10., 1., 3., 4., 2., 8., 2., 0., 1., 3., 7., 3., 3.,
          1., 2., 76., 0., 3., 1., 7., 3., 3., 2., 3., 9., 3., 5., 5.,
          3., 9., 13., 3., 5., 9., 12., 8., 9., 11., 15., 11., 9., 11.,
          6., 12., 8., 27., 18., 14., 12., 10., 6., 11., 9., 9., 0., 6.,
          8., 7., 2., 8., 5., 4., 8., 6., 4., 6., 3., 5., 5., 5., 1., 3.,
          4., 0., 4., 0., 2., 7., 5., 2., 3., 2., 3., 1., 5., 3., 6., 3.,
          8., 7., 6., 9., 4., 3., 6., 2., 4., 3., 3., 3., 3., 2., 4., 6.,
          5., 3., 3., 6., 3., 2., 5., 2., 3., 2., 4., 3., 0., 5., 6., 2.,
          4., 2., 4., 4., 5., 4., 3., 2., 6., 3., 5., 5., 4., 7., 4., 4.,
          4., 4., 5., 5., 4., 2., 8., 3., 6., 8., 7., 5., 4., 6., 2., 5.,
          2., 7., 6., 2., 2., 1., 2., 2., 8., 7., 1., 4., 6., 5., 6., 6.,
          5., 4., 4., 7., 7., 6., 2., 3., 6., 3., 4., 4., 4., 9., 5., 3.,
          5., 12., 11., 11., 9., 6., 11., 7., 8., 7., 6., 9., 12., 4.,
          6., 8., 13., 15., 18., 10., 19., 8., 12., 27., 20., 35., 33.,
          19., 27., 27., 22., 27., 28., 24., 29., 31., 29., 27., 45.,
          34., 54., 58., 58., 40., 50., 60., 79., 69., 64., 78., 62.,
          77., 96., 148., 156., 187., 301., 345., 261., 224., 114., 125.,
          97., 78., 60., 33., 15., 20., 7., 0., 0., 0., 0., 0., 0., 0.,
          0., 0., 0., 0., 0., 0., 0., 0., 0., 0., 0., 0., 0., 0., 0., 0.,
          0., 0., 0., 0., 0., 0., 0., 0., 0., 0., 0., 0., 0., 0., 0., 0.,
          0., 0., 0., 0. ]
      - [ 1., 1., 0., 1., 0., 0., 1., 1., 4., 0., 31., 1., 3., 8., 3.,
          13., 16., 11., 38., 88., 328., 704., 1419., 2167., 165., 386.,
          2., 3., 5., 11., 7., 15., 0., 20., 1., 35., 0., 3., 0., 0.,
          94., 0., 0., 8., 0., 19., 0., 0., 7., 7., 1., 0., 0., 0., 0.,
          122., 0., 0., 0., 0., 0., 0., 0., 2., 0., 1., 0., 0., 0., 0.,
          8., 0., 0., 0., 0., 0., 0., 0., 1., 0., 0., 0., 0., 0., 0.,
          59., 0., 0., 0., 0., 0., 0., 0., 0., 0., 0., 0., 0., 0., 0.,
          3., 0., 0., 0., 0., 0., 0., 0., 0., 0., 0., 0., 0., 0., 0.,
          25., 0., 0., 0., 0., 0., 0., 0., 0., 0., 0., 0., 0., 0., 0.,
          1., 0., 0., 0., 0., 1., 0., 0., 0., 0., 0., 0., 0., 0., 0.,
          22., 0., 0., 0., 0., 0., 0., 0., 0., 0., 1., 0., 0., 0., 0.,
          5., 0., 0., 2., 0., 1., 0., 0., 0., 0., 0., 0., 0., 0., 0.,
          52., 20., 16., 22., 12., 14., 18., 12., 8., 3., 4., 3., 3., 2.,
          9., 5., 2., 8., 8., 5., 3., 2., 7., 1., 6., 5., 7., 6., 4., 1.,
          2., 7., 6., 2., 3., 3., 4., 3., 4., 5., 8., 1., 0., 1., 1., 6.,
          5., 9., 2., 6., 3., 2., 2., 4., 5., 6., 3., 2., 2., 1., 2., 1.,
          6., 2., 3., 2., 2., 1., 8., 16., 16., 8., 12., 9., 16., 12.,
          6., 18., 11., 7., 16., 17., 11., 9., 16., 20., 13., 14., 20.,
          14., 18., 16., 27., 26., 26., 27., 28., 29., 51., 42., 60.,
          78., 76., 54., 60., 51., 51., 51., 44., 64., 58., 68., 69.,
          53., 56., 63., 55., 62., 58., 54., 77., 75., 44., 51., 54.,
          61., 68., 63., 81., 55., 75., 60., 60., 63., 56., 47., 52.,
          47., 51., 49., 56., 49., 59., 75., 74., 50., 56., 42., 42.,
          44., 54., 26., 24., 33., 25., 45., 30., 26., 38., 53., 36.,
          29., 35., 37., 33., 21., 26., 31., 39., 40., 28., 40., 28.,
          18., 19., 40., 38., 27., 26., 18., 26., 26., 25., 17., 29.,
          23., 30., 16., 11., 12., 5., 5., 0., 1., 0., 0., 0., 0., 0.,
          0., 0., 0., 0., 0., 0., 0., 0., 0., 0., 0., 0., 0., 0., 0., 0.,
          0., 0., 0., 0., 0., 0., 0., 0., 0., 0., 0., 0., 0., 0., 0., 0.,
          0., 0., 0., 0., 0., 0., 0., 0., 0., 0., 0., 0., 0., 0., 0., 0.,
          0., 0., 0., 0. ]
      - [ 0., 0., 0., 1., 0., 1., 0., 2., 2., 1., 14., 3., 4., 5., 10.,
          40., 13., 15., 72., 67., 80., 126., 139., 163., 563., 2359.,
          1393., 73., 10., 14., 15., 12., 0., 16., 2., 31., 0., 3., 1.,
          0., 44., 0., 0., 0., 0., 4., 0., 0., 0., 0., 0., 0., 0., 0.,
          0., 22., 0., 0., 0., 0., 0., 0., 0., 0., 0., 0., 0., 0., 0.,
          0., 7., 0., 0., 0., 0., 0., 0., 0., 0., 0., 0., 0., 0., 0., 0.,
          31., 0., 0., 0., 0., 0., 0., 0., 1., 0., 1., 0., 1., 0., 0.,
          2., 0., 0., 0., 0., 0., 0., 0., 0., 0., 0., 0., 0., 0., 0.,
          28., 0., 0., 0., 0., 0., 0., 0., 0., 0., 0., 0., 0., 0., 0.,
          2., 0., 0., 0., 0., 2., 0., 0., 1., 0., 0., 0., 0., 0., 0.,
          15., 0., 0., 0., 0., 0., 0., 0., 0., 0., 0., 0., 0., 0., 0.,
          4., 0., 0., 0., 0., 2., 0., 0., 1., 1., 0., 0., 0., 0., 0.,
          34., 27., 13., 21., 17., 15., 7., 16., 9., 8., 8., 10., 6., 3.,
          5., 13., 2., 4., 8., 4., 4., 5., 0., 7., 8., 4., 8., 5., 3.,
          3., 11., 5., 7., 2., 3., 1., 2., 6., 7., 1., 3., 4., 2., 0.,
          2., 3., 0., 1., 2., 0., 5., 5., 1., 2., 2., 4., 4., 2., 4., 3.,
          4., 2., 2., 3., 0., 3., 2., 3., 3., 4., 5., 17., 9., 18., 36.,
          18., 26., 21., 23., 20., 32., 25., 33., 33., 49., 36., 46.,
          37., 40., 47., 55., 43., 53., 56., 43., 46., 58., 54., 69.,
          71., 67., 74., 41., 64., 38., 24., 35., 42., 39., 43., 46.,
          28., 44., 50., 54., 45., 32., 40., 32., 39., 40., 34., 42.,
          36., 29., 22., 38., 33., 31., 31., 25., 38., 33., 26., 23.,
          18., 36., 32., 33., 23., 32., 28., 35., 35., 26., 16., 26.,
          37., 34., 26., 33., 37., 23., 33., 45., 31., 23., 38., 33.,
          34., 39., 18., 30., 27., 41., 37., 27., 37., 28., 38., 23.,
          25., 34., 32., 31., 29., 24., 29., 41., 31., 18., 15., 14.,
          23., 25., 15., 37., 5., 19., 22., 23., 20., 23., 21., 27., 32.,
          16., 19., 17., 20., 10., 6., 5., 3., 10., 2., 3., 3., 3., 2.,
          1., 2., 0., 0., 0., 0., 0., 0., 0., 0., 0., 0., 0., 0., 0., 0.,
          0., 0., 0., 0., 0., 0., 0., 0., 0., 0., 0., 0., 0., 0., 0., 0.,
          0., 0., 0., 0., 0., 0., 0., 0., 0. ]
      - [ 599., 740., 931., 585., 260., 132., 45., 16., 10., 6., 28., 3.,
          4., 3., 4., 13., 1., 2., 5., 5., 2., 0., 1., 0., 0., 149., 0.,
          0., 0., 1., 0., 5., 0., 5., 2., 19., 0., 4., 1., 0., 50., 0.,
          0., 0., 0., 17., 0., 0., 3., 0., 1., 0., 0., 0., 0., 114., 0.,
          0., 0., 0., 1., 0., 0., 0., 1., 5., 0., 1., 0., 0., 45., 0.,
          0., 0., 0., 20., 0., 0., 6., 4., 2., 2., 0., 0., 0., 143., 0.,
          0., 0., 0., 2., 2., 0., 5., 1., 5., 0., 0., 0., 0., 26., 0.,
          0., 0., 0., 5., 0., 0., 1., 0., 0., 0., 0., 0., 0., 44., 0.,
          0., 0., 0., 0., 0., 0., 0., 0., 1., 0., 0., 0., 0., 10., 0.,
          0., 0., 0., 4., 0., 0., 0., 0., 0., 0., 0., 0., 0., 32., 0.,
          0., 0., 0., 0., 0., 0., 1., 0., 1., 0., 0., 0., 0., 15., 0.,
          0., 2., 2., 5., 0., 0., 1., 2., 2., 4., 5., 3., 21., 27., 22.,
          20., 13., 8., 7., 9., 15., 5., 5., 8., 10., 7., 8., 8., 4., 5.,
          10., 7., 6., 7., 4., 1., 7., 5., 3., 6., 5., 0., 4., 1., 4.,
          3., 4., 7., 3., 0., 3., 7., 1., 4., 3., 1., 2., 4., 2., 2., 6.,
          4., 0., 1., 4., 3., 2., 1., 2., 2., 1., 2., 4., 6., 5., 8., 2.,
          7., 10., 21., 6., 4., 8., 1., 8., 8., 7., 5., 3., 3., 7., 8.,
          5., 11., 7., 7., 5., 7., 10., 4., 8., 8., 9., 9., 12., 6., 3.,
          1., 14., 4., 10., 6., 7., 9., 9., 8., 2., 8., 7., 8., 10., 9.,
          12., 6., 13., 10., 12., 5., 14., 5., 12., 8., 14., 8., 11., 9.,
          16., 14., 19., 10., 14., 10., 5., 19., 14., 8., 15., 20., 16.,
          18., 17., 21., 23., 25., 13., 19., 16., 19., 33., 27., 24.,
          13., 22., 25., 21., 21., 31., 20., 36., 39., 27., 22., 44.,
          38., 31., 44., 42., 40., 50., 61., 58., 60., 52., 55., 75.,
          63., 49., 56., 75., 72., 75., 83., 85., 116., 71., 98., 70.,
          63., 86., 62., 66., 45., 71., 61., 75., 89., 55., 39., 47.,
          65., 55., 85., 79., 77., 77., 61., 59., 69., 50., 65., 67.,
          60., 46., 34., 20., 12., 11., 9., 8., 1., 1., 0., 0., 0., 0.,
          0., 0., 0., 0., 0., 0., 0., 0., 0., 0., 0., 0., 0., 0., 0., 0.,
          0., 0., 0., 0., 0., 0., 0., 0., 0., 0., 0., 0., 0. ]
      - [ 77., 187., 104., 63., 78., 87., 120., 104., 172., 249., 380.,
          552., 726., 468., 374., 155., 90., 25., 9., 8., 1., 2., 1., 0.,
          0., 185., 0., 0., 0., 1., 3., 1., 1., 7., 2., 27., 0., 4., 0.,
          0., 70., 0., 0., 2., 0., 20., 0., 0., 7., 0., 1., 0., 0., 0.,
          0., 161., 0., 0., 0., 0., 0., 0., 0., 2., 0., 5., 0., 2., 0.,
          0., 34., 0., 1., 1., 0., 11., 1., 0., 5., 4., 3., 0., 0., 0.,
          0., 125., 0., 0., 0., 0., 0., 2., 0., 2., 0., 5., 0., 1., 0.,
          0., 10., 0., 4., 1., 0., 8., 0., 0., 1., 0., 2., 0., 2., 0.,
          0., 43., 0., 0., 1., 0., 2., 1., 0., 1., 1., 2., 0., 4., 6.,
          4., 6., 1., 1., 2., 3., 0., 2., 0., 3., 3., 1., 1., 3., 2., 1.,
          108., 0., 0., 4., 2., 3., 5., 0., 4., 1., 3., 1., 4., 4., 3.,
          17., 4., 9., 7., 7., 13., 16., 9., 10., 7., 11., 13., 6., 6.,
          10., 27., 28., 14., 13., 15., 15., 14., 5., 14., 9., 10., 6.,
          2., 4., 9., 5., 4., 2., 5., 2., 1., 4., 0., 5., 11., 1., 0.,
          3., 1., 0., 5., 2., 3., 5., 1., 3., 4., 4., 0., 1., 0., 2., 1.,
          5., 3., 3., 2., 4., 0., 1., 4., 6., 7., 5., 1., 3., 1., 2., 3.,
          4., 4., 3., 3., 5., 4., 0., 2., 7., 3., 6., 8., 2., 3., 2., 4.,
          3., 4., 4., 5., 3., 3., 2., 3., 2., 1., 4., 2., 6., 14., 8.,
          6., 3., 8., 8., 4., 2., 1., 4., 3., 4., 3., 2., 6., 5., 4., 2.,
          6., 6., 8., 6., 5., 4., 3., 5., 7., 5., 10., 3., 2., 8., 3.,
          3., 2., 10., 4., 5., 9., 1., 2., 7., 6., 3., 4., 6., 3., 6.,
          4., 2., 7., 11., 9., 8., 3., 13., 10., 13., 11., 6., 8., 15.,
          14., 7., 6., 13., 14., 11., 19., 10., 9., 15., 11., 8., 6.,
          18., 18., 11., 20., 8., 22., 12., 14., 17., 21., 20., 12., 18.,
          17., 13., 18., 21., 16., 23., 20., 26., 31., 32., 24., 38.,
          35., 33., 54., 63., 61., 117., 203., 314., 328., 231., 284.,
          181., 271., 219., 204., 146., 96., 65., 51., 33., 15., 3., 0.,
          0., 0., 0., 0., 0., 0., 0., 0., 0., 0., 0., 0., 0., 0., 0., 0.,
          0., 0., 0., 0., 0., 0., 0., 0., 0., 0., 0., 0., 0., 0., 0., 0.,
          0., 0., 0., 0., 0., 0., 0., 0. ]
      - [ 2., 0., 0., 1., 2., 8., 5., 22., 31., 62., 98., 87., 110.,
          157., 192., 309., 1178., 1630., 88., 2., 5., 3., 4., 0., 1.,
          239., 0., 0., 0., 2., 0., 9., 0., 15., 4., 59., 1., 2., 0., 0.,
          143., 0., 0., 1., 0., 30., 0., 0., 7., 0., 0., 0., 0., 0., 0.,
